{"learner":{"attributes":{},"feature_names":["drive","qtr","quarter_seconds_remaining","down","ydstogo","yardline_100","shotgun","no_huddle","score_differential","spread_line","season","posteam","poscoach"],"feature_types":["float","float","float","float","float","float","float","float","float","float","int","int","int"],"gradient_booster":{"model":{"gbtree_model_param":{"num_parallel_tree":"1","num_trees":"100"},"iteration_indptr":[0,1,2,3,4,5,6,7,8,9,10,11,12,13,14,15,16,17,18,19,20,21,22,23,24,25,26,27,28,29,30,31,32,33,34,35,36,37,38,39,40,41,42,43,44,45,46,47,48,49,50,51,52,53,54,55,56,57,58,59,60,61,62,63,64,65,66,67,68,69,70,71,72,73,74,75,76,77,78,79,80,81,82,83,84,85,86,87,88,89,90,91,92,93,94,95,96,97,98,99,100],"tree_info":[0,0,0,0,0,0,0,0,0,0,0,0,0,0,0,0,0,0,0,0,0,0,0,0,0,0,0,0,0,0,0,0,0,0,0,0,0,0,0,0,0,0,0,0,0,0,0,0,0,0,0,0,0,0,0,0,0,0,0,0,0,0,0,0,0,0,0,0,0,0,0,0,0,0,0,0,0,0,0,0,0,0,0,0,0,0,0,0,0,0,0,0,0,0,0,0,0,0,0,0],"trees":[{"base_weights":[-1.9426735E-3,5.5602926E-1,-8.642845E-1,3.245935E-1,8.790166E-1,-6.449431E-1,-1.2563652E0,4.5915923E-1,-3.1904823E-1,1.4596765E0,8.218959E-1,-1.0488962E0,-4.993744E-1,1.8627088E-1,-1.318009E0,1.2890708E-1,7.031199E-1,1.3209046E0,-7.660554E-1,-6.5864885E-1,1.612897E0,7.3002404E-1,1.2160232E0,-3.0248702E-1,-1.1238549E0,-8.864848E-1,-3.2277215E-1,-5.2458185E-1,4.500383E-1,-7.580737E-1,-1.3591651E0,3.0589402E-1,-3.566669E-1,5.5311334E-1,1.2045068E0,-4.7016792E-2,1.4631146E0,-9.6537095E-1,-2.2046821E-1,1.4266535E-2,-7.367551E-1,1.3855588E0,1.6314022E-1,7.699859E-1,4.5723684E-2,8.718213E-1,1.6273805E0,-1.932393E-2,-5.45215E-1,-1.2209961E0,-8.451917E-1,-5.4608226E-1,-1.136748E0,-2.2830576E-1,-8.732155E-1,-6.785468E-2,-9.327146E-2,-6.126023E-2,5.4164517E-1,-8.292934E-1,-3.810335E-1,-1.4013507E0,-1.2065705E0,1.1073023E0,2.0971568E-1,4.4064668E-1,-4.760467E-1,1.114062E0,4.5382142E-1,1.6772239E0,9.195564E-1,6.2028134E-1,1.4849839E0,-5.6042057E-2,-1.1076579E0,-7.7811813E-1,4.6286452E-1,-7.98845E-2,-1.5395649E-2,4.857042E-2,1.3761258E-1,8.0192816E-1,-4.4096235E-2,-4.9903125E-2,5.989222E-1,1.0360304E0,5.885768E-1,1.9552823E0,1.3355688E0,-4.524729E-2,2.8866554E-2,7.743205E-2,-7.086716E-1,-1.0932895E0,-1.3864406E0,-1.0251601E0,6.669935E-3,2.1113531E-1,-6.163132E-1,-1.2827175E0,-9.6599615E-1,-6.266614E-1,-1.04169875E-1,-6.1899453E-1,-9.3639016E-1,-3.1849876E-2,2.848872E-2,3.685919E-1,9.280361E-1,-8.408446E-1,-0E0,-0E0,-4.3919423E-1,-1.4113313E0,-9.910521E-1,-1.3100377E0,-9.706444E-1,4.962879E-1,1.2539012E0,3.693299E-1,-6.421008E-2,-1.3079879E-1,8.3952427E-1,-7.462184E-1,-2.3452467E-1,1.4086674E0,9.49029E-1,6.5039325E-1,8.172207E-2,5.324128E-1,1.8785003E0,1.1738777E0,5.891753E-1,-0E0,7.9947665E-2,1.11743726E-1,1.5384666E0,8.9073285E-2,-2.6263893E-1,-7.147372E-1,-1.162284E0,1.3130021E-1,-9.2971796E-1,1.6350375E0,-1.3945988E-1,1.2044281E0,7.6048756E-1,-3.7217677E-1,4.8670027E-1,-2.762726E-1,1.2322947E-1,3.027601E-1,8.178314E-2,9.9922305E-1,1.356783E-1,1.0102676E0,3.594739E-1,1.9662514E-1,1.6082058E0,1.5825585E0,9.7862196E-1,-1.4388743E-3,3.2618348E-2,3.9465286E-2,-8.345813E-2,-0E0,-7.137909E-2,-1.1962008E0,-6.4678174E-1,-5.4754263E-1,-1.4113761E0,-1.1332796E0,-4.5258132E-1,-1.3278803E-1,1.2754105E-1,5.6477135E-1,-0E0,-4.2090634E-1,-8.3901626E-1,-8.829225E-1,-1.343362E0,-2.9173175E-1,-1.018388E0,-9.0212464E-1,-5.263711E-1,7.106284E-1,-1.6121756E-1,-6.874259E-2,-2.8117344E-1,-9.425856E-2,-6.061064E-1,-9.0950085E-3,4.2598137E-1,2.1379723E-1,1.0810021E0,-8.7439984E-2,-6.267101E-1,-4.7689054E-2,-0E0,-1.2435386E-1,-1.393462E-1,-1.1431323E0,-2.4058436E-1,-1.3468326E0,-8.819098E-1,-3.344254E-1,-1.1732181E0,9.535773E-2,3.1372288E-1,1.4225763E-1,1.00267395E-1,-4.479466E-2,4.5165867E-1,3.9448118E-1,-1.8233821E-1,2.64378E-1,-7.147782E-1,1.1605648E0,4.790978E-1,-8.21897E-1,6.210273E-2,-5.0618064E-1,5.1708445E-2,7.1441954E-1,1.409515E-1,3.9124936E-1,1.0065898E0,1.1021425E0,6.1073315E-1,1.818678E-1,-3.213159E-1,1.598419E-1,1.7765667E-1,2.0957139E-1,1.7135733E0,9.0404415E-1,1.4574422E0,1.238254E0,2.0415574E-1,8.258276E-1,1.5105288E-1,-2.8026745E-2,1.6797684E-1,-3.2927975E-2,2.090731E-2,-4.7386917E-1,-8.459846E-2,-1.1882561E0,-2.688578E-1,3.48821E-1,-2.9440748E-3,-1.0100614E0,-0E0,1.82801E-1,1.2292321E0,4.240155E-1,-4.5526585E-1,8.883638E-1,1.2927102E0,8.680676E-1,4.826168E-1,1.6597968E-1,-6.167948E-1,1.8491904E-1,9.743072E-1,-0E0,-3.8333145E-1,4.486486E-3,8.911933E-1,-0E0,4.9994087E-1,1.19415365E-1,9.2092645E-1,1.1916848E0,1.6136535E-2,1.675629E-1,5.2367187E-1,1.695424E-1,8.600194E-2,1.5983773E0,-0E0,1.3028934E0,7.254088E-1,2.0671662E-2,-7.175014E-2,-4.7702726E-2,4.802332E-4,-1.2854457E0,-9.277006E-1,-5.6277716E-1,-1.1034526E-1,-6.93037E-1,2.705735E-3,-9.922777E-1,-1.4520242E0,-1.2320664E0,-6.377479E-1,-6.5232426E-1,4.393432E-2,1.125669E-1,-3.771372E-1,-2.059258E-2,7.501662E-1,1.8217339E-1,-2.5121176E-1,-9.1306376E-1,-3.2543778E-1,-7.317103E-1,-1.1137367E-1,-9.6587665E-2,-3.760095E-2,-2.4391897E-2,-1.3529916E0,2.724401E-2,-4.4418344E-1,-2.4803499E-2,-1.028687E0,-2.6318714E-1,-9.353454E-1,-5.542166E-1,3.8138324E-1,1.0751438E-1,5.3178734E-1,4.6151906E-2,-4.3121892E-1,-5.153009E-1,3.041367E-4,-6.6971314E-1,-3.2567293E-3,-6.0228007E-3,4.8777136E-1,4.548297E-2,-0E0,5.962066E-4,1.1293373E-1,-6.758874E-1,-0E0,-1.2554677E-1,-7.688519E-2,1.0401344E-2,-6.2464476E-2,-1.0133087E-1,-1.3313058E-1,-8.854945E-2,-0E0,2.6541686E-1,-4.8237422E-1,-1.17327854E-1,-4.4614306E-1,-0E0,8.754875E-1,5.253752E-1,-2.5840366E-1,1.1367089E-1,4.0962562E-1,-6.186207E-2,5.127287E-1,-7.651271E-2,-5.2050304E-1,-5.8678847E-2,7.7165765E-1,-0E0,-7.918078E-2,4.897766E-2,1.357395E-1,2.2685523E-1,7.4933046E-1,-3.0144805E-1,-8.881592E-1,1.2626109E-1,-5.741854E-1,2.5404626E-1,-5.537547E-1,1.4064492E-1,-7.5187385E-2,8.603798E-3,8.976466E-2,8.49527E-2,1.3381173E-1,1.3338215E0,9.4592595E-1,8.6037286E-2,1.1676278E0,5.691126E-1,1.0145464E0,2.6654225E-2,4.385262E-1,-4.842308E-1,3.547922E-2,6.178208E-1,1.287207E-2,1.3955411E0,1.9028889E-1,1.2201751E-1,6.906718E-1,1.5881112E-1,1.2160693E0,1.5123852E-1,8.0931604E-1,-5.141707E-2,6.4495873E-1,1.0457179E-2,1.0439368E-1,2.5300446E-1,-0E0,3.7156504E-2,-2.741198E-2,-0E0,-5.3003204E-1,-1.2447354E0,-8.545368E-1,-0E0,-6.827538E-2,-0E0,4.9149644E-2,-1.0326952E0,-0E0,-1.9398083E-1,7.6610595E-2,4.4682708E-2,1.3956144E-1,-1.7714663E-1,6.735303E-1,-6.391794E-1,1.8596113E-1,1.1220925E0,5.4421866E-1,1.4115673E0,1.0899622E0,1.1980298E0,8.003092E-1,8.629382E-2,4.1259065E-1,-7.263547E-3,3.2497948E-1,-7.706467E-1,2.5108236E-1,4.9876824E-1,-1.0294413E-2,2.76332E-3,1.3530098E0,3.134347E-1,-2.0055729E-1,-5.1530296E-1,-1.5550442E-1,3.209687E-1,-1.01747975E-1,1.4930412E-1,3.0929213E-3,-0E0,6.251687E-2,8.3940335E-2,1.3125795E-1,4.115445E-2,1.2333893E-1,4.3218605E-2,-2.6476167E-2,-0E0,2.975611E-1,5.921831E-1,3.826514E-3,1.6719429E-1,1.3476938E-1,1.4718314E-1,3.427034E-1,1.0397192E0,4.5648393E-1,7.5897813E-4,-1.9849997E-2,-1.3737424E-1,-1.0792645E0,-4.005115E-1,-1.0701076E0,1.109349E-2,-5.9666026E-1,-7.6622166E-2,-0E0,-1.127434E-1,-1.6401485E-2,-1.4391981E-1,-1.1372709E0,-4.042976E-1,-1.2120042E-1,-0E0,-7.543676E-1,-0E0,-7.0361394E-1,4.427452E-1,-1.7152494E-2,-0E0,2.5435189E-2,4.0230906E-1,-5.7475287E-2,4.316293E-1,1.0726152E-1,-0E0,3.28993E-2,-5.4556664E-2,-0E0,-0E0,-9.326076E-2,-0E0,-3.4705552E-1,-7.546224E-1,-0E0,-7.888426E-2,-1.3219813E-1,-6.3136315E-1,-5.301961E-2,-1.16130844E-1,-9.7391856E-1,-5.1942572E-2,8.797122E-3,-9.518308E-1,-1.054601E-2,-5.862417E-1,1.228305E-1,-8.731666E-2,9.177927E-2,3.849712E-1,7.8173816E-2,-1.0408546E-1,2.7914482E-1,-3.8185302E-2,-5.1299334E-1,-0E0,-6.387059E-2,-7.066986E-2,-0E0,5.51868E-1,-1.0578098E-3,-7.534606E-2,-2.2589234E-1,-1.607927E-2,5.576041E-1,-9.01723E-2,-2.168173E-1,-6.3373E-2,-0E0,5.125797E-2,-1.9801138E-1,1.3834043E-2,1.04885794E-1,6.8216205E-2,3.1062813E-2,-5.547994E-1,1.4540192E-1,7.566777E-2,4.5862523E-1,3.8687167E-1,-2.8463206E-1,6.85734E-1,3.2437548E-1,-3.1653428E-1,1.6666073E-1,-5.962037E-1,-0E0,5.8026753E-2,-4.2902207E-1,-0E0,1.2978743E-1,-1.4940651E-2,3.7673146E-2,8.288665E-2,-0E0,-5.420505E-1,1.2561665E-1,-1.0696007E0,-6.62715E-1,-6.63827E-2,-0E0,5.5662923E-2,-0E0,-8.647748E-3,-5.896323E-1,4.6302396E-1,1.113768E-2,-2.1728657E-1,7.949422E-2,1.4304267E-1,7.339497E-2,1.0581075E0,7.700071E-1,1.0583286E-1,-2.0980923E-1,2.5144912E-2,1.1928709E0,5.0893575E-1,7.102915E-1,8.871586E-1,1.2551181E0,2.2122097E-1,-1.6763902E-1,6.68713E-1,2.7721915E-1,-6.181491E-2,-3.4746274E-1,6.810553E-2,-5.9602074E-3,-0E0,7.660536E-2,-2.4443701E-1,2.665927E-1,1.6832975E0,1.0330864E0,1.4005746E-1,7.5797826E-1,1.0019114E-1,1.3936174E-1,-0E0,8.4827286E-1,2.0354982E-2,-1.4461978E-1,9.743744E-2,2.0240103E-1,-0E0,3.4263557E-1,-5.8081156E-1,-0E0,-1.2528954E0,-2.8032705E-1,-1.034283E0,-0E0,-2.3234396E-1,4.815261E-2,-1.0474361E0,-0E0,1.4374608E-2,-4.3041164E-1,2.3862192E-2,-5.955957E-2,-0E0,7.388576E-2,6.5655294E-3,-7.579558E-1,-0E0,5.8036383E-2,-0E0,1.1688528E0,7.599009E-1,3.4131452E-1,1.2385732E0,1.4658993E-1,5.6656014E-2,1.1035454E-1,2.8282407E-1,1.2336427E0,6.752962E-1,9.170055E-1,2.640763E-1,6.852627E-1,5.6945313E-2,5.699942E-3,-8.393848E-1,2.0733971E-2,-6.948698E-2,8.383126E-1,6.509955E-2,-0E0,1.5609914E-1,7.5924047E-3,5.1594204E-1,-0E0,-3.422037E-1,1.4374608E-2,-0E0,-5.50327E-1,-2.823602E-2,4.4926424E-3,6.716566E-2,1.0618837E-1,-2.5217962E-1,1.22390196E-1,5.0018937E-3,-5.8953486E-2,-0E0,3.594596E-2,3.990758E-1,9.196984E-2,-0E0,7.533095E-2,4.2527705E-2,1.220833E-1,-3.092075E-2,5.638317E-1,-0E0,-1.126692E0,1.4322201E-2,-5.5340815E-1,-1.0529117E-1,-0E0,-6.9346346E-2,-3.581178E-1,-4.2368826E-2,4.8287958E-2,3.854528E-2,-1.1981841E-1,-7.044735E-2,-0E0,-4.466571E-2,2.8845672E-2,-1.35882655E-2,-8.51109E-2,-7.4562185E-2,-1.2318237E-2,8.39435E-2,-0E0,7.1994625E-2,-0E0,6.0995525E-1,-0E0,-4.3095618E-1,-2.198909E-2,-8.317716E-1,-6.1328065E-1,-0E0,-7.046077E-2,-5.397924E-2,9.394066E-3,-1.0288727E0,-8.0435526E-1,-1.0035627E-1,-7.1406513E-1,3.7629902E-3,-6.063578E-1,-8.233353E-2,7.849194E-1,1.3385291E-1,5.237099E-1,4.1986278E-1,-1.5165547E-1,1.21963345E-1,7.122116E-1,3.8151413E-1,-1.248885E-1,-6.071458E-1,-3.583555E-1,4.1608608E-1,1.1900403E-1,-6.628969E-2,-0E0,-0E0,8.791354E-2,-3.172164E-2,-0E0,-6.500634E-2,-0E0,-7.4360526E-1,5.95797E-1,3.4331295E-1,-0E0,-3.768398E-2,2.9196817E-1,4.4016948E-1,9.4308496E-2,7.166478E-2,-0E0,-5.8240473E-1,-0E0,-0E0,7.2131926E-1,3.6876336E-2,-3.3565056E-2,-3.399846E-2,-4.0023455E-1,5.3417784E-1,-1.0422079E-2,-2.2039509E-1,-6.9890803E-1,-5.751853E-2,-0E0,-0E0,-6.1180353E-2,-2.7825078E-2,3.1377786E-1,-7.495811E-1,-1.1365036E0,-9.541913E-2,-2.609647E-1,-6.0770667E-1,-0E0,7.470752E-1,-1.655765E-4,-8.417138E-2,1.6354994E-1,-3.640662E-1,1.3701527E-2,2.4920844E-1,1.04756586E-1,1.0201458E-1,6.306654E-1,-8.437923E-2,9.8374076E-2,1.0901899E0,1.3986541E-1,1.6528831E-1,5.586945E-1,7.312386E-1,2.189663E-2,5.96501E-2,1.0037497E-1,5.9851673E-2,1.3403977E-1,3.7107506E-1,7.7856824E-2,-2.5052547E-1,7.83741E-2,3.9545485E-1,7.507767E-1,-4.365225E-1,3.4986138E-1,-0E0,-4.065177E-1,2.1625219E-2,-1.4059205E-1,-5.6533545E-1,3.1783968E-1,4.3579867E-1,-1.2306617E-2,1.6816057E-1,3.8037929E-3,1.5306042E-1,6.976774E-1,-0E0,3.589655E-2,7.8615874E-1,-0E0,6.6869065E-2,1.2612496E-1,1.6791353E-1,-2.2624078E-1,3.3086592E-1,-1.9723278E-2,4.148643E-2,-0E0,-3.429157E-1,-7.703057E-2,-1.2711543E0,-8.21341E-1,-0E0,-8.4960654E-2,-1.0307056E-1,-2.4022326E-2,8.988055E-1,-5.3968674E-1,-4.4157945E-2,5.962066E-4,-1.0584821E-1,-5.499729E-2,-6.466948E-2,-0E0,-7.8897345E-1,-0E0,4.459899E-3,1.1710665E-1,9.01048E-2,4.1464536E-4,4.787002E-2,-0E0,1.2307371E-1,-0E0,-4.7937E-3,5.999969E-1,1.0661128E0,1.3518405E0,7.2980654E-1,4.1028145E-1,8.5129017E-1,1.249535E0,5.717143E-1,1.4959717E-1,4.8404422E-1,8.639144E-1,-9.00493E-1,-9.672944E-3,1.4495562E-1,-0E0,-0E0,7.6865315E-2,-5.5238195E-2,-0E0,-4.0079664E-2,-8.7141377E-1,5.200063E-2,-0E0,-0E0,-3.6956066E-1,5.221003E-2,-0E0,-7.4303295E-3,4.7454944E-1,6.9837235E-3,-5.3351916E-2,6.3015807E-1,-0E0,-0E0,-1.1525798E0,-6.2918745E-2,2.5917091E-3,-4.3957347E-1,-0E0,7.625737E-2,-0E0,-6.026133E-1,-3.1144926E-1,-5.982215E-1,-8.7748036E-2,-6.7247994E-2,-3.2778183E-1,-5.535855E-1,-1.050978E0,-0E0,-7.979032E-2,-7.3604E-2,-0E0,-4.673123E-1,-7.4131495E-1,9.792812E-1,-0E0,4.3367553E-1,-2.9317947E-2,6.1888474E-1,-0E0,6.335425E-1,2.0405647E-1,-7.361301E-2,-4.5949528E-1,4.0612072E-1,4.785279E-2,1.4376607E0,4.5723137E-1,-1.3074898E-2,4.9876824E-1,-1.9290681E-1,1.7516063E-1,-3.1222692E-1,-6.943773E-1,-6.317985E-2,-4.2372838E-1,4.8517123E-1,-4.9799928E-3,-8.068147E-1,-8.6126074E-2,1.14817664E-1,9.9940374E-2,-0E0,4.6486918E-2,-5.579083E-2,3.992031E-2,1.1591453E-2,-9.867766E-3,2.0636809E-1,8.9012735E-2,6.953138E-1,3.9967075E-1,-0E0,-6.792439E-2,7.1943425E-2,-0E0,2.1889694E-3,-2.1291515E-1,-3.1666386E-1,-5.920241E-1,-0E0,5.567144E-1,-3.6782226E-1,2.1591187E-1,-3.704123E-1,-0E0,-8.6665235E-2,-5.228358E-1,6.32856E-2,-0E0,-1.0056711E-1,-3.8728663E-1,-7.877317E-1,-1.2156805E0,-1.0339971E-2,-6.565473E-2,-7.8699046E-1,-5.171357E-1,4.167235E-1,9.460834E-2,3.9658733E-2,-2.2914993E-2,-5.1547265E-1,1.601335E-3,2.9204322E-2,-0E0,-0E0,-7.040845E-2,-0E0,5.3252466E-2,8.1467515E-1,3.9894745E-1,6.714387E-2,1.1273655E-1,5.6975216E-1,-1.5695176E-1,5.6908125E-1,-1.2493286E-1,2.2712564E-2,7.5020283E-1,-3.3249535E-2,3.1348012E-2,5.8066565E-1,2.6983887E-1,-0E0,3.3250743E-1,-0E0,-3.148551E-1,3.4281313E-2,-3.0164807E-3,-0E0,4.6941485E-2,7.6647684E-2,2.6068717E-1,-6.4121974E-1,3.0877346E-3,1.7034471E-1,4.6867567E-1,-4.819849E-2,9.596651E-3,-4.4013488E-1,-0E0,-0E0,-3.660469E-1,-7.482264E-2,-0E0,8.083407E-2,-0E0,6.829304E-2,-0E0,1.0323652E-1,3.8083428E-1,6.257581E-2,9.453581E-2,-0E0,5.330056E-2,1.5368135E-2,-3.308048E-1,-0E0,5.007195E-2,-4.236451E-2,-0E0,-1.0330925E-1,-1.3032407E0,-1.089871E-1,-4.4816613E-1,1.1319469E-1,-0E0,-0E0,-7.3425785E-2,-8.254863E-1,-0E0,6.489344E-3,8.24074E-2,9.014757E-1,1.16498895E-1,1.2501994E0,1.751811E0,7.013922E-1,1.13659926E-1,1.1156667E-1,5.646311E-1,8.2073337E-1,1.4064962E-1,1.7700478E0,9.626028E-1,4.2782894E-1,6.822433E-1,8.977614E-2,7.32032E-1,7.307473E-2,3.1065896E-1,3.622033E-1,9.248128E-1,-5.8495782E-2,-1.0760059E0,-0E0,-9.9323116E-2,-1.2035427E-2,5.1311295E-2,-4.676652E-1,-0E0,-0E0,5.9372157E-1,-0E0,6.5281965E-2,-8.612633E-2,-1.20110266E-1,-4.964672E-2,-0E0,-6.358998E-2,-0E0,-4.8287414E-2,-2.0366753E-2,-0E0,-6.3459374E-2,-1.999585E-2,-5.700953E-2,-7.0019975E-2,-0E0,-1.13877E0,-8.4377125E-2,-2.5124368E-1,-6.184102E-1,-4.4370657E-1,-8.0232614E-1,1.309373E-1,7.645804E-3,5.739124E-2,-0E0,2.095294E-2,-3.0080402E-2,-0E0,6.704276E-2,-0E0,6.987263E-2,-0E0,3.9193887E-2,-1.1666454E-1,2.9262183E-2,-8.2597035E-1,-2.0687005E-1,5.1312405E-1,-1.10606566E-1,8.561577E-2,-2.6027936E-1,8.327093E-2,1.5996514E-1,5.2254856E-1,-3.5869278E-2,6.234462E-1,-0E0,-2.7854583E-1,-0E0,-2.0683868E-2,3.4085947E-1,-2.483012E-1,-7.850689E-2,-7.6736075E-1,-3.2511553E-1,-5.718189E-1,1.2423969E-1,-5.1150286E-1,-2.3618942E-1,5.470413E-1,-0E0,-8.939699E-1,-2.2606342E-1,8.595287E-2,-7.606982E-2,-0E0,7.011765E-2,-1.9941169E-1,7.3066275E-3,-1.7772583E-2,2.7569763E-2,8.114037E-1,4.542883E-2,4.181379E-1,-1.9357888E-2,-4.906086E-2,-0E0,-3.5095623E-1,-0E0,-6.2348956E-1,-0E0,-0E0,5.756553E-2,-4.3250966E-1,1.5597814E-2,2.9827453E-2,3.737017E-1,-4.8671745E-2,-0E0,-5.800756E-1,-0E0,-8.181943E-2,9.8646E-4,-9.704473E-2,-1.6693114E-1,-1.3575482E-1,-9.852983E-1,6.8266995E-2,-2.5539672E-1,-2.651585E-3,-8.0242455E-2,-5.4624957E-1,-0E0,-0E0,6.251687E-2,-0E0,-6.638989E-2,3.182599E-2,-6.264222E-2,-6.3073955E-2,1.2903148E-2,-0E0,8.2951084E-2,-0E0,4.2689443E-2,1.1137502E-1,4.874463E-1,-4.892071E-1,6.5453833E-1,7.716754E-2,5.3691405E-1,-4.65003E-1,-0E0,6.60701E-1,8.593462E-1,-0E0,6.23561E-2,2.9194465E-1,-6.136146E-3,2.0197491E-1,-8.15832E-2,4.1801125E-2,-5.194937E-3,-2.2706933E-2,8.543167E-3,-3.335867E-1,1.696004E-2,-1.363117E-1,3.7017178E-2,-1.5091786E-2,5.7379377E-1,-8.71078E-2,9.035632E-3,9.1004536E-2,5.2542217E-2,2.6298746E-1,6.342846E-2,-0E0,-4.6412447E-1,-1.361509E-2,3.7386186E-2,-5.803347E-2,-0E0,5.285822E-2,-4.4304464E-2,5.2309966E-1,-0E0,-4.2431768E-2,2.0028062E-2,5.4966114E-2,-5.5768516E-2,-1.1169161E-1,-4.7611687E-2,-1.3198508E-1,-1.1813034E0,-6.6888265E-2,-0E0,-4.2615045E-2,-9.321843E-2,5.992744E-1,9.878563E-2,1.21944204E-1,2.8316772E-2,1.759761E-1,-0E0,5.9315217E-1,7.671443E-1,-1.9271871E-1,2.8469494E-1,1.0853212E-1,4.9027073E-1,6.872146E-2,8.9111364E-1,8.478322E-2,1.9041286E-1,1.1076367E0,7.3116374E-1,2.2835311E-1,5.421279E-1,-0E0,6.81365E-2,2.4751301E-1,-4.306023E-3,1.4119551E0,2.5899714E-1,-0E0,3.870015E-1,4.6629038E-2,-0E0,6.32546E-2,9.487067E-2,-1.0814048E-2,-1.11877054E-1,-5.07172E-2,-0E0,-0E0,6.1181054E-2,-3.8186777E-2,8.443931E-3,-7.1033803E-3,-1.115696E-1,-5.3168133E-2,-4.218302E-1,-5.807524E-3,-6.9820285E-1,-1.7360859E-2,-6.83018E-1,-8.3926266E-1,-3.4154198E-1,-8.101503E-2,-5.6101817E-1,-3.7116934E-2,1.6511808E-1,-9.708837E-1,-0E0,-3.5238585E-1,2.9579459E-2,-2.2407724E-2,6.039854E-1,2.439869E-2,-3.319192E-2,4.8526216E-2,4.4418254E-1,-6.395126E-2,4.748049E-2,9.024701E-2,3.768777E-1,5.1387562E-3,-4.6926495E-2,9.041407E-2,2.196631E-1,-3.6583105E-1,-2.8102431E-2,1.465728E-1,-1.4893885E-1,-0E0,4.549917E-2,-3.1693304E-1,1.4385734E-1,-8.292551E-1,-5.68985E-1,-5.7431627E-2,5.365095E-2,-9.2101686E-2,-1.7615567E-1,4.5632336E-2,-0E0,-4.461249E-1,-9.392922E-1,-0E0,-3.098474E-1,6.32329E-2,2.048172E-1,-2.0307075E-2,-9.3403794E-2,7.435799E-3,-3.9931197E-2,-0E0,-4.4840537E-2,8.109114E-2,-0E0,1.8597186E-2,4.356768E-2,4.455637E-2,-1.3199921E-2,-0E0,-3.7659254E-2,-1.7152494E-2,-6.681424E-2,-6.120361E-2,-1.8855194E-2,-1.7608995E-2,1.8761795E-2,4.905569E-2,1.0424615E-2,-5.9726655E-2,-0E0,-5.397924E-2,-0E0,-1.17441535E-1,-5.7090383E-2,-0E0,-4.1460905E-2,-4.0876217E-2,-7.1807E-2,-2.2025637E-2,7.0076543E-3,5.028255E-2,-0E0,-6.310217E-2,-0E0,1.3624807E-1,2.8511127E-2,1.7282173E-2,5.321514E-2,-7.091727E-2,-0E0,7.778984E-2,5.283468E-2,8.7591566E-2,5.4970257E-2,1.963744E-2,4.8354983E-2,2.7421445E-2,-3.3410178E-3,9.677977E-3,-1.4732553E-2,-2.2372182E-2,-4.3244008E-2,1.0258895E-2,-2.5326645E-2,-0E0,8.8821754E-2,2.2419397E-2,-6.7523244E-4,2.2065018E-3,3.7060943E-2,-5.6212645E-2,-2.010076E-2,-0E0,6.4263664E-2,-3.4314558E-2,2.8340507E-3,-2.4088962E-2,9.590753E-3,-4.7337085E-2,-1.1815716E-1,9.398707E-3,7.703365E-2,4.8429698E-2,6.494127E-2,4.9052875E-2,7.749379E-2,3.0777907E-2,-3.429939E-2,3.8821425E-3,4.374024E-2,1.0370749E-1,3.9904904E-2,6.528529E-2,8.9958735E-2,1.1099666E-1,2.4851138E-2,7.968314E-2,-0E0,-0E0,3.1407252E-2,5.679878E-2,-0E0,9.839069E-3,3.6446948E-2,-1.4121464E-2,1.3370528E-2,3.5957687E-2,1.5720385E-1,-0E0,4.4020176E-2,-2.7200455E-2,1.4493465E-2,1.973119E-3,4.25011E-2,4.3941834E-3,-2.8168244E-2,-5.2896123E-2,1.0139594E-2,-7.377709E-2,-2.9637855E-2,-8.507737E-2,-8.470464E-3,-5.986604E-2,-8.835334E-2,-5.9389155E-2,1.2294679E-3,4.0505407E-3,-1.4518981E-2,-7.181836E-2,-0E0,-8.341664E-3,3.1429335E-2,5.4279384E-3,4.9951904E-2,-4.098791E-2,-1.059673E-1,3.132707E-2,-2.624523E-2,-1.4139361E-2,-5.2020818E-2,-3.867688E-2,1.7755447E-2,7.1582116E-2,2.5845377E-2,1.1040834E-2,-6.209465E-3,-0E0,5.1447924E-2,-2.4036065E-2,2.0997494E-2,2.0462696E-2,6.743556E-2,4.0120076E-2,-0E0,-1.3257579E-2,-4.701748E-2,5.4805665E-3,-3.855543E-2,-4.9613677E-3,2.9551454E-2,-3.56648E-2,2.5170846E-3,-5.6056883E-2,-1.9168617E-2,-4.8454214E-5,3.728547E-2,-3.095802E-2,-8.2927406E-2,-1.0821119E-1,-4.8110005E-2,6.691087E-2,-4.8265565E-2,-3.8444728E-2,2.5034714E-3,-3.1806804E-2,8.537617E-3,-3.4304682E-2,-6.518037E-2,-1.0061059E-1,-1.9837404E-3,-1.934202E-2,2.0677565E-2,-9.237516E-3,-4.0476225E-2,-0E0,5.862829E-2],"categories":[],"categories_nodes":[],"categories_segments":[],"categories_sizes":[],"default_left":[0,0,1,0,0,0,0,0,0,1,0,0,0,0,0,0,0,1,0,0,0,0,0,0,0,0,0,0,0,0,0,0,0,0,0,0,0,0,0,0,0,0,0,0,0,0,0,0,0,0,0,0,0,0,0,0,0,0,0,0,0,0,0,0,0,0,0,0,0,0,0,0,0,0,0,0,0,0,0,0,0,0,0,0,0,0,0,0,0,0,0,0,0,0,0,0,0,0,0,0,0,0,0,0,0,0,0,0,0,0,0,0,0,0,0,0,0,0,0,0,0,0,0,0,0,0,0,0,0,0,0,0,0,0,0,0,0,0,0,0,0,0,0,0,0,0,0,0,0,0,0,0,0,0,0,0,0,0,0,0,0,0,0,0,0,0,0,0,0,0,0,0,0,1,0,0,0,0,0,0,0,0,0,0,0,0,0,0,0,0,0,0,0,0,0,0,0,0,0,0,0,0,0,0,0,0,0,0,0,0,0,0,0,0,0,0,0,0,0,0,0,0,0,0,0,0,0,0,0,0,0,0,0,0,0,0,0,0,0,0,0,0,0,0,0,0,0,0,0,0,0,0,0,0,0,0,0,0,0,0,0,0,0,0,0,0,0,0,0,0,0,0,0,0,0,0,0,0,0,0,0,0,0,0,0,0,0,0,0,0,0,0,0,0,0,0,0,0,0,0,0,0,0,0,0,0,0,0,0,0,0,0,0,0,0,0,0,0,0,0,0,0,0,0,0,0,0,0,0,0,0,0,0,0,0,0,0,0,0,0,0,0,0,0,0,0,0,0,0,0,0,0,0,0,0,0,0,0,0,0,0,0,0,0,0,0,0,0,0,0,0,0,0,0,0,0,0,0,0,0,0,0,0,0,0,0,0,0,0,0,0,0,0,0,0,0,0,0,0,0,0,0,0,0,0,0,0,0,0,0,0,0,0,0,0,0,0,0,0,0,0,0,0,0,0,0,0,0,0,0,0,0,0,0,0,0,0,0,0,0,0,0,0,0,0,0,0,0,0,0,0,0,0,0,0,0,0,0,0,0,0,0,0,0,0,0,0,0,0,0,0,0,0,0,0,0,0,0,0,0,0,0,0,0,0,0,0,0,0,0,0,0,0,0,0,0,0,0,0,0,0,0,0,0,0,0,0,0,0,0,0,0,0,0,0,0,0,0,0,0,0,0,0,0,0,0,0,0,0,0,0,0,0,0,0,0,0,0,0,0,0,0,0,0,0,0,0,0,0,0,0,0,0,0,0,0,0,0,0,0,0,0,0,0,0,0,0,0,0,0,0,0,0,0,0,0,0,0,0,0,0,0,0,0,0,0,0,0,0,0,0,0,0,0,0,0,0,0,0,0,0,0,0,0,0,0,0,0,0,0,0,0,0,0,0,0,0,0,0,0,0,0,0,0,0,0,0,0,0,0,0,0,0,0,0,0,0,0,0,0,0,0,0,0,0,0,0,0,0,0,0,0,0,0,0,0,0,0,0,0,0,0,0,0,0,0,0,0,0,0,0,0,0,0,0,0,0,0,0,0,0,0,0,0,0,0,0,0,0,0,0,0,0,0,0,0,0,0,0,0,0,0,0,0,0,0,0,0,0,0,0,0,0,0,0,0,0,0,0,0,0,0,0,0,0,0,0,0,0,0,0,0,0,0,0,0,0,0,0,0,0,0,0,0,0,0,0,0,0,0,0,0,0,0,0,0,0,0,0,0,0,0,0,0,0,0,0,0,0,0,0,0,0,0,0,0,0,0,0,0,0,0,0,0,0,0,0,0,0,0,0,0,0,0,0,0,0,0,0,0,0,0,0,0,0,0,0,0,0,0,0,0,0,0,0,0,0,0,0,0,0,0,0,0,0,0,0,0,0,0,0,0,0,0,0,0,0,0,0,0,0,0,0,0,0,0,0,0,0,0,0,0,0,0,0,0,0,0,0,0,0,0,0,0,0,0,0,0,0,0,0,0,0,0,0,0,0,0,0,0,0,0,0,0,0,0,0,0,0,0,0,0,0,0,0,0,0,0,0,0,0,0,0,0,0,0,0,0,0,0,0,0,0,0,0,0,0,0,0,0,0,0,0,0,0,0,0,0,0,0,0,0,0,0,0,0,0,0,0,0,0,0,0,0,0,0,0,0,0,0,0,0,0,0,0,0,0,0,0,0,0,0,0,0,0,0,0,0,0,0,0,0,0,0,0,0,0,0,0,0,0,0,0,0,0,0,0,0,0,0,0,0,0,0,0,0,0,0,0,0,0,0,0,0,0,0,0,0,0,0,0,0,0,0,0,0,0,0,0,0,0,0,0,0,0,0,0,0,0,0,0,0,0,0,0,0,0,0,0,0,0,0,0,0,0,0,0,0,0,0,0,0,0,0,0,0,0,0,0,0,0,0,0,0,0,0,0,0,0,0,0,0,0,0,0,0,0,0,0,0,0,0,0,0,0,0,0,0,0,0,0,0,0,0,0,0,0,0,0,0,0,0,0,0,0,0,0,0,0,0,0,0,0,0,0,0,0,0,0,0,0,0,0,0,0,0,0,0,0,0,0,0,0,0,0,0,0,0,0,0,0,0,0,0,0,0,0,0,0,0,0,0,0,0,0,0,0,0,0,0,0,0,0,0,0,0,0,0,0,0,0,0,0,0,0,0,0,0,0,0,0,0,0,0,0,0,0,0,0,0,0,0,0,0,0,0,0,0,0,0,0,0,0,0,0,0,0,0,0,0,0,0,0,0,0,0,0,0,0,0,0,0,0,0,0,0,0,0,0,0,0,0,0,0,0,0,0,0,0,0,0,0,0,0,0,0,0,0,0,0,0,0,0,0,0,0,0,0,0,0,0,0,0,0,0,0,0,0,0,0,0,0,0,0,0,0,0,0,0,0,0,0,0,0,0,0,0,0,0,0,0,0,0,0,0,0,0,0,0,0,0,0,0,0,0,0,0,0,0,0,0,0,0,0,0,0,0,0,0,0,0,0,0,0,0,0,0,0,0,0,0,0,0,0,0,0,0,0,0,0,0,0,0,0,0,0,0,0,0,0,0,0,0,0,0,0,0,0,0,0,0,0,0,0,0,0,0,0,0,0,0,0,0,0,0,0,0,0,0,0,0,0,0,0,0,0,0,0,0,0,0,0,0,0,0,0,0,0,0,0,0,0,0,0,0,0,0,0,0,0,0,0,0,0,0,0,0,0,0,0,0,0,0,0,0,0,0,0,0,0,0,0,0,0,0,0,0,0,0,0,0,0,0,0,0,0,0,0,0,0,0,0,0,0,0,0,0,0,0,0,0,0,0,0,0,0,0,0,0,0,0,0,0,0,0,0,0,0,0,0,0,0,0,0,0,0,0,0,0,0,0,0,0,0,0,0,0,0,0,0,0,0,0,0,0,0,0,0,0,0,0,0,0,0,0,0,0,0,0,0,0,0,0,0,0,0,0,0,0,0,0],"id":0,"left_children":[1,3,5,7,9,11,13,15,17,19,21,23,25,27,29,31,33,35,37,39,41,43,45,47,49,51,53,55,57,59,61,63,65,67,69,-1,71,73,75,-1,77,79,-1,81,83,85,87,89,91,93,95,97,99,101,103,-1,105,-1,107,109,111,113,115,117,119,121,123,125,127,129,131,133,135,137,139,141,143,-1,-1,-1,-1,145,147,149,151,153,155,157,159,-1,161,163,165,167,169,171,173,175,177,179,181,183,185,187,189,-1,-1,191,193,195,-1,-1,197,199,201,203,205,207,209,211,213,215,217,219,221,223,225,227,229,231,233,235,237,-1,-1,-1,239,241,243,245,247,249,251,253,255,257,259,261,263,265,267,269,-1,271,-1,273,275,-1,277,279,281,283,-1,-1,285,-1,-1,287,289,291,293,295,297,299,-1,301,303,305,307,309,311,313,315,317,319,321,323,-1,325,-1,327,-1,329,331,333,-1,335,-1,-1,-1,-1,337,339,341,343,345,347,-1,349,-1,-1,351,353,355,357,359,361,363,365,367,369,371,373,375,-1,377,379,381,383,385,387,-1,389,-1,391,393,395,397,399,401,-1,-1,403,-1,405,407,-1,409,411,413,-1,415,417,-1,419,421,423,425,427,429,431,433,435,437,439,441,443,445,447,-1,449,-1,451,453,455,457,459,-1,-1,461,-1,463,465,-1,467,-1,-1,469,471,473,-1,475,-1,477,479,481,483,485,487,489,491,-1,493,495,497,499,501,503,-1,-1,-1,-1,505,-1,507,-1,509,511,513,515,517,-1,519,521,523,525,-1,527,-1,-1,529,-1,-1,-1,-1,531,-1,-1,-1,-1,-1,-1,-1,-1,-1,533,535,-1,537,539,541,543,545,-1,547,549,551,553,555,557,559,-1,-1,-1,-1,561,563,565,567,-1,569,571,573,575,-1,-1,-1,-1,577,579,581,583,585,587,589,591,593,595,597,599,601,603,-1,-1,605,-1,607,-1,609,611,613,-1,-1,615,-1,-1,-1,-1,617,619,621,623,-1,-1,-1,625,-1,627,-1,-1,-1,629,631,633,635,637,639,641,643,645,647,-1,649,-1,651,653,655,657,-1,-1,659,661,663,665,667,669,671,-1,-1,-1,-1,-1,-1,-1,-1,-1,-1,673,675,677,-1,-1,-1,-1,679,681,683,-1,-1,-1,685,687,689,-1,691,-1,-1,-1,693,-1,695,697,-1,699,701,-1,703,705,-1,-1,-1,707,-1,709,-1,-1,-1,-1,-1,-1,-1,-1,711,713,-1,-1,-1,715,717,-1,719,-1,-1,721,-1,723,725,-1,-1,727,-1,729,731,733,735,-1,-1,-1,-1,737,-1,-1,739,-1,741,-1,743,-1,-1,-1,745,-1,-1,-1,-1,747,749,751,753,755,757,759,761,763,765,767,-1,-1,769,-1,-1,-1,-1,-1,-1,771,773,775,777,-1,-1,-1,-1,-1,779,781,783,785,-1,-1,-1,787,789,-1,791,-1,793,795,797,799,801,803,805,807,809,-1,811,-1,813,-1,-1,815,817,819,821,823,825,-1,-1,-1,827,-1,829,-1,831,-1,833,835,-1,837,839,841,843,845,-1,847,-1,-1,849,-1,-1,-1,-1,-1,851,-1,-1,-1,853,855,857,859,-1,-1,-1,861,863,865,867,869,871,-1,-1,873,-1,-1,875,-1,-1,-1,-1,877,-1,879,-1,-1,881,-1,-1,-1,883,885,887,-1,-1,-1,-1,889,-1,-1,-1,-1,-1,891,893,-1,895,-1,897,-1,-1,-1,899,-1,-1,-1,-1,-1,-1,-1,-1,-1,-1,-1,-1,-1,-1,-1,-1,901,-1,903,-1,905,907,-1,-1,-1,-1,909,911,-1,913,-1,915,-1,917,919,921,923,925,927,929,931,933,935,937,939,-1,-1,-1,-1,-1,-1,-1,-1,-1,941,943,945,947,949,951,953,-1,-1,-1,955,-1,-1,957,-1,-1,959,961,963,965,967,969,-1,-1,-1,-1,-1,971,973,975,-1,977,979,-1,981,983,985,987,989,-1,991,-1,-1,993,-1,-1,995,-1,997,999,1001,1003,-1,-1,-1,-1,1005,1007,1009,1011,1013,1015,1017,1019,1021,1023,-1,1025,1027,1029,1031,-1,-1,-1,-1,1033,-1,-1,1035,-1,-1,-1,1037,1039,1041,-1,-1,-1,1043,-1,1045,1047,-1,-1,-1,-1,1049,1051,-1,-1,-1,-1,-1,-1,1053,-1,-1,-1,-1,-1,-1,-1,-1,-1,-1,1055,1057,1059,1061,1063,1065,1067,1069,1071,1073,1075,1077,-1,-1,-1,-1,-1,-1,-1,-1,1079,-1,-1,1081,1083,-1,-1,-1,1085,-1,-1,1087,-1,-1,1089,-1,-1,1091,-1,-1,-1,1093,1095,1097,-1,-1,1099,1101,1103,-1,-1,-1,-1,1105,1107,1109,-1,1111,1113,1115,-1,1117,1119,1121,1123,1125,1127,1129,1131,-1,1133,1135,1137,1139,1141,1143,1145,1147,-1,1149,1151,-1,1153,-1,-1,1155,-1,-1,-1,1157,-1,1159,1161,-1,-1,-1,-1,-1,1163,1165,1167,-1,1169,1171,1173,1175,-1,-1,1177,-1,-1,-1,1179,1181,1183,1185,-1,1187,1189,1191,-1,-1,-1,1193,1195,-1,-1,1197,-1,-1,-1,1199,1201,-1,-1,1203,1205,1207,1209,-1,1211,-1,-1,1213,1215,1217,1219,1221,1223,-1,1225,-1,-1,-1,1227,1229,-1,1231,1233,-1,-1,1235,-1,1237,1239,-1,-1,-1,-1,-1,1241,-1,1243,-1,-1,1245,-1,1247,1249,-1,-1,-1,-1,-1,1251,-1,1253,-1,-1,-1,-1,1255,-1,-1,-1,1257,-1,1259,1261,1263,-1,1265,1267,1269,-1,1271,1273,1275,1277,1279,1281,-1,1283,1285,1287,-1,1289,-1,-1,-1,-1,1291,-1,-1,1293,-1,-1,-1,-1,-1,-1,-1,-1,-1,-1,-1,-1,1295,-1,-1,-1,1297,-1,1299,1301,1303,1305,-1,-1,-1,-1,-1,-1,-1,-1,-1,-1,-1,-1,1307,1309,1311,1313,1315,1317,1319,1321,-1,-1,1323,1325,1327,-1,1329,1331,-1,1333,1335,-1,1337,1339,1341,1343,1345,1347,1349,-1,1351,1353,-1,-1,-1,-1,1355,-1,-1,-1,1357,-1,1359,1361,-1,-1,1363,-1,1365,-1,-1,-1,1367,-1,1369,1371,-1,-1,1373,-1,-1,-1,-1,1375,-1,1377,-1,1379,-1,-1,1381,-1,-1,-1,-1,-1,-1,1383,-1,-1,-1,-1,-1,-1,-1,1385,1387,1389,-1,1391,1393,-1,1395,1397,-1,-1,1399,-1,1401,1403,-1,-1,-1,-1,1405,-1,1407,-1,-1,1409,-1,-1,1411,-1,1413,-1,-1,1415,-1,-1,-1,-1,-1,-1,1417,-1,-1,-1,-1,1419,1421,-1,-1,1423,-1,-1,-1,-1,1425,-1,-1,-1,-1,-1,1427,1429,1431,1433,-1,1435,-1,1437,-1,-1,1439,1441,1443,1445,-1,-1,1447,1449,1451,1453,1455,1457,-1,-1,-1,-1,-1,-1,-1,-1,-1,-1,-1,-1,-1,-1,1459,1461,-1,1463,-1,1465,1467,1469,1471,1473,1475,1477,1479,1481,1483,1485,-1,1487,-1,-1,1489,1491,-1,1493,-1,1495,-1,-1,-1,1497,1499,1501,1503,1505,-1,-1,1507,1509,1511,1513,-1,1515,-1,1517,-1,1519,1521,1523,1525,1527,-1,1529,-1,-1,-1,-1,-1,-1,-1,-1,-1,-1,-1,-1,-1,-1,-1,-1,-1,-1,-1,-1,-1,-1,-1,-1,-1,-1,-1,-1,-1,-1,-1,-1,-1,-1,-1,-1,-1,-1,-1,-1,-1,-1,-1,-1,-1,-1,-1,-1,-1,-1,-1,-1,-1,-1,-1,-1,-1,-1,-1,-1,-1,-1,-1,-1,-1,-1,-1,-1,-1,-1,-1,-1,-1,-1,-1,-1,-1,-1,-1,-1,-1,-1,-1,-1,-1,-1,-1,-1,-1,-1,-1,-1,-1,-1,-1,-1,-1,-1,-1,-1,-1,-1,-1,-1,-1,-1,-1,-1,-1,-1,-1,-1,-1,-1,-1,-1,-1,-1,-1,-1,-1,-1,-1,-1,-1,-1,-1,-1,-1,-1,-1,-1,-1,-1,-1,-1,-1,-1,-1,-1,-1,-1,-1,-1,-1,-1,-1,-1,-1,-1,-1,-1,-1,-1,-1,-1,-1,-1,-1,-1,-1,-1,-1,-1,-1,-1,-1,-1,-1,-1,-1,-1,-1,-1,-1,-1,-1,-1,-1,-1],"loss_changes":[6.678223E4,6.292957E3,4.6797305E3,4.2533696E3,1.1545957E3,2.0490479E3,1.7442168E3,3.2684229E3,6.2187305E3,1.0250137E3,1.1497559E3,5.1099023E2,1.752605E3,1.4980087E2,4.2136523E2,1.4836694E3,1.7475137E3,4.7176343E2,7.1974146E2,1.6067116E1,3.1716309E1,7.068164E2,8.4261035E2,5.5974174E1,2.169336E2,6.773594E2,9.1374316E2,1.2471043E1,5.834828E1,2.8891418E1,9.857422E1,9.6961084E2,4.3878943E2,9.93895E2,7.096709E2,0E0,2.0433594E1,6.2594336E2,6.8488855E2,0E0,5.4827957E0,1.385437E1,0E0,6.417158E2,7.876752E1,1.4533105E2,2.4469775E2,1.0710024E1,4.872719E1,1.1833203E2,3.401521E2,1.8389142E2,1.0373779E2,7.4296075E2,3.37157E1,0E0,6.710074E0,0E0,3.0279861E1,1.2830505E1,6.3483124E0,4.3339844E1,8.1242676E1,1.1236499E2,4.9593774E2,1.3907077E2,2.5709656E2,1.18838135E2,1.1147983E3,4.5148828E2,2.7339062E2,5.308983E0,1.4618652E1,2.077383E1,8.096582E1,1.4040582E2,5.7367346E2,0E0,0E0,0E0,0E0,3.840293E2,1.6033113E2,4.8662487E1,1.0485466E1,1.5407227E1,1.1155124E2,1.3567383E1,1.1560156E2,0E0,4.8461823E0,6.2339854E0,4.123108E0,1.5293945E2,4.64458E1,1.0432764E2,7.4786224E1,2.389449E1,1.303346E2,4.8585693E1,6.976257E1,9.177612E1,5.329918E2,1.1650909E1,1.751892E1,0E0,0E0,1.1847298E1,1.1363205E1,6.6759644E0,0E0,0E0,5.0967865E0,3.323633E1,3.2074677E1,2.9982422E1,1.4484375E2,1.7790619E1,3.7793823E1,2.4588464E2,2.2424178E2,5.791178E1,3.3041138E1,1.1875586E2,1.6760469E2,2.0526367E1,4.9120605E1,1.7050586E2,2.1310307E2,1.1277936E2,5.8765137E1,1.3225562E2,3.6077606E2,0E0,0E0,0E0,9.685059E0,1.0829807E1,7.788538E0,1.364328E1,7.859326E1,6.324435E0,6.1571472E1,1.1423401E1,9.444503E1,4.9936035E1,6.3402637E2,7.7996216E1,4.5675865E1,1.636333E1,5.8159256E1,6.9683084E0,0E0,2.3811157E1,0E0,7.079767E1,2.2017654E1,0E0,1.1727173E1,1.620996E1,3.9706482E1,4.0879498E0,0E0,0E0,4.08066E0,0E0,0E0,5.7066406E1,1.9365936E1,1.0140459E1,3.1589844E1,6.4805176E1,3.2181858E1,2.1637335E1,0E0,1.9181221E1,8.240909E0,7.313223E1,3.9079285E1,1.2569031E1,1.4802734E1,1.5141315E1,9.487305E0,1.4244873E1,6.769275E1,4.542981E1,6.047727E2,0E0,1.0684098E1,0E0,4.9548874E0,0E0,1.2642586E1,3.5973516E0,6.335327E0,0E0,8.193443E0,0E0,0E0,0E0,0E0,4.1415405E0,1.1486155E1,8.047852E0,3.9621277E0,2.7063866E1,1.7056885E1,0E0,3.883062E1,0E0,0E0,1.425211E2,1.73901E2,4.759175E1,1.1578766E2,2.6237469E1,7.5112267E0,1.908577E1,7.377548E0,5.3875732E1,1.2851024E2,4.132196E1,7.30973E1,4.5914536E0,0E0,1.6844072E1,1.9350952E1,4.715631E1,1.467583E2,1.6717801E2,6.2798195E1,0E0,1.4293341E1,0E0,6.97959E1,6.462604E1,2.499707E1,6.329364E1,1.0740443E2,3.6875496E0,0E0,0E0,5.4304905E0,0E0,6.147245E0,6.038727E0,0E0,5.6671875E1,1.3165585E1,5.5677824E0,0E0,1.9725342E1,9.815582E0,0E0,9.524521E0,3.0192036E1,4.2825546E1,3.1436523E1,2.7807617E1,3.349248E2,1.6535706E2,7.874776E0,5.627127E1,2.2129585E1,3.9122047E1,9.613035E0,8.6700325E0,2.111562E1,4.1077843E1,0E0,5.3642673E0,0E0,2.22771E1,1.4063965E1,9.699523E0,9.129425E0,1.0992699E1,0E0,0E0,5.4697266E0,0E0,4.483838E1,2.2457321E1,0E0,3.568224E0,0E0,0E0,4.5658936E1,4.764325E1,1.5682343E1,0E0,3.4994888E0,0E0,3.5697815E1,1.2070801E1,1.2828491E1,1.9406036E1,1.0194557E1,8.317751E0,3.602158E0,3.1537313E1,0E0,3.592167E0,3.7208903E0,7.4862394E0,1.5365433E1,1.0628113E1,1.9251709E1,0E0,0E0,0E0,0E0,3.43042E0,0E0,6.781582E0,0E0,7.114502E0,7.396035E0,7.1521606E0,5.7781372E1,5.530625E1,0E0,1.5588608E1,2.1375856E2,1.4814941E2,8.6097355E0,0E0,8.099533E0,0E0,0E0,1.2770988E1,0E0,0E0,0E0,0E0,6.4361496E0,0E0,0E0,0E0,0E0,0E0,0E0,0E0,0E0,0E0,8.505132E0,2.328561E1,0E0,5.2335596E0,1.2594643E1,5.985607E0,6.665802E0,1.0537653E2,0E0,9.013013E1,1.633182E1,1.7242111E1,1.4867767E2,2.9154495E1,1.9320238E1,2.2349113E1,0E0,0E0,0E0,0E0,7.418577E0,3.5008583E0,2.2999983E1,5.3660156E1,0E0,8.527569E0,5.90866E0,1.4211029E1,3.690339E1,0E0,0E0,0E0,0E0,3.194952E1,7.6927795E0,1.7207764E1,2.0272854E1,1.0081299E1,6.500903E1,1.4951843E1,1.0086536E2,5.4545044E1,1.0602554E1,1.2029201E1,7.693165E0,1.1986616E1,3.7628662E1,0E0,0E0,1.8895782E1,0E0,3.5489502E0,0E0,8.47113E0,1.3952019E1,4.992169E1,0E0,0E0,6.4540462E0,0E0,0E0,0E0,0E0,5.335163E0,1.6603516E1,7.968933E1,8.213974E0,0E0,0E0,0E0,1.0703186E1,0E0,6.246542E0,0E0,0E0,0E0,1.1128447E1,9.05534E0,2.6158714E1,7.8674746E0,1.1758667E1,3.881569E0,4.0666504E0,7.790161E0,7.7974365E1,1.7909277E2,0E0,2.0326208E2,0E0,5.228382E0,2.6489243E1,3.3687775E1,8.637306E0,0E0,0E0,2.102855E1,4.165652E0,5.415749E0,4.6336746E0,5.484685E0,9.190622E0,1.5372114E1,0E0,0E0,0E0,0E0,0E0,0E0,0E0,0E0,0E0,0E0,6.5148E0,4.6702747E0,1.8214355E1,0E0,0E0,0E0,0E0,8.521734E0,1.2104111E1,1.28983345E1,0E0,0E0,0E0,4.6553223E1,1.568631E1,8.462097E0,0E0,1.0918015E1,0E0,0E0,0E0,9.056581E0,0E0,4.3653595E1,7.430581E0,0E0,5.936759E0,1.2218658E1,0E0,3.8092499E0,3.5083966E0,0E0,0E0,0E0,4.282785E0,0E0,4.804268E0,0E0,0E0,0E0,0E0,0E0,0E0,0E0,0E0,1.03394165E1,4.4401245E0,0E0,0E0,0E0,5.049099E0,6.1689363E0,0E0,4.7751465E0,0E0,0E0,8.657654E0,0E0,3.3471497E1,7.163408E1,0E0,0E0,9.381458E0,0E0,9.0761345E1,1.5926753E2,2.8666784E1,5.1722046E1,0E0,0E0,0E0,0E0,1.8971138E1,0E0,0E0,8.196358E0,0E0,6.064205E0,0E0,5.2740235E0,0E0,0E0,0E0,8.709511E0,0E0,0E0,0E0,0E0,1.109137E2,9.432159E0,1.924316E1,3.9930542E1,3.9377642E0,1.1043806E1,6.219879E0,1.3206566E1,2.8410263E1,8.37605E1,2.1733154E1,0E0,0E0,4.97252E0,0E0,0E0,0E0,0E0,0E0,0E0,6.5108223E0,5.505073E0,8.241211E0,8.414044E1,0E0,0E0,0E0,0E0,0E0,1.2325684E1,3.734168E1,1.0235324E1,5.078051E0,0E0,0E0,0E0,9.311707E0,1.3028961E1,0E0,3.203834E1,0E0,5.2349243E0,9.721167E1,3.219507E1,1.4917572E1,1.2900726E1,2.675032E1,2.7725395E1,8.865784E0,4.897814E1,0E0,6.8302765E0,0E0,8.803792E0,0E0,0E0,1.6048784E1,8.162846E0,1.5796509E1,3.0785843E1,3.5546944E0,1.3048279E1,0E0,0E0,0E0,6.521759E0,0E0,1.1614509E1,0E0,9.185196E0,0E0,6.94014E0,3.8635216E0,0E0,1.30390625E1,8.67472E0,4.2891846E0,4.6348816E1,4.5920877E0,0E0,8.466736E0,0E0,0E0,3.4471884E0,0E0,0E0,0E0,0E0,0E0,4.985153E0,0E0,0E0,0E0,6.749237E0,7.3745117E0,5.0747147E0,1.2229736E1,0E0,0E0,0E0,1.3525909E1,3.708911E1,8.423364E1,1.3364014E2,1.1405934E2,5.8015198E1,0E0,0E0,1.0185379E1,0E0,0E0,2.5909706E1,0E0,0E0,0E0,0E0,5.381736E0,0E0,6.7389917E0,0E0,0E0,3.4449081E0,0E0,0E0,0E0,4.8165827E0,7.3044853E0,9.423781E0,0E0,0E0,0E0,0E0,1.0579548E1,0E0,0E0,0E0,0E0,0E0,3.8065405E0,7.0478973E0,0E0,2.0424805E1,0E0,1.0415562E1,0E0,0E0,0E0,6.8434887E0,0E0,0E0,0E0,0E0,0E0,0E0,0E0,0E0,0E0,0E0,0E0,0E0,0E0,0E0,0E0,0E0,4.062605E0,0E0,1.1275681E1,0E0,4.1361694E0,4.420105E0,0E0,0E0,0E0,0E0,3.756958E0,5.0985565E0,0E0,5.4192123E0,0E0,3.8869385E1,0E0,1.1011833E1,8.716716E0,8.7006E0,9.848293E0,7.896529E1,3.5143436E1,1.07225494E2,9.690414E0,1.4161416E1,5.656244E1,2.643486E1,1.0142887E1,0E0,0E0,0E0,0E0,0E0,0E0,0E0,0E0,0E0,1.4060486E1,1.4070236E1,8.093731E0,5.9861145E0,4.699958E0,9.03541E0,4.3920532E1,0E0,0E0,0E0,3.5719204E0,0E0,0E0,3.922699E0,0E0,0E0,3.9831543E0,1.1348953E1,5.4866257E0,6.846114E1,5.018254E0,1.1030472E1,0E0,0E0,0E0,0E0,0E0,3.7179828E0,9.726074E0,8.385864E0,0E0,3.0052677E1,8.782196E0,0E0,5.831154E0,8.368892E0,1.7131323E1,6.7263484E0,5.586421E0,0E0,3.5044107E0,0E0,0E0,1.0202347E1,0E0,0E0,6.2263184E0,0E0,1.0069002E2,3.8506714E1,1.7845459E1,8.934626E0,0E0,0E0,0E0,0E0,9.538818E0,1.4443222E1,1.6196003E1,8.774051E0,5.512417E0,4.6638794E0,1.068928E1,1.5510452E1,4.8591394E0,5.594982E0,0E0,7.1328707E0,3.7739525E0,5.148065E0,9.6836605E0,0E0,0E0,0E0,0E0,1.05336E1,0E0,0E0,5.999939E0,0E0,0E0,0E0,7.5966744E0,1.061828E1,6.0859346E0,0E0,0E0,0E0,3.8723469E0,0E0,6.4418945E0,7.708496E0,0E0,0E0,0E0,0E0,4.5067883E0,7.059078E0,0E0,0E0,0E0,0E0,0E0,0E0,4.5201416E0,0E0,0E0,0E0,0E0,0E0,0E0,0E0,0E0,0E0,0E0,3.8640118E0,1.3192505E1,4.2868896E1,5.540918E1,4.650969E1,9.004956E1,1.4639685E2,8.82309E0,8.129454E1,3.5294464E1,2.244928E1,7.0623474E0,0E0,0E0,0E0,0E0,0E0,0E0,0E0,0E0,4.6458473E0,0E0,0E0,5.397236E0,5.4445763E0,0E0,0E0,0E0,1.3807751E1,0E0,0E0,4.1988373E0,0E0,0E0,7.647217E0,0E0,0E0,4.4924355E0,0E0,0E0,0E0,6.7372665E0,5.513157E0,4.021904E0,0E0,0E0,5.5547533E0,3.886818E0,6.317871E0,0E0,0E0,0E0,0E0,3.4873077E1,1.55685425E1,1.216531E1,0E0,3.6485233E0,6.194706E0,9.058075E0,0E0,5.613472E0,5.9728346E0,1.2433587E1,5.746199E1,2.1402313E1,1.5710859E1,6.631378E0,1.7457184E1,0E0,7.7840157E0,9.844843E0,8.100637E0,1.2773155E1,4.4029663E1,2.9132097E1,1.6281296E1,8.31469E0,0E0,1.4569183E1,3.173042E1,0E0,5.624177E0,0E0,0E0,4.090312E0,0E0,0E0,0E0,7.9644117E0,0E0,1.0409729E1,3.376764E1,0E0,0E0,0E0,0E0,0E0,4.549732E0,8.91407E0,4.4796295E0,0E0,6.2005844E0,1.2694611E1,1.2990562E1,5.5773163E0,0E0,0E0,9.133736E0,0E0,0E0,0E0,1.82647E1,1.2990021E1,1.0630249E1,3.433658E1,0E0,5.5022125E0,8.9145355E0,8.788886E0,0E0,0E0,0E0,6.9326744E0,8.086766E0,0E0,0E0,5.397087E0,0E0,0E0,0E0,4.1262207E0,3.418108E0,0E0,0E0,8.274704E0,1.1184873E2,3.0565552E1,4.8288803E0,0E0,1.48446045E1,0E0,0E0,6.1103363E0,4.3622093E0,8.642629E0,8.234886E0,4.2501535E0,8.108574E0,0E0,1.1040944E1,0E0,0E0,0E0,8.196835E0,1.5949909E1,0E0,7.7817907E0,1.5062744E1,0E0,0E0,4.3136024E0,0E0,7.025614E0,5.3840704E0,0E0,0E0,0E0,0E0,0E0,7.83164E0,0E0,5.6238613E0,0E0,0E0,5.60808E0,0E0,6.2047396E0,6.615095E0,0E0,0E0,0E0,0E0,0E0,4.7060547E0,0E0,9.272787E0,0E0,0E0,0E0,0E0,4.587204E0,0E0,0E0,0E0,1.00286255E1,0E0,3.414917E0,2.4699707E1,2.7748535E1,0E0,2.041431E1,2.100505E1,3.3102295E1,0E0,5.1308105E1,1.4274658E1,5.6838303E0,5.831543E0,3.4100357E1,6.283168E1,0E0,1.3228184E1,6.987687E0,4.2752075E0,0E0,7.6204376E0,0E0,0E0,0E0,0E0,4.146101E0,0E0,0E0,4.3187447E0,0E0,0E0,0E0,0E0,0E0,0E0,0E0,0E0,0E0,0E0,0E0,0E0,3.7149267E0,0E0,0E0,0E0,4.5584106E0,0E0,1.4914696E1,2.7248291E1,9.737614E0,1.0898926E1,0E0,0E0,0E0,0E0,0E0,0E0,0E0,0E0,0E0,0E0,0E0,0E0,2.7870993E1,7.544457E0,2.795337E1,1.5499758E1,2.2138596E1,5.0837064E0,1.470143E1,2.0291714E1,0E0,0E0,1.9060066E1,3.917523E0,6.230854E0,0E0,6.9897537E0,3.796093E0,0E0,4.648919E0,1.4430578E1,0E0,1.1709351E1,3.4399063E1,7.16304E0,7.689209E0,1.5664749E1,8.20727E0,3.4898834E0,0E0,1.0692505E1,4.9301257E0,0E0,0E0,0E0,0E0,6.6505632E0,0E0,0E0,0E0,7.474365E0,0E0,2.5653381E1,7.868684E0,0E0,0E0,9.531166E0,0E0,3.7734528E0,0E0,0E0,0E0,1.0557747E1,0E0,8.650329E0,6.358387E0,0E0,0E0,5.549164E0,0E0,0E0,0E0,0E0,4.80476E0,0E0,1.3980942E1,0E0,8.065716E0,0E0,0E0,9.008194E0,0E0,0E0,0E0,0E0,0E0,0E0,6.557993E0,0E0,0E0,0E0,0E0,0E0,0E0,0E0,3.7683258E0,2.1995682E1,2.3628597E1,0E0,1.7160645E1,3.4494238E0,0E0,1.4516968E1,6.10083E0,0E0,0E0,4.710022E0,0E0,4.0008254E0,5.2191586E0,0E0,0E0,0E0,0E0,5.818306E0,0E0,6.3445835E0,0E0,0E0,5.4496946E0,0E0,0E0,5.2977023E0,0E0,5.474785E0,0E0,0E0,5.367157E0,0E0,0E0,0E0,0E0,0E0,0E0,6.415289E0,0E0,0E0,0E0,0E0,3.531865E0,4.367079E0,0E0,0E0,1.4771118E1,0E0,0E0,0E0,0E0,1.1238045E1,0E0,0E0,0E0,0E0,0E0,7.7244263E0,1.960083E1,1.0899577E1,8.0176525E0,0E0,2.1144073E1,0E0,1.8513184E1,0E0,0E0,7.192871E0,1.5565689E1,4.121251E0,6.338684E0,0E0,0E0,1.3760597E1,2.7809816E1,9.2625885E0,8.696857E0,4.5838428E0,6.199394E0,0E0,0E0,0E0,0E0,0E0,0E0,0E0,0E0,0E0,0E0,0E0,0E0,0E0,0E0,6.9393044E0,1.9101406E1,0E0,9.850037E0,0E0,7.781563E0,6.887024E0,1.0779221E1,1.586597E1,1.478043E1,7.7701864E0,7.9264216E0,7.6923523E0,3.8627443E0,6.8963394E0,8.646711E0,0E0,7.6701584E0,0E0,0E0,8.866701E0,5.6142673E0,0E0,3.6738415E0,0E0,1.2863831E1,0E0,0E0,0E0,3.853465E0,4.908951E0,5.298248E0,4.065652E0,4.709454E0,0E0,0E0,1.0055584E1,4.051683E0,1.0262329E1,7.0860443E0,0E0,4.505508E1,0E0,3.8389754E0,0E0,3.9897234E0,9.803009E0,4.014969E0,3.7031713E0,5.041071E0,0E0,5.9025245E0,0E0,0E0,0E0,0E0,0E0,0E0,0E0,0E0,0E0,0E0,0E0,0E0,0E0,0E0,0E0,0E0,0E0,0E0,0E0,0E0,0E0,0E0,0E0,0E0,0E0,0E0,0E0,0E0,0E0,0E0,0E0,0E0,0E0,0E0,0E0,0E0,0E0,0E0,0E0,0E0,0E0,0E0,0E0,0E0,0E0,0E0,0E0,0E0,0E0,0E0,0E0,0E0,0E0,0E0,0E0,0E0,0E0,0E0,0E0,0E0,0E0,0E0,0E0,0E0,0E0,0E0,0E0,0E0,0E0,0E0,0E0,0E0,0E0,0E0,0E0,0E0,0E0,0E0,0E0,0E0,0E0,0E0,0E0,0E0,0E0,0E0,0E0,0E0,0E0,0E0,0E0,0E0,0E0,0E0,0E0,0E0,0E0,0E0,0E0,0E0,0E0,0E0,0E0,0E0,0E0,0E0,0E0,0E0,0E0,0E0,0E0,0E0,0E0,0E0,0E0,0E0,0E0,0E0,0E0,0E0,0E0,0E0,0E0,0E0,0E0,0E0,0E0,0E0,0E0,0E0,0E0,0E0,0E0,0E0,0E0,0E0,0E0,0E0,0E0,0E0,0E0,0E0,0E0,0E0,0E0,0E0,0E0,0E0,0E0,0E0,0E0,0E0,0E0,0E0,0E0,0E0,0E0,0E0,0E0,0E0,0E0,0E0,0E0,0E0,0E0,0E0,0E0,0E0,0E0,0E0,0E0,0E0,0E0,0E0,0E0,0E0,0E0,0E0,0E0,0E0],"parents":[2147483647,0,0,1,1,2,2,3,3,4,4,5,5,6,6,7,7,8,8,9,9,10,10,11,11,12,12,13,13,14,14,15,15,16,16,17,17,18,18,19,19,20,20,21,21,22,22,23,23,24,24,25,25,26,26,27,27,28,28,29,29,30,30,31,31,32,32,33,33,34,34,36,36,37,37,38,38,40,40,41,41,43,43,44,44,45,45,46,46,47,47,48,48,49,49,50,50,51,51,52,52,53,53,54,54,56,56,58,58,59,59,60,60,61,61,62,62,63,63,64,64,65,65,66,66,67,67,68,68,69,69,70,70,71,71,72,72,73,73,74,74,75,75,76,76,81,81,82,82,83,83,84,84,85,85,86,86,87,87,88,88,90,90,91,91,92,92,93,93,94,94,95,95,96,96,97,97,98,98,99,99,100,100,101,101,102,102,103,103,104,104,107,107,108,108,109,109,112,112,113,113,114,114,115,115,116,116,117,117,118,118,119,119,120,120,121,121,122,122,123,123,124,124,125,125,126,126,127,127,128,128,129,129,130,130,131,131,132,132,136,136,137,137,138,138,139,139,140,140,141,141,142,142,143,143,144,144,145,145,146,146,147,147,148,148,149,149,150,150,151,151,153,153,155,155,156,156,158,158,159,159,160,160,161,161,164,164,167,167,168,168,169,169,170,170,171,171,172,172,173,173,175,175,176,176,177,177,178,178,179,179,180,180,181,181,182,182,183,183,184,184,185,185,186,186,188,188,190,190,192,192,193,193,194,194,196,196,201,201,202,202,203,203,204,204,205,205,206,206,208,208,211,211,212,212,213,213,214,214,215,215,216,216,217,217,218,218,219,219,220,220,221,221,222,222,223,223,225,225,226,226,227,227,228,228,229,229,230,230,232,232,234,234,235,235,236,236,237,237,238,238,239,239,242,242,244,244,245,245,247,247,248,248,249,249,251,251,252,252,254,254,255,255,256,256,257,257,258,258,259,259,260,260,261,261,262,262,263,263,264,264,265,265,266,266,267,267,268,268,270,270,272,272,273,273,274,274,275,275,276,276,279,279,281,281,282,282,284,284,287,287,288,288,289,289,291,291,293,293,294,294,295,295,296,296,297,297,298,298,299,299,300,300,302,302,303,303,304,304,305,305,306,306,307,307,312,312,314,314,316,316,317,317,318,318,319,319,320,320,322,322,323,323,324,324,325,325,327,327,330,330,335,335,345,345,346,346,348,348,349,349,350,350,351,351,352,352,354,354,355,355,356,356,357,357,358,358,359,359,360,360,365,365,366,366,367,367,368,368,370,370,371,371,372,372,373,373,378,378,379,379,380,380,381,381,382,382,383,383,384,384,385,385,386,386,387,387,388,388,389,389,390,390,391,391,394,394,396,396,398,398,399,399,400,400,403,403,408,408,409,409,410,410,411,411,415,415,417,417,421,421,422,422,423,423,424,424,425,425,426,426,427,427,428,428,429,429,430,430,432,432,434,434,435,435,436,436,437,437,440,440,441,441,442,442,443,443,444,444,445,445,446,446,457,457,458,458,459,459,464,464,465,465,466,466,470,470,471,471,472,472,474,474,478,478,480,480,481,481,483,483,484,484,486,486,487,487,491,491,493,493,502,502,503,503,507,507,508,508,510,510,513,513,515,515,516,516,519,519,521,521,522,522,523,523,524,524,529,529,532,532,534,534,536,536,540,540,545,545,546,546,547,547,548,548,549,549,550,550,551,551,552,552,553,553,554,554,555,555,558,558,565,565,566,566,567,567,568,568,574,574,575,575,576,576,577,577,581,581,582,582,584,584,586,586,587,587,588,588,589,589,590,590,591,591,592,592,593,593,594,594,596,596,598,598,601,601,602,602,603,603,604,604,605,605,606,606,610,610,612,612,614,614,616,616,617,617,619,619,620,620,621,621,622,622,623,623,625,625,628,628,634,634,638,638,639,639,640,640,641,641,645,645,646,646,647,647,648,648,649,649,650,650,653,653,656,656,661,661,663,663,666,666,670,670,671,671,672,672,677,677,683,683,684,684,686,686,688,688,692,692,709,709,711,711,713,713,714,714,719,719,720,720,722,722,724,724,726,726,727,727,728,728,729,729,730,730,731,731,732,732,733,733,734,734,735,735,736,736,737,737,747,747,748,748,749,749,750,750,751,751,752,752,753,753,757,757,760,760,763,763,764,764,765,765,766,766,767,767,768,768,774,774,775,775,776,776,778,778,779,779,781,781,782,782,783,783,784,784,785,785,787,787,790,790,793,793,795,795,796,796,797,797,798,798,803,803,804,804,805,805,806,806,807,807,808,808,809,809,810,810,811,811,812,812,814,814,815,815,816,816,817,817,822,822,825,825,829,829,830,830,831,831,835,835,837,837,838,838,843,843,844,844,851,851,862,862,863,863,864,864,865,865,866,866,867,867,868,868,869,869,870,870,871,871,872,872,873,873,882,882,885,885,886,886,890,890,893,893,896,896,899,899,903,903,904,904,905,905,908,908,909,909,910,910,915,915,916,916,917,917,919,919,920,920,921,921,923,923,924,924,925,925,926,926,927,927,928,928,929,929,930,930,932,932,933,933,934,934,935,935,936,936,937,937,938,938,939,939,941,941,942,942,944,944,947,947,951,951,953,953,954,954,960,960,961,961,962,962,964,964,965,965,966,966,967,967,970,970,974,974,975,975,976,976,977,977,979,979,980,980,981,981,985,985,986,986,989,989,993,993,994,994,997,997,998,998,999,999,1000,1000,1002,1002,1005,1005,1006,1006,1007,1007,1008,1008,1009,1009,1010,1010,1012,1012,1016,1016,1017,1017,1019,1019,1020,1020,1023,1023,1025,1025,1026,1026,1032,1032,1034,1034,1037,1037,1039,1039,1040,1040,1046,1046,1048,1048,1053,1053,1057,1057,1059,1059,1060,1060,1061,1061,1063,1063,1064,1064,1065,1065,1067,1067,1068,1068,1069,1069,1070,1070,1071,1071,1072,1072,1074,1074,1075,1075,1076,1076,1078,1078,1083,1083,1086,1086,1099,1099,1103,1103,1105,1105,1106,1106,1107,1107,1108,1108,1121,1121,1122,1122,1123,1123,1124,1124,1125,1125,1126,1126,1127,1127,1128,1128,1131,1131,1132,1132,1133,1133,1135,1135,1136,1136,1138,1138,1139,1139,1141,1141,1142,1142,1143,1143,1144,1144,1145,1145,1146,1146,1147,1147,1149,1149,1150,1150,1155,1155,1159,1159,1161,1161,1162,1162,1165,1165,1167,1167,1171,1171,1173,1173,1174,1174,1177,1177,1182,1182,1184,1184,1186,1186,1189,1189,1196,1196,1204,1204,1205,1205,1206,1206,1208,1208,1209,1209,1211,1211,1212,1212,1215,1215,1217,1217,1218,1218,1223,1223,1225,1225,1228,1228,1231,1231,1233,1233,1236,1236,1243,1243,1248,1248,1249,1249,1252,1252,1257,1257,1263,1263,1264,1264,1265,1265,1266,1266,1268,1268,1270,1270,1273,1273,1274,1274,1275,1275,1276,1276,1279,1279,1280,1280,1281,1281,1282,1282,1283,1283,1284,1284,1299,1299,1300,1300,1302,1302,1304,1304,1305,1305,1306,1306,1307,1307,1308,1308,1309,1309,1310,1310,1311,1311,1312,1312,1313,1313,1314,1314,1316,1316,1319,1319,1320,1320,1322,1322,1324,1324,1328,1328,1329,1329,1330,1330,1331,1331,1332,1332,1335,1335,1336,1336,1337,1337,1338,1338,1340,1340,1342,1342,1344,1344,1345,1345,1346,1346,1347,1347,1348,1348,1350,1350],"right_children":[2,4,6,8,10,12,14,16,18,20,22,24,26,28,30,32,34,36,38,40,42,44,46,48,50,52,54,56,58,60,62,64,66,68,70,-1,72,74,76,-1,78,80,-1,82,84,86,88,90,92,94,96,98,100,102,104,-1,106,-1,108,110,112,114,116,118,120,122,124,126,128,130,132,134,136,138,140,142,144,-1,-1,-1,-1,146,148,150,152,154,156,158,160,-1,162,164,166,168,170,172,174,176,178,180,182,184,186,188,190,-1,-1,192,194,196,-1,-1,198,200,202,204,206,208,210,212,214,216,218,220,222,224,226,228,230,232,234,236,238,-1,-1,-1,240,242,244,246,248,250,252,254,256,258,260,262,264,266,268,270,-1,272,-1,274,276,-1,278,280,282,284,-1,-1,286,-1,-1,288,290,292,294,296,298,300,-1,302,304,306,308,310,312,314,316,318,320,322,324,-1,326,-1,328,-1,330,332,334,-1,336,-1,-1,-1,-1,338,340,342,344,346,348,-1,350,-1,-1,352,354,356,358,360,362,364,366,368,370,372,374,376,-1,378,380,382,384,386,388,-1,390,-1,392,394,396,398,400,402,-1,-1,404,-1,406,408,-1,410,412,414,-1,416,418,-1,420,422,424,426,428,430,432,434,436,438,440,442,444,446,448,-1,450,-1,452,454,456,458,460,-1,-1,462,-1,464,466,-1,468,-1,-1,470,472,474,-1,476,-1,478,480,482,484,486,488,490,492,-1,494,496,498,500,502,504,-1,-1,-1,-1,506,-1,508,-1,510,512,514,516,518,-1,520,522,524,526,-1,528,-1,-1,530,-1,-1,-1,-1,532,-1,-1,-1,-1,-1,-1,-1,-1,-1,534,536,-1,538,540,542,544,546,-1,548,550,552,554,556,558,560,-1,-1,-1,-1,562,564,566,568,-1,570,572,574,576,-1,-1,-1,-1,578,580,582,584,586,588,590,592,594,596,598,600,602,604,-1,-1,606,-1,608,-1,610,612,614,-1,-1,616,-1,-1,-1,-1,618,620,622,624,-1,-1,-1,626,-1,628,-1,-1,-1,630,632,634,636,638,640,642,644,646,648,-1,650,-1,652,654,656,658,-1,-1,660,662,664,666,668,670,672,-1,-1,-1,-1,-1,-1,-1,-1,-1,-1,674,676,678,-1,-1,-1,-1,680,682,684,-1,-1,-1,686,688,690,-1,692,-1,-1,-1,694,-1,696,698,-1,700,702,-1,704,706,-1,-1,-1,708,-1,710,-1,-1,-1,-1,-1,-1,-1,-1,712,714,-1,-1,-1,716,718,-1,720,-1,-1,722,-1,724,726,-1,-1,728,-1,730,732,734,736,-1,-1,-1,-1,738,-1,-1,740,-1,742,-1,744,-1,-1,-1,746,-1,-1,-1,-1,748,750,752,754,756,758,760,762,764,766,768,-1,-1,770,-1,-1,-1,-1,-1,-1,772,774,776,778,-1,-1,-1,-1,-1,780,782,784,786,-1,-1,-1,788,790,-1,792,-1,794,796,798,800,802,804,806,808,810,-1,812,-1,814,-1,-1,816,818,820,822,824,826,-1,-1,-1,828,-1,830,-1,832,-1,834,836,-1,838,840,842,844,846,-1,848,-1,-1,850,-1,-1,-1,-1,-1,852,-1,-1,-1,854,856,858,860,-1,-1,-1,862,864,866,868,870,872,-1,-1,874,-1,-1,876,-1,-1,-1,-1,878,-1,880,-1,-1,882,-1,-1,-1,884,886,888,-1,-1,-1,-1,890,-1,-1,-1,-1,-1,892,894,-1,896,-1,898,-1,-1,-1,900,-1,-1,-1,-1,-1,-1,-1,-1,-1,-1,-1,-1,-1,-1,-1,-1,902,-1,904,-1,906,908,-1,-1,-1,-1,910,912,-1,914,-1,916,-1,918,920,922,924,926,928,930,932,934,936,938,940,-1,-1,-1,-1,-1,-1,-1,-1,-1,942,944,946,948,950,952,954,-1,-1,-1,956,-1,-1,958,-1,-1,960,962,964,966,968,970,-1,-1,-1,-1,-1,972,974,976,-1,978,980,-1,982,984,986,988,990,-1,992,-1,-1,994,-1,-1,996,-1,998,1000,1002,1004,-1,-1,-1,-1,1006,1008,1010,1012,1014,1016,1018,1020,1022,1024,-1,1026,1028,1030,1032,-1,-1,-1,-1,1034,-1,-1,1036,-1,-1,-1,1038,1040,1042,-1,-1,-1,1044,-1,1046,1048,-1,-1,-1,-1,1050,1052,-1,-1,-1,-1,-1,-1,1054,-1,-1,-1,-1,-1,-1,-1,-1,-1,-1,1056,1058,1060,1062,1064,1066,1068,1070,1072,1074,1076,1078,-1,-1,-1,-1,-1,-1,-1,-1,1080,-1,-1,1082,1084,-1,-1,-1,1086,-1,-1,1088,-1,-1,1090,-1,-1,1092,-1,-1,-1,1094,1096,1098,-1,-1,1100,1102,1104,-1,-1,-1,-1,1106,1108,1110,-1,1112,1114,1116,-1,1118,1120,1122,1124,1126,1128,1130,1132,-1,1134,1136,1138,1140,1142,1144,1146,1148,-1,1150,1152,-1,1154,-1,-1,1156,-1,-1,-1,1158,-1,1160,1162,-1,-1,-1,-1,-1,1164,1166,1168,-1,1170,1172,1174,1176,-1,-1,1178,-1,-1,-1,1180,1182,1184,1186,-1,1188,1190,1192,-1,-1,-1,1194,1196,-1,-1,1198,-1,-1,-1,1200,1202,-1,-1,1204,1206,1208,1210,-1,1212,-1,-1,1214,1216,1218,1220,1222,1224,-1,1226,-1,-1,-1,1228,1230,-1,1232,1234,-1,-1,1236,-1,1238,1240,-1,-1,-1,-1,-1,1242,-1,1244,-1,-1,1246,-1,1248,1250,-1,-1,-1,-1,-1,1252,-1,1254,-1,-1,-1,-1,1256,-1,-1,-1,1258,-1,1260,1262,1264,-1,1266,1268,1270,-1,1272,1274,1276,1278,1280,1282,-1,1284,1286,1288,-1,1290,-1,-1,-1,-1,1292,-1,-1,1294,-1,-1,-1,-1,-1,-1,-1,-1,-1,-1,-1,-1,1296,-1,-1,-1,1298,-1,1300,1302,1304,1306,-1,-1,-1,-1,-1,-1,-1,-1,-1,-1,-1,-1,1308,1310,1312,1314,1316,1318,1320,1322,-1,-1,1324,1326,1328,-1,1330,1332,-1,1334,1336,-1,1338,1340,1342,1344,1346,1348,1350,-1,1352,1354,-1,-1,-1,-1,1356,-1,-1,-1,1358,-1,1360,1362,-1,-1,1364,-1,1366,-1,-1,-1,1368,-1,1370,1372,-1,-1,1374,-1,-1,-1,-1,1376,-1,1378,-1,1380,-1,-1,1382,-1,-1,-1,-1,-1,-1,1384,-1,-1,-1,-1,-1,-1,-1,1386,1388,1390,-1,1392,1394,-1,1396,1398,-1,-1,1400,-1,1402,1404,-1,-1,-1,-1,1406,-1,1408,-1,-1,1410,-1,-1,1412,-1,1414,-1,-1,1416,-1,-1,-1,-1,-1,-1,1418,-1,-1,-1,-1,1420,1422,-1,-1,1424,-1,-1,-1,-1,1426,-1,-1,-1,-1,-1,1428,1430,1432,1434,-1,1436,-1,1438,-1,-1,1440,1442,1444,1446,-1,-1,1448,1450,1452,1454,1456,1458,-1,-1,-1,-1,-1,-1,-1,-1,-1,-1,-1,-1,-1,-1,1460,1462,-1,1464,-1,1466,1468,1470,1472,1474,1476,1478,1480,1482,1484,1486,-1,1488,-1,-1,1490,1492,-1,1494,-1,1496,-1,-1,-1,1498,1500,1502,1504,1506,-1,-1,1508,1510,1512,1514,-1,1516,-1,1518,-1,1520,1522,1524,1526,1528,-1,1530,-1,-1,-1,-1,-1,-1,-1,-1,-1,-1,-1,-1,-1,-1,-1,-1,-1,-1,-1,-1,-1,-1,-1,-1,-1,-1,-1,-1,-1,-1,-1,-1,-1,-1,-1,-1,-1,-1,-1,-1,-1,-1,-1,-1,-1,-1,-1,-1,-1,-1,-1,-1,-1,-1,-1,-1,-1,-1,-1,-1,-1,-1,-1,-1,-1,-1,-1,-1,-1,-1,-1,-1,-1,-1,-1,-1,-1,-1,-1,-1,-1,-1,-1,-1,-1,-1,-1,-1,-1,-1,-1,-1,-1,-1,-1,-1,-1,-1,-1,-1,-1,-1,-1,-1,-1,-1,-1,-1,-1,-1,-1,-1,-1,-1,-1,-1,-1,-1,-1,-1,-1,-1,-1,-1,-1,-1,-1,-1,-1,-1,-1,-1,-1,-1,-1,-1,-1,-1,-1,-1,-1,-1,-1,-1,-1,-1,-1,-1,-1,-1,-1,-1,-1,-1,-1,-1,-1,-1,-1,-1,-1,-1,-1,-1,-1,-1,-1,-1,-1,-1,-1,-1,-1,-1,-1,-1,-1,-1,-1,-1],"split_conditions":[1E0,2.009E3,3E0,3E0,2E0,1.27E2,2E0,0E0,2E0,-1E-5,8E0,2E0,-7E0,2.013E3,3E0,4E0,4E0,-1E-5,5E0,2E0,3E0,1.1E1,4E0,2E0,1E0,4E0,1.1E1,2.011E3,3.1E1,2.02E3,5E0,5E0,5E0,6E0,3.6E2,-4.7016792E-2,2.9E1,3E0,4E0,1.4266535E-2,6E0,3.1E1,1.6314022E-1,3E0,8.6E1,2E0,3.75E2,2.011E3,6E0,4E0,3E0,5E0,4.3E2,2.013E3,2E0,-6.785468E-2,1.3E2,-6.126023E-2,2.02E3,2.3E1,4E0,2.1E1,4E0,1.38E2,2E0,3.31E2,4.49E2,3E0,2E0,1E0,2E0,-7E0,-1E1,5.1E1,4E0,3E0,2.05E2,-7.98845E-2,-1.5395649E-2,4.857042E-2,1.3761258E-1,5E0,2.013E3,-1E0,2.013E3,8.6E1,6E0,3E0,2E0,-4.524729E-2,2.8E1,4E0,4E0,3E0,7E0,7.3E1,4E0,3E0,2E0,-2.4E1,4E0,2.008E3,4E0,2.5E1,1.2E1,-3.1849876E-2,2.848872E-2,2E0,4.8E1,2.5E1,-0E0,-0E0,1.1E1,5E0,8.7E1,1.6E1,2.94E2,2E0,3E0,1.31E2,7E0,3.7E1,3E0,-2E0,-9E0,5.9E1,9.6E1,1.8E1,1.1E1,2.8E1,1.57E2,8E0,7E0,-0E0,7.9947665E-2,1.11743726E-1,4E0,3E0,2.007E3,3.9E1,9.1E1,4.3E1,8.5E1,1.24E2,4.08E2,5E0,2E0,3E0,4E0,2E0,2E1,-3E0,8.178314E-2,3.3E1,1.356783E-1,3E0,2.013E3,1.9662514E-1,2.51E2,1.6E1,7E0,6E0,3.2618348E-2,3.9465286E-2,6.7E1,-0E0,-7.137909E-2,7E1,1.1E1,1.19E2,-2.1E1,9.9E1,8.3E1,2E0,1.2754105E-1,2.011E3,1.3E1,2.011E3,1.1E1,7.4E1,4E0,8E0,7E0,3E0,3.2E1,2E0,2E0,-6.874259E-2,3E0,-9.425856E-2,2.1E1,-9.0950085E-3,-1.9E1,2.1E1,-1.6E1,-8.7439984E-2,1E0,-4.7689054E-2,-0E0,-1.2435386E-1,-1.393462E-1,-1E0,3E0,4E0,2.8E1,1.31E2,1.7E1,9.535773E-2,3E0,1.4225763E-1,1.00267395E-1,2E0,1.5E1,1.68E2,1.1E1,-7E0,1.9E1,-1.4E1,-7E0,-2.4E1,3.8E1,1.2E1,1.1E1,6.2E1,1.409515E-1,2E0,2E0,5.3E1,8.4E1,1E1,7.4E1,1.598419E-1,4.1E1,2.0957139E-1,9E0,4.5E1,6.8E2,5E0,1.1E1,2.002E3,1.5105288E-1,-2.8026745E-2,4E1,-3.2927975E-2,9.6E1,1.6E1,-8.459846E-2,1E0,1.6E1,5E0,-2.9440748E-3,4E0,1.6E1,1.82801E-1,8E0,1E1,2.1E1,2E0,4E0,3E1,6E0,-6E0,2.2E1,3E0,-2E0,9E0,2.013E3,2E0,2.23E2,-0E0,1.3E1,1.19415365E-1,2.3E1,7E0,3E0,5E1,1.1E1,1.695424E-1,8.600194E-2,6.95E2,-0E0,3E0,5.79E2,2.0671662E-2,9.5E1,-4.7702726E-2,4.802332E-4,6.5E1,3.7E1,3E0,-1.1034526E-1,2.02E3,2.705735E-3,7.4E1,0E0,6E0,7E0,2.1E1,7.5E1,8E0,6E0,-2.059258E-2,5.46E2,2.015E3,3.53E2,1.4E1,1.5E1,8.74E2,-1.1137367E-1,-9.6587665E-2,-3.760095E-2,-2.4391897E-2,1.6E1,2.724401E-2,-1.5E1,-2.4803499E-2,2.01E3,5E1,2E1,1.56E2,2.012E3,1.0751438E-1,4E0,1E0,6E0,2.7E1,3.041367E-4,8.7E1,-3.2567293E-3,-6.0228007E-3,1.43E2,4.548297E-2,-0E0,5.962066E-4,1.1293373E-1,1.24E2,-0E0,-1.2554677E-1,-7.688519E-2,1.0401344E-2,-6.2464476E-2,-1.0133087E-1,-1.3313058E-1,-8.854945E-2,-0E0,2.014E3,8E0,-1.17327854E-1,7.9E1,3E0,-1.6E1,1.7E1,3E0,1.1367089E-1,-1.4E1,2E0,6E0,1E1,8.4E1,2E0,9E1,-0E0,-7.918078E-2,4.897766E-2,1.357395E-1,4.83E2,2.8E1,6.8E1,2.33E2,1.2626109E-1,3.9E2,1.7E1,-2.8E1,3.8E1,-7.5187385E-2,8.603798E-3,8.976466E-2,8.49527E-2,3E0,4.1E1,5E0,2E0,4E0,3E0,9.2E1,8E0,2E0,2.003E3,8.4E1,4.5E1,1.44E2,2E0,1.9028889E-1,1.2201751E-1,1.5E1,1.5881112E-1,1.6E1,1.5123852E-1,6E0,9E0,6.65E2,1.0457179E-2,1.0439368E-1,1.74E2,-0E0,3.7156504E-2,-2.741198E-2,-0E0,1.54E2,5E0,2E1,1.3E1,-6.827538E-2,-0E0,4.9149644E-2,2.1E1,-0E0,1.88E2,7.6610595E-2,4.4682708E-2,1.3956144E-1,4.3E1,1.1E1,3E0,2.004E3,3.7E1,3E0,2.013E3,2.01E3,-1.7E1,0E0,8.629382E-2,1E1,-7.263547E-3,9E1,4E0,-2E0,1.2E1,-1.0294413E-2,2.76332E-3,4.64E2,1.7E1,1.38E2,4.8E1,7.2E1,4E0,6.7E1,1.4930412E-1,3.0929213E-3,-0E0,6.251687E-2,8.3940335E-2,1.3125795E-1,4.115445E-2,1.2333893E-1,4.3218605E-2,-2.6476167E-2,3E0,7E0,1E1,3.826514E-3,1.6719429E-1,1.3476938E-1,1.4718314E-1,2.013E3,1.4E1,1.8E1,7.5897813E-4,-1.9849997E-2,-1.3737424E-1,1.1E1,1.6E1,9.4E1,1.109349E-2,-8E0,-7.6622166E-2,-0E0,-1.127434E-1,2.016E3,-1.4391981E-1,3.2E1,4.2E1,-1.2120042E-1,2.015E3,3E1,-0E0,1.5E1,1.4E1,-1.7152494E-2,-0E0,2.5435189E-2,4E0,-5.7475287E-2,6.6E1,1.0726152E-1,-0E0,3.28993E-2,-5.4556664E-2,-0E0,-0E0,-9.326076E-2,-0E0,5.09E2,-1.2E1,-0E0,-7.888426E-2,-1.3219813E-1,-2.9E1,2.014E3,-1.16130844E-1,1.26E2,-5.1942572E-2,8.797122E-3,2.3E1,-1.054601E-2,3E0,1E1,-8.731666E-2,9.177927E-2,7.3E1,7.8173816E-2,1.6E1,4E0,6E0,1E1,-0E0,-6.387059E-2,-7.066986E-2,-0E0,1.26E2,-1.0578098E-3,-7.534606E-2,2.013E3,-1.607927E-2,7E0,-9.01723E-2,1.23E2,-6.3373E-2,-0E0,5.125797E-2,4.2E1,1.3834043E-2,1.04885794E-1,6.8216205E-2,3.1062813E-2,8E1,5.2E1,5.76E2,9E1,5.1E1,3E0,6E0,1.8E1,2E0,8E0,2E0,-0E0,5.8026753E-2,2.37E2,-0E0,1.2978743E-1,-1.4940651E-2,3.7673146E-2,8.288665E-2,-0E0,-3.7E1,2.001E3,2.2E1,-8E0,-6.63827E-2,-0E0,5.5662923E-2,-0E0,-8.647748E-3,9.3E1,2E0,7.25E2,6.4E1,7.949422E-2,1.4304267E-1,7.339497E-2,4E0,1.1E1,1.0583286E-1,3E0,2.5144912E-2,3E0,1.27E2,1.3E1,2E0,2.9E1,7E0,7.4E1,4E1,6.7E1,-6.181491E-2,3E0,6.810553E-2,5E0,-0E0,7.660536E-2,7.3E1,7.7E1,1.1E1,7E0,4E0,1.5E1,1.0019114E-1,1.3936174E-1,-0E0,1.6E1,2.0354982E-2,3E1,9.743744E-2,9E2,-0E0,2.8E1,8.5E1,-0E0,1.9E1,7.17E2,8.3E1,1.51E2,2.006E3,4.815261E-2,2.007E3,-0E0,1.4374608E-2,3E0,2.3862192E-2,-5.955957E-2,-0E0,7.388576E-2,6.5655294E-3,1.8E1,-0E0,5.8036383E-2,-0E0,-1.8E1,1.26E2,2.2E1,3.2E1,1.4658993E-1,5.6656014E-2,1.1035454E-1,2.013E3,-1E0,4E0,4E0,7E0,2.013E3,5.6945313E-2,5.699942E-3,7E0,2.0733971E-2,-6.948698E-2,1.74E2,6.509955E-2,-0E0,1.5609914E-1,7.5924047E-3,3.75E2,-0E0,7E1,1.4374608E-2,-0E0,1.7E1,-2.823602E-2,4.4926424E-3,6.716566E-2,3.5E1,3.45E2,3E0,5.0018937E-3,-5.8953486E-2,-0E0,3.594596E-2,4E0,9.196984E-2,-0E0,7.533095E-2,4.2527705E-2,1.220833E-1,7.89E2,1.3E1,-0E0,2E0,1.4322201E-2,8.5E1,-1.0529117E-1,-0E0,-6.9346346E-2,2.7E1,-4.2368826E-2,4.8287958E-2,3.854528E-2,-1.1981841E-1,-7.044735E-2,-0E0,-4.466571E-2,2.8845672E-2,-1.35882655E-2,-8.51109E-2,-7.4562185E-2,-1.2318237E-2,8.39435E-2,-0E0,7.1994625E-2,-0E0,1.24E2,-0E0,-1.6E1,-2.198909E-2,1E1,2.5E1,-0E0,-7.046077E-2,-5.397924E-2,9.394066E-3,-3.1E1,5E0,-1.0035627E-1,8E0,3.7629902E-3,2E0,-8.233353E-2,1.8E1,3.5E1,1E0,1E1,4E0,6E0,3.9E2,4.8E1,8E0,7E0,7E0,1.13E2,1.1900403E-1,-6.628969E-2,-0E0,-0E0,8.791354E-2,-3.172164E-2,-0E0,-6.500634E-2,-0E0,7.2E1,5.3E1,-1.5E1,8.2E1,4.4E1,8.2E1,3.2E1,9.4308496E-2,7.166478E-2,-0E0,7E0,-0E0,-0E0,8.4E1,3.6876336E-2,-3.3565056E-2,9E0,9E0,1.5E1,2.9E2,3.94E2,2.003E3,-5.751853E-2,-0E0,-0E0,-6.1180353E-2,-2.7825078E-2,1.68E2,1.03E2,-1.6E1,-9.541913E-2,2E0,6.05E2,-0E0,-5E0,7E0,1E1,8.3E1,3.2E1,1.3701527E-2,8E0,1.04756586E-1,1.0201458E-1,8.3E1,-8.437923E-2,9.8374076E-2,1.98E2,1.3986541E-1,2E0,1.8E1,4E0,5E0,5.96501E-2,1.0037497E-1,5.9851673E-2,1.3403977E-1,4.4E1,7.2E1,3E0,4E0,2.4E1,3E1,6.6E1,2.003E3,6.02E2,3.1E1,2.1625219E-2,8.5E1,9.9E1,5.3E1,2E0,-1.2306617E-2,1.6816057E-1,3.8037929E-3,1.5306042E-1,5.1E1,-0E0,3.589655E-2,4E0,-0E0,6.6869065E-2,1.2612496E-1,2E1,5.24E2,1.6E1,-1.9723278E-2,4.148643E-2,-0E0,6.9E1,-7.703057E-2,5E0,6.3E1,-0E0,-8.4960654E-2,-1.0307056E-1,-2.4022326E-2,1.16E2,3.5E1,-4.4157945E-2,5.962066E-4,-1.0584821E-1,-5.499729E-2,-6.466948E-2,-0E0,8.5E1,-0E0,4.459899E-3,1.1710665E-1,9.01048E-2,4.1464536E-4,4.787002E-2,-0E0,1.2307371E-1,-0E0,-4.7937E-3,7.7E1,2.014E3,4E0,8.8E1,2.012E3,9.1E1,3.38E2,0E0,2.1E1,7E0,4E0,5E0,-9.672944E-3,1.4495562E-1,-0E0,-0E0,7.6865315E-2,-5.5238195E-2,-0E0,-4.0079664E-2,-1.8E1,5.200063E-2,-0E0,4E0,7.55E2,5.221003E-2,-0E0,-7.4303295E-3,2.2E1,6.9837235E-3,-5.3351916E-2,6.02E2,-0E0,-0E0,3.6E1,-6.2918745E-2,2.5917091E-3,2.02E3,-0E0,7.625737E-2,-0E0,2.021E3,2.015E3,6E0,-8.7748036E-2,-6.7247994E-2,2.017E3,2.5E1,-1.3E1,-0E0,-7.979032E-2,-7.3604E-2,-0E0,1.3E1,6E0,2.01E3,-0E0,1.3E1,3E0,2.014E3,-0E0,1.3E1,0E0,2.4E1,3.45E2,1.41E2,1.4E2,5E0,1.41E2,-1.3074898E-2,7.67E2,6.91E2,2.2E1,1.43E2,9E0,3E0,2.4E1,3E1,-4.9799928E-3,1.2E2,4.5E1,1.14817664E-1,9E1,-0E0,4.6486918E-2,7.8E1,3.992031E-2,1.1591453E-2,-9.867766E-3,2E3,8.9012735E-2,1.01E2,1.5E1,-0E0,-6.792439E-2,7.1943425E-2,-0E0,2.1889694E-3,5.2E1,2.008E3,8.8E1,-0E0,-1.2E1,8.1E1,-8E0,2.5E1,-0E0,-8.6665235E-2,7.9E1,6.32856E-2,-0E0,-1.0056711E-1,-8E0,2.005E3,1.21E2,3.3E1,-6.565473E-2,7E0,1.47E2,2.002E3,9.460834E-2,3.9658733E-2,-2.2914993E-2,3.7E1,5.1E1,2.9204322E-2,-0E0,3.1E1,-7.040845E-2,-0E0,5.3252466E-2,6E0,7E0,6.714387E-2,1.1273655E-1,2.7E1,6.7E1,3E1,5E1,2.2712564E-2,8E0,-3.3249535E-2,3.1348012E-2,7E0,9E2,4E0,1.32E2,3.2E1,2.2E1,3.4281313E-2,9E1,-0E0,4.6941485E-2,7.6647684E-2,3.1E1,3E0,3.0877346E-3,1.29E2,5E0,-4.819849E-2,9.596651E-3,1.5E1,-0E0,5.9E1,3E0,-7.482264E-2,-0E0,8.083407E-2,-0E0,6.829304E-2,7E0,1.0323652E-1,3.01E2,6.257581E-2,9.453581E-2,2.003E3,5.330056E-2,8E0,7.8E1,-0E0,5.007195E-2,-4.236451E-2,-0E0,-1.0330925E-1,-2E0,-1.089871E-1,2.004E3,1.1319469E-1,-0E0,-0E0,-7.3425785E-2,3.2E1,-0E0,6.489344E-3,8.24074E-2,-9E0,1.16498895E-1,9E2,8.68E2,2.013E3,1.13659926E-1,4.19E2,-2.2E1,2.013E3,1.4064962E-1,1E0,6.9E1,2.013E3,8E0,2E0,2.02E2,7.307473E-2,-1.1E1,4E0,3.1E1,-5.8495782E-2,8.1E1,-0E0,-9.9323116E-2,-1.2035427E-2,5.1311295E-2,1.5E2,-0E0,-0E0,1.1E1,-0E0,6.5281965E-2,-8.612633E-2,-1.20110266E-1,-4.964672E-2,-0E0,-6.358998E-2,-0E0,-4.8287414E-2,-2.0366753E-2,-0E0,-6.3459374E-2,2.013E3,-5.700953E-2,-7.0019975E-2,-0E0,1E1,-8.4377125E-2,8.8E1,2.2E1,8.8E1,2.8E1,1.309373E-1,7.645804E-3,5.739124E-2,-0E0,2.095294E-2,-3.0080402E-2,-0E0,6.704276E-2,-0E0,6.987263E-2,-0E0,3.9193887E-2,2.2E1,1.23E2,0E0,-1E0,3.2E1,2.02E3,1.26E2,1.46E2,8.327093E-2,1.5996514E-1,8E0,6.5E1,5E0,-0E0,2.5E1,8.12E2,-2.0683868E-2,1.8E1,1.3E2,-7.850689E-2,2.5E1,4E0,2.018E3,4E0,2.2E1,2.015E3,4E0,-0E0,1.4E1,2.8E1,8.595287E-2,-7.606982E-2,-0E0,7.011765E-2,1.6E1,7.3066275E-3,-1.7772583E-2,2.7569763E-2,1.5E1,4.542883E-2,2.3E2,4E0,-4.906086E-2,-0E0,1.2E1,-0E0,2.5E1,-0E0,-0E0,5.756553E-2,1.24E2,1.5597814E-2,4.9E2,9.8E1,-4.8671745E-2,-0E0,-2E0,-0E0,-8.181943E-2,9.8646E-4,-9.704473E-2,5.3E1,-1.3575482E-1,-6E0,6.8266995E-2,5.9E1,-2.651585E-3,-8.0242455E-2,2E0,-0E0,-0E0,6.251687E-2,-0E0,-6.638989E-2,3.182599E-2,5.87E2,-6.3073955E-2,1.2903148E-2,-0E0,8.2951084E-2,-0E0,4.2689443E-2,1.1137502E-1,3.1E1,1.03E2,4.2E1,7.716754E-2,4E0,2.1E1,-0E0,5.5E1,1.4E2,-0E0,6.23561E-2,7.02E2,-6.136146E-3,2.007E3,9E0,4.1801125E-2,-5.194937E-3,-2.2706933E-2,8.543167E-3,8.4E1,1.696004E-2,2.26E2,3.7017178E-2,-1.5091786E-2,2.003E3,-8.71078E-2,9.035632E-3,5.6E1,5.2542217E-2,4.01E2,6.342846E-2,-0E0,1.5E1,-1.361509E-2,3.7386186E-2,-5.803347E-2,-0E0,5.285822E-2,-4.4304464E-2,5.8E1,-0E0,-4.2431768E-2,2.0028062E-2,5.4966114E-2,4.16E2,6.2E1,-4.7611687E-2,-1.3198508E-1,6.5E1,-6.6888265E-2,-0E0,-4.2615045E-2,-9.321843E-2,2.87E2,9.878563E-2,1.21944204E-1,2.8316772E-2,1.759761E-1,-0E0,4.23E2,5E0,-2.1E1,-7E0,1.0853212E-1,3.8E1,6.872146E-2,6E0,8.478322E-2,1.9041286E-1,8.9E2,5E0,7.3E1,1E0,-0E0,6.81365E-2,6.1E1,-2E0,0E0,0E0,1.4E1,3.1E1,4.6629038E-2,-0E0,6.32546E-2,9.487067E-2,-1.0814048E-2,-1.11877054E-1,-5.07172E-2,-0E0,-0E0,6.1181054E-2,-3.8186777E-2,8.443931E-3,-7.1033803E-3,-1.115696E-1,2.012E3,1.39E2,-5.807524E-3,2.8E1,-1.7360859E-2,2.012E3,6.4E1,2.012E3,8E0,2.02E3,3.2E1,3E0,4.3E1,4.9E1,1.7E1,4.6E1,-2.2407724E-2,5E0,2.439869E-2,-3.319192E-2,2.1E1,2E1,-6.395126E-2,7E0,9.024701E-2,1.3E1,5.1387562E-3,-4.6926495E-2,9.041407E-2,1E0,6.3E1,3E1,1.3E1,8E0,-0E0,4.549917E-2,-1E0,5E1,1.1E1,2.2E1,-5.7431627E-2,5.94E2,-9.2101686E-2,6.76E2,4.5632336E-2,9.7E1,1.6E1,2.02E3,4.27E2,5E1,6.32329E-2,0E0,-2.0307075E-2,-9.3403794E-2,7.435799E-3,-3.9931197E-2,-0E0,-4.4840537E-2,8.109114E-2,-0E0,1.8597186E-2,4.356768E-2,4.455637E-2,-1.3199921E-2,-0E0,-3.7659254E-2,-1.7152494E-2,-6.681424E-2,-6.120361E-2,-1.8855194E-2,-1.7608995E-2,1.8761795E-2,4.905569E-2,1.0424615E-2,-5.9726655E-2,-0E0,-5.397924E-2,-0E0,-1.17441535E-1,-5.7090383E-2,-0E0,-4.1460905E-2,-4.0876217E-2,-7.1807E-2,-2.2025637E-2,7.0076543E-3,5.028255E-2,-0E0,-6.310217E-2,-0E0,1.3624807E-1,2.8511127E-2,1.7282173E-2,5.321514E-2,-7.091727E-2,-0E0,7.778984E-2,5.283468E-2,8.7591566E-2,5.4970257E-2,1.963744E-2,4.8354983E-2,2.7421445E-2,-3.3410178E-3,9.677977E-3,-1.4732553E-2,-2.2372182E-2,-4.3244008E-2,1.0258895E-2,-2.5326645E-2,-0E0,8.8821754E-2,2.2419397E-2,-6.7523244E-4,2.2065018E-3,3.7060943E-2,-5.6212645E-2,-2.010076E-2,-0E0,6.4263664E-2,-3.4314558E-2,2.8340507E-3,-2.4088962E-2,9.590753E-3,-4.7337085E-2,-1.1815716E-1,9.398707E-3,7.703365E-2,4.8429698E-2,6.494127E-2,4.9052875E-2,7.749379E-2,3.0777907E-2,-3.429939E-2,3.8821425E-3,4.374024E-2,1.0370749E-1,3.9904904E-2,6.528529E-2,8.9958735E-2,1.1099666E-1,2.4851138E-2,7.968314E-2,-0E0,-0E0,3.1407252E-2,5.679878E-2,-0E0,9.839069E-3,3.6446948E-2,-1.4121464E-2,1.3370528E-2,3.5957687E-2,1.5720385E-1,-0E0,4.4020176E-2,-2.7200455E-2,1.4493465E-2,1.973119E-3,4.25011E-2,4.3941834E-3,-2.8168244E-2,-5.2896123E-2,1.0139594E-2,-7.377709E-2,-2.9637855E-2,-8.507737E-2,-8.470464E-3,-5.986604E-2,-8.835334E-2,-5.9389155E-2,1.2294679E-3,4.0505407E-3,-1.4518981E-2,-7.181836E-2,-0E0,-8.341664E-3,3.1429335E-2,5.4279384E-3,4.9951904E-2,-4.098791E-2,-1.059673E-1,3.132707E-2,-2.624523E-2,-1.4139361E-2,-5.2020818E-2,-3.867688E-2,1.7755447E-2,7.1582116E-2,2.5845377E-2,1.1040834E-2,-6.209465E-3,-0E0,5.1447924E-2,-2.4036065E-2,2.0997494E-2,2.0462696E-2,6.743556E-2,4.0120076E-2,-0E0,-1.3257579E-2,-4.701748E-2,5.4805665E-3,-3.855543E-2,-4.9613677E-3,2.9551454E-2,-3.56648E-2,2.5170846E-3,-5.6056883E-2,-1.9168617E-2,-4.8454214E-5,3.728547E-2,-3.095802E-2,-8.2927406E-2,-1.0821119E-1,-4.8110005E-2,6.691087E-2,-4.8265565E-2,-3.8444728E-2,2.5034714E-3,-3.1806804E-2,8.537617E-3,-3.4304682E-2,-6.518037E-2,-1.0061059E-1,-1.9837404E-3,-1.934202E-2,2.0677565E-2,-9.237516E-3,-4.0476225E-2,-0E0,5.862829E-2],"split_indices":[6,10,3,3,4,2,4,8,4,3,8,1,8,10,4,1,1,3,8,5,5,4,1,3,8,1,4,10,2,10,8,4,4,4,2,0,2,4,1,0,8,2,0,3,5,3,2,10,4,1,1,4,2,10,3,0,12,0,10,8,11,4,1,2,3,2,2,4,3,8,3,8,8,5,4,4,2,0,0,0,0,4,10,8,10,5,4,3,3,0,11,4,12,1,5,5,1,4,3,8,4,10,4,11,8,0,0,5,12,11,0,0,8,4,5,4,2,1,4,2,4,5,4,8,8,2,2,5,4,5,2,8,4,0,0,0,12,5,10,5,5,5,5,2,2,5,3,4,1,3,0,8,0,5,0,3,10,0,2,4,4,11,0,0,12,0,0,5,4,2,8,2,5,3,0,10,0,10,4,5,5,5,5,11,11,4,3,0,8,0,0,0,8,12,8,0,7,0,0,0,0,8,1,4,4,2,4,0,1,0,0,1,5,2,4,8,0,8,8,8,5,5,4,12,0,1,3,2,5,4,5,0,5,0,8,5,2,4,8,10,0,0,5,0,12,12,0,8,0,5,0,3,4,0,8,8,8,3,4,5,4,8,0,4,8,0,10,3,2,0,4,0,8,5,4,5,4,0,0,2,0,3,2,0,12,0,0,2,2,4,0,10,0,5,8,5,4,2,2,8,4,0,2,10,2,5,5,2,0,0,0,0,0,0,8,0,10,12,8,12,10,0,8,8,4,12,0,5,0,0,12,0,0,0,0,12,0,0,0,0,0,0,0,0,0,10,8,0,5,5,8,11,1,0,8,1,4,4,5,5,2,0,0,0,0,2,11,5,2,0,2,11,8,5,0,0,0,0,1,5,4,1,12,1,5,4,1,10,2,2,2,3,0,0,12,0,8,0,5,11,2,0,0,2,0,0,0,0,12,1,0,4,0,0,0,4,0,2,0,0,0,5,12,4,10,2,4,10,10,8,8,0,4,0,12,3,8,0,0,0,2,4,12,2,5,0,5,0,0,0,0,0,0,0,0,0,0,3,11,4,0,0,0,0,10,8,12,0,0,0,5,2,5,0,8,0,0,0,10,0,5,2,0,10,5,0,8,11,0,0,0,4,0,5,0,0,0,0,0,0,0,0,2,8,0,0,0,8,10,0,12,0,0,11,0,4,11,0,0,12,0,5,1,11,4,0,0,0,0,12,0,0,10,0,4,0,12,0,0,0,2,0,0,0,0,5,5,2,5,5,1,5,0,1,0,1,0,0,2,0,0,0,0,0,0,8,10,5,8,0,0,0,0,0,5,3,2,5,0,0,0,12,11,0,1,0,1,2,4,1,12,4,5,5,2,0,0,0,0,0,0,5,5,4,4,8,4,0,0,0,8,0,5,0,2,0,11,12,0,4,2,5,2,10,0,10,0,0,1,0,0,0,0,0,4,0,0,0,8,12,11,11,0,0,0,10,8,1,1,4,10,0,0,8,0,0,2,0,0,0,0,2,0,5,0,0,0,0,0,0,5,2,0,0,0,0,0,11,0,0,0,0,0,2,4,0,4,0,5,0,0,0,11,0,0,0,0,0,0,0,0,0,0,0,0,0,0,0,0,12,0,8,0,0,11,0,0,0,0,8,4,0,8,0,3,0,0,5,7,5,1,11,2,12,8,4,11,12,0,0,0,0,0,0,0,0,0,5,2,8,5,5,5,5,0,0,0,11,0,0,5,0,0,4,4,5,2,2,10,0,0,0,0,0,2,2,8,0,3,2,0,8,4,4,12,5,0,0,0,0,12,0,0,2,0,1,4,12,8,0,0,0,0,12,5,0,0,12,11,5,10,2,11,0,12,2,2,3,0,0,0,0,5,0,0,8,0,0,0,0,2,8,0,0,0,12,0,4,5,0,0,0,0,2,5,0,0,0,0,0,0,5,0,0,0,0,0,0,0,0,0,0,12,10,1,5,10,5,2,8,0,0,11,4,0,0,0,0,0,0,0,0,8,0,0,1,2,0,0,0,12,0,0,2,0,0,5,0,0,10,0,0,0,10,10,4,0,0,10,11,8,0,0,0,0,11,4,10,0,0,4,10,0,12,8,11,2,12,12,8,12,0,2,2,5,12,8,11,11,11,0,2,2,0,5,0,0,2,0,0,0,10,0,12,4,0,0,0,0,0,5,10,5,0,8,5,8,11,0,0,5,0,0,0,8,10,2,5,0,4,12,10,0,0,0,12,5,0,0,2,0,0,0,5,5,0,0,5,5,5,5,0,8,0,0,12,2,0,12,5,8,0,5,0,0,0,11,1,0,12,8,0,0,5,0,12,1,0,0,0,0,0,4,0,2,0,0,10,0,4,12,0,0,0,0,0,8,0,10,0,0,0,0,5,0,0,0,8,0,2,2,10,0,2,8,10,0,8,5,10,12,1,2,0,8,1,12,0,2,0,0,0,0,12,0,0,5,0,0,0,0,0,0,0,0,0,0,0,0,10,0,0,0,5,0,12,5,12,11,0,0,0,0,0,0,0,0,0,0,0,0,11,12,8,8,12,10,12,12,0,0,11,5,4,0,11,2,0,12,12,0,11,1,10,11,11,10,1,0,5,5,0,0,0,0,11,0,0,0,4,0,2,0,0,0,12,0,12,0,0,0,2,0,2,12,0,0,8,0,0,0,0,5,0,8,0,5,0,0,3,0,0,0,0,0,0,2,0,0,0,0,0,0,0,11,2,2,0,12,11,0,5,12,0,0,2,0,10,11,0,0,0,0,12,0,2,0,0,10,0,0,5,0,2,0,0,4,0,0,0,0,0,0,5,0,0,0,0,2,12,0,0,2,0,0,0,0,2,0,0,0,0,0,2,11,8,8,0,5,0,11,0,0,2,1,12,7,0,0,5,8,8,8,11,5,0,0,0,0,0,0,0,0,0,0,0,0,0,0,10,12,0,11,0,10,12,10,11,10,11,1,5,5,11,12,0,11,0,0,11,11,0,0,0,8,0,0,0,7,12,11,11,0,0,0,8,5,5,12,0,2,0,2,0,12,0,10,2,5,0,8,0,0,0,0,0,0,0,0,0,0,0,0,0,0,0,0,0,0,0,0,0,0,0,0,0,0,0,0,0,0,0,0,0,0,0,0,0,0,0,0,0,0,0,0,0,0,0,0,0,0,0,0,0,0,0,0,0,0,0,0,0,0,0,0,0,0,0,0,0,0,0,0,0,0,0,0,0,0,0,0,0,0,0,0,0,0,0,0,0,0,0,0,0,0,0,0,0,0,0,0,0,0,0,0,0,0,0,0,0,0,0,0,0,0,0,0,0,0,0,0,0,0,0,0,0,0,0,0,0,0,0,0,0,0,0,0,0,0,0,0,0,0,0,0,0,0,0,0,0,0,0,0,0,0,0,0,0,0,0,0,0,0,0,0,0,0,0,0,0,0,0,0,0,0,0,0,0,0,0,0],"split_type":[0,0,0,0,0,0,0,0,0,0,0,0,0,0,0,0,0,0,0,0,0,0,0,0,0,0,0,0,0,0,0,0,0,0,0,0,0,0,0,0,0,0,0,0,0,0,0,0,0,0,0,0,0,0,0,0,0,0,0,0,0,0,0,0,0,0,0,0,0,0,0,0,0,0,0,0,0,0,0,0,0,0,0,0,0,0,0,0,0,0,0,0,0,0,0,0,0,0,0,0,0,0,0,0,0,0,0,0,0,0,0,0,0,0,0,0,0,0,0,0,0,0,0,0,0,0,0,0,0,0,0,0,0,0,0,0,0,0,0,0,0,0,0,0,0,0,0,0,0,0,0,0,0,0,0,0,0,0,0,0,0,0,0,0,0,0,0,0,0,0,0,0,0,0,0,0,0,0,0,0,0,0,0,0,0,0,0,0,0,0,0,0,0,0,0,0,0,0,0,0,0,0,0,0,0,0,0,0,0,0,0,0,0,0,0,0,0,0,0,0,0,0,0,0,0,0,0,0,0,0,0,0,0,0,0,0,0,0,0,0,0,0,0,0,0,0,0,0,0,0,0,0,0,0,0,0,0,0,0,0,0,0,0,0,0,0,0,0,0,0,0,0,0,0,0,0,0,0,0,0,0,0,0,0,0,0,0,0,0,0,0,0,0,0,0,0,0,0,0,0,0,0,0,0,0,0,0,0,0,0,0,0,0,0,0,0,0,0,0,0,0,0,0,0,0,0,0,0,0,0,0,0,0,0,0,0,0,0,0,0,0,0,0,0,0,0,0,0,0,0,0,0,0,0,0,0,0,0,0,0,0,0,0,0,0,0,0,0,0,0,0,0,0,0,0,0,0,0,0,0,0,0,0,0,0,0,0,0,0,0,0,0,0,0,0,0,0,0,0,0,0,0,0,0,0,0,0,0,0,0,0,0,0,0,0,0,0,0,0,0,0,0,0,0,0,0,0,0,0,0,0,0,0,0,0,0,0,0,0,0,0,0,0,0,0,0,0,0,0,0,0,0,0,0,0,0,0,0,0,0,0,0,0,0,0,0,0,0,0,0,0,0,0,0,0,0,0,0,0,0,0,0,0,0,0,0,0,0,0,0,0,0,0,0,0,0,0,0,0,0,0,0,0,0,0,0,0,0,0,0,0,0,0,0,0,0,0,0,0,0,0,0,0,0,0,0,0,0,0,0,0,0,0,0,0,0,0,0,0,0,0,0,0,0,0,0,0,0,0,0,0,0,0,0,0,0,0,0,0,0,0,0,0,0,0,0,0,0,0,0,0,0,0,0,0,0,0,0,0,0,0,0,0,0,0,0,0,0,0,0,0,0,0,0,0,0,0,0,0,0,0,0,0,0,0,0,0,0,0,0,0,0,0,0,0,0,0,0,0,0,0,0,0,0,0,0,0,0,0,0,0,0,0,0,0,0,0,0,0,0,0,0,0,0,0,0,0,0,0,0,0,0,0,0,0,0,0,0,0,0,0,0,0,0,0,0,0,0,0,0,0,0,0,0,0,0,0,0,0,0,0,0,0,0,0,0,0,0,0,0,0,0,0,0,0,0,0,0,0,0,0,0,0,0,0,0,0,0,0,0,0,0,0,0,0,0,0,0,0,0,0,0,0,0,0,0,0,0,0,0,0,0,0,0,0,0,0,0,0,0,0,0,0,0,0,0,0,0,0,0,0,0,0,0,0,0,0,0,0,0,0,0,0,0,0,0,0,0,0,0,0,0,0,0,0,0,0,0,0,0,0,0,0,0,0,0,0,0,0,0,0,0,0,0,0,0,0,0,0,0,0,0,0,0,0,0,0,0,0,0,0,0,0,0,0,0,0,0,0,0,0,0,0,0,0,0,0,0,0,0,0,0,0,0,0,0,0,0,0,0,0,0,0,0,0,0,0,0,0,0,0,0,0,0,0,0,0,0,0,0,0,0,0,0,0,0,0,0,0,0,0,0,0,0,0,0,0,0,0,0,0,0,0,0,0,0,0,0,0,0,0,0,0,0,0,0,0,0,0,0,0,0,0,0,0,0,0,0,0,0,0,0,0,0,0,0,0,0,0,0,0,0,0,0,0,0,0,0,0,0,0,0,0,0,0,0,0,0,0,0,0,0,0,0,0,0,0,0,0,0,0,0,0,0,0,0,0,0,0,0,0,0,0,0,0,0,0,0,0,0,0,0,0,0,0,0,0,0,0,0,0,0,0,0,0,0,0,0,0,0,0,0,0,0,0,0,0,0,0,0,0,0,0,0,0,0,0,0,0,0,0,0,0,0,0,0,0,0,0,0,0,0,0,0,0,0,0,0,0,0,0,0,0,0,0,0,0,0,0,0,0,0,0,0,0,0,0,0,0,0,0,0,0,0,0,0,0,0,0,0,0,0,0,0,0,0,0,0,0,0,0,0,0,0,0,0,0,0,0,0,0,0,0,0,0,0,0,0,0,0,0,0,0,0,0,0,0,0,0,0,0,0,0,0,0,0,0,0,0,0,0,0,0,0,0,0,0,0,0,0,0,0,0,0,0,0,0,0,0,0,0,0,0,0,0,0,0,0,0,0,0,0,0,0,0,0,0,0,0,0,0,0,0,0,0,0,0,0,0,0,0,0,0,0,0,0,0,0,0,0,0,0,0,0,0,0,0,0,0,0,0,0,0,0,0,0,0,0,0,0,0,0,0,0,0,0,0,0,0,0,0,0,0,0,0,0,0,0,0,0,0,0,0,0,0,0,0,0,0,0,0,0,0,0,0,0,0,0,0,0,0,0,0,0,0,0,0,0,0,0,0,0,0,0,0,0,0,0,0,0,0,0,0,0,0,0,0,0,0,0,0,0,0,0,0,0,0,0,0,0,0,0,0,0,0,0,0,0,0,0,0,0,0,0,0,0,0,0,0,0,0,0,0,0,0,0,0,0,0,0,0,0,0,0,0,0,0,0,0,0,0,0,0,0,0,0,0,0,0,0,0,0,0,0,0,0,0,0,0,0,0,0,0,0,0,0,0,0,0,0,0,0,0,0,0,0,0,0,0,0,0,0,0,0,0,0,0,0,0,0,0,0,0,0,0,0,0,0,0,0,0,0,0,0,0,0,0,0,0,0,0,0,0,0,0,0,0,0,0,0,0,0,0,0,0,0,0,0,0,0,0,0,0,0,0,0,0,0,0,0,0,0,0,0,0,0,0,0,0,0,0,0,0,0,0,0,0,0,0,0,0,0,0,0,0,0,0,0,0,0,0,0,0,0,0,0,0,0,0,0,0,0,0,0,0,0,0,0,0,0,0,0,0,0,0,0,0,0,0,0,0,0,0,0,0,0,0,0,0,0,0,0,0,0,0,0,0,0,0,0,0,0,0,0,0,0,0,0,0,0,0,0,0,0,0,0,0,0,0,0,0,0,0,0,0,0,0,0,0,0,0,0,0,0,0,0,0,0,0,0,0],"sum_hessian":[1.3878822E5,8.4262164E4,5.4526055E4,4.9097727E4,3.5164438E4,3.4974812E4,1.955124E4,4.0613977E4,8.483749E3,3.1396738E3,3.2024766E4,9.254654E3,2.572016E4,7.98075E2,1.8753166E4,1.7263965E4,2.3350014E4,1.8144708E3,6.669279E3,2.095176E2,2.9301562E3,2.5982963E4,6.0418013E3,8.506527E2,8.404002E3,8.048183E3,1.7671977E4,2.1101688E2,5.870581E2,1.293128E3,1.7460037E4,1.2659487E4,4.604478E3,1.7981717E4,5.368297E3,1.2986575E2,1.684605E3,4.8780063E3,1.7912723E3,1.3284891E1,1.962327E2,7.3040326E2,2.1997532E3,2.4542926E4,1.4400383E3,3.297413E3,2.744388E3,4.0183908E2,4.4881363E2,6.2166274E3,2.1873743E3,3.4192625E3,4.6289204E3,1.5091846E4,2.5801306E3,1.417564E2,6.926048E1,4.1378735E1,5.456794E2,1.0763629E3,2.1676517E2,1.3647665E4,3.812372E3,1.3501066E3,1.1309381E4,5.942723E2,4.0102058E3,2.6955386E3,1.5286178E4,2.0107988E3,3.3574978E3,4.872933E1,1.6358757E3,6.645464E2,4.21346E3,9.8990906E2,8.013632E2,1.62891E2,3.3341694E1,3.4387375E1,6.9601587E2,2.362167E4,9.2125586E2,1.2217224E3,2.1831592E2,2.075183E3,1.2222301E3,1.2817911E3,1.4625968E3,4.715713E1,3.5468195E2,8.7680824E1,3.611328E2,3.528999E3,2.6876284E3,1.8100583E3,3.7731586E2,2.8453098E2,3.1347314E3,2.477089E3,2.1518315E3,3.575769E3,1.1516076E4,5.303829E2,2.0497478E3,5.045209E1,1.8808388E1,3.8658722E2,1.590922E2,1.0651079E3,1.1255061E1,2.099009E1,1.9577507E2,1.3309963E4,3.377028E2,2.633031E3,1.1793412E3,2.6823746E2,1.0818691E3,7.155868E3,4.1535127E3,2.3994229E2,3.5432996E2,1.8828063E3,2.1273994E3,9.547665E2,1.7407721E3,9.993668E3,5.2925093E3,3.0468277E2,1.7061161E3,1.8876625E3,1.4698353E3,1.3984027E1,3.47453E1,2.4340242E2,1.3924733E3,3.7785175E2,2.8669467E2,5.2644904E2,3.687011E3,1.3718623E2,8.5272284E2,2.738793E2,5.2748395E2,2.191703E3,2.1429967E4,5.7484784E2,3.4640805E2,5.405106E2,6.8121185E2,1.0863144E2,1.0968447E2,1.9007261E3,1.7445706E2,4.2188037E2,8.003497E2,1.0355835E3,2.4620763E2,8.5453534E2,6.080615E2,3.1058765E2,4.4094307E1,3.7361874E1,5.031895E1,2.0169195E1,3.409636E2,2.8581155E3,6.7088354E2,8.361583E1,2.6040127E3,1.5149178E3,2.951405E2,3.3887082E2,3.8445023E1,1.1366185E2,1.7086914E2,1.6823593E3,1.4523722E3,3.3853104E2,2.138558E3,1.6194966E2,1.9898817E3,9.3979486E2,2.635974E3,7.474449E2,1.0768632E4,4.0599582E2,1.2438707E2,1.8264823E3,2.2326546E2,3.386086E1,3.5272635E2,3.379328E1,1.2529891E2,8.049207E2,2.6018713E2,1.7630501E2,1.9470058E1,2.4770422E3,1.083292E4,2.7525903E2,6.2443752E1,2.4125562E3,2.2047496E2,2.9098315E2,8.8835803E2,6.47599E1,2.0347755E2,5.296574E2,5.5221173E2,1.1776355E3,5.9782324E3,8.4217596E2,3.3113364E3,1.3885612E2,1.0108617E2,1.7936038E2,1.7496959E2,1.7267347E3,1.5607156E2,1.0991599E3,1.0282395E3,6.861351E1,8.8615295E2,1.7107117E2,1.569701E3,7.947725E2,9.1988955E3,4.2487075E3,1.0438019E3,6.922231E1,2.3546045E2,6.0769604E2,1.09842E3,9.779819E2,9.0968066E2,5.4189325E2,9.279421E2,4.9578323E1,1.3428949E3,5.4701088E1,3.2315063E2,2.3749098E2,4.920368E1,2.227911E2,3.0365793E2,3.5775432E3,1.0946774E2,6.988066E1,6.730558E1,7.826321E2,7.0090744E1,1.5900517E2,1.14874115E2,1.8414798E2,3.4333594E2,4.9259332E2,1.6991096E3,1.5435243E4,5.9947236E3,1.7396338E2,4.0088443E2,2.2073045E2,1.2567758E2,1.4896248E2,3.9154813E2,5.961329E2,8.507896E1,4.1659718E1,6.697172E1,4.5682568E2,1.4439004E3,3.5271558E2,6.91648E1,3.8287277E2,4.174769E2,1.986123E2,4.759532E1,8.4402625E2,1.0509094E1,2.566177E2,3.514438E2,6.0042603E1,2.5054504E2,1.7091667E1,3.3227283E1,2.1290774E3,7.290382E2,5.8327893E2,8.760459E1,7.284247E1,1.077336E1,2.4275293E2,2.3612598E3,1.2540128E3,2.60905E2,2.1672237E2,7.841813E1,1.601406E2,1.7873024E2,1.7138498E1,9.652335E1,8.876599E1,8.210315E1,2.6396045E2,1.4183988E3,1.0941738E3,3.581985E2,2.662285E2,7.230256E1,2.310623E1,2.115452E3,2.7561283E1,1.3438838E2,3.281316E1,1.9570686E3,5.3718956E1,8.8607587E2,2.5628174E3,7.315689E1,2.2112111E2,5.263237E2,6.0817974E3,4.686834E3,7.643916E1,4.7947914E1,1.936255E2,2.9639957E1,3.1377424E1,3.2134894E2,2.2348883E1,1.1444397E1,1.3266159E1,1.1203275E2,2.414724E2,1.8714725E1,1.7969635E2,9.5562675E1,2.8014885E1,3.4428867E1,2.2805104E2,2.1845051E3,2.0952162E2,1.0953331E1,5.1317802E1,2.3966534E2,8.3647015E2,5.188783E1,1.2771748E2,7.576006E1,3.1469144E2,8.629441E2,3.208792E2,5.6573535E3,1.6553497E2,6.76641E2,2.5333977E3,7.779387E2,8.000574E1,5.8850384E1,1.2973795E1,8.811237E1,5.444216E1,1.2491822E2,1.0030405E2,7.4665535E1,2.0348763E2,1.5232471E3,5.485427E1,1.0121729E2,5.8814934E1,1.0403451E3,9.343955E2,9.384394E1,2.3265453E1,4.5348057E1,5.2117954E1,1.1895321E2,2.2991681E2,1.3397842E3,5.2479908E1,7.422926E2,8.352132E3,8.4676337E2,2.6594138E3,1.5892937E3,7.250387E2,3.1876315E2,5.5754124E1,1.7970633E2,4.9744638E2,6.009737E2,3.5597107E2,6.220108E2,5.0238443E2,4.072962E2,3.007789E2,2.4111436E2,5.815287E2,3.464134E2,1.8024956E1,3.1553368E1,2.2662125E2,9.6529396E1,2.9090681E1,2.0112997E1,2.345479E1,1.9933632E2,3.0453284E3,5.322147E2,6.81171E1,4.1350636E1,1.5938929E1,5.394173E1,7.671467E2,1.5485327E1,5.9233086E1,1.0857655E1,3.036518E1,8.4508934E1,4.878019E1,1.353678E2,2.7231192E2,7.102403E1,2.8391675E2,2.0867656E2,1.0526165E3,6.4649316E2,2.614891E3,1.2820352E4,8.6491815E2,5.129805E3,5.805225E1,1.1591113E2,3.450721E2,5.5812336E1,1.1334139E2,1.0738907E2,3.972355E1,8.595403E1,5.9598366E1,8.936411E1,2.34378E2,1.5717012E2,1.5994925E2,4.3618365E2,4.4854977E1,4.022398E1,1.4465728E1,5.2505993E1,1.2978141E3,1.4608627E2,4.037384E1,3.1234174E2,3.386821E1,3.5296593E1,1.5916048E2,2.2371231E2,3.572824E2,6.0194473E1,5.00002E2,3.440242E2,2.0476202E2,5.18557E1,1.5270833E2,1.9873547E2,1.3628105E2,1.1426401E2,1.2733137E3,8.557636E2,1.6278194E2,5.662563E2,2.1273088E1,5.6200586E2,6.1133804E1,1.1708663E1,2.0213155E2,4.0621387E1,2.1084565E3,2.5280309E2,3.5750195E1,1.2182627E3,4.0668217E1,2.2023677E2,1.0018027E1,2.0670433E2,3.4869076E1,4.3549057E1,7.95615E1,8.057909E1,3.4104378E1,1.4462585E2,5.9163494E1,3.735986E1,3.1905956E1,5.686003E1,3.89234E1,4.317975E1,1.0509094E1,2.5345137E2,8.3102E1,1.3352968E3,1.0624758E3,3.1697887E1,5.938697E1,2.056065E3,8.255876E1,5.1829617E1,4.4836343E2,1.5087052E3,3.7195297E1,1.6523657E1,8.631871E2,2.2888794E1,2.453618E3,1.0919945E2,1.9745705E1,5.3411182E1,3.5609827E2,1.702255E2,3.6861155E3,2.3956821E3,8.170494E2,3.8697847E3,1.051846E1,6.59207E1,1.77904E2,1.5721494E1,2.9270047E2,2.8648458E1,1.8773471E2,5.373769E1,1.4655065E1,3.666274E1,8.158801E1,1.5807733E2,3.56659E1,1.6221928E1,2.9883478E1,9.783401E1,2.2028421E1,5.3731644E1,1.5424174E2,1.6044968E2,5.0388403E2,3.5906006E2,7.360929E2,4.9212607E3,4.7870968E1,1.1766401E2,3.385095E2,3.381315E2,1.2841716E3,1.2492262E3,6.7466754E2,1.03271194E2,2.413318E1,5.587256E1,2.772252E1,3.1127863E1,2.163303E1,7.867102E1,6.1663647E1,1.3001893E1,1.3675006E2,6.6737564E1,8.3038934E2,6.928578E2,8.8715836E1,1.250146E1,2.8391544E1,3.042339E1,8.397174E1,9.563733E2,2.5687936E2,6.775162E2,7.4907745E1,4.404546E1,1.7609886E2,5.3817955E1,7.9873114E2,5.4105304E2,1.46717825E1,3.7808125E1,2.5304651E1,7.169879E2,5.8823706E3,2.4697612E3,5.695623E2,2.7720105E2,1.3403572E3,1.3190568E3,6.4171704E2,9.475767E2,3.229159E2,4.0212277E2,2.390638E1,2.9485678E2,9.96183E0,4.5792294E1,8.0365685E1,9.9340645E1,2.6792093E2,2.2952545E2,7.549046E1,5.465203E2,2.4010947E2,1.6718674E2,9.971197E0,2.3114317E2,1.3953653E2,4.4199216E2,1.8413992E2,1.6227345E2,4.861895E1,1.7800229E2,1.8162245E2,1.771386E1,3.0147625E3,3.0565895E1,4.374228E2,9.479193E1,4.651419E1,2.1602917E1,7.554287E2,1.1718029E1,1.6533024E1,4.270006E1,1.9799887E1,2.89803E1,1.4711262E1,1.2065653E2,3.374645E1,2.3856548E2,4.3378452E1,2.7645578E1,1.374786E1,2.7016888E2,8.8743225E1,1.1993333E2,4.1495258E2,6.376639E2,6.8028786E1,5.7846436E2,1.0310794E2,2.5117832E3,6.2122534E3,6.608098E3,3.3332634E3,1.7965417E3,4.8965496E1,6.694563E1,3.270284E2,1.8043688E1,1.8045702E1,3.7766632E1,8.088817E1,3.245322E1,6.8183975E1,1.7770056E1,3.6898907E1,2.269946E1,7.2831085E1,1.6533024E1,1.3729128E1,2.2064888E2,1.0695621E2,5.021391E1,4.976766E1,1.1018158E2,2.730311E2,1.6315256E2,1.4382501E2,1.5335468E1,4.6664047E1,1.7704826E2,2.4195268E2,1.1532973E2,2.8685923E1,2.3169779E1,4.764417E1,1.05064156E2,2.8393559E1,1.7034192E2,3.3954517E1,8.218091E2,2.9025118E1,1.3375682E2,5.5504803E2,1.120823E1,3.5986768E2,2.021382E2,2.7289665E1,1.3331722E1,1.2567023E1,2.4023607E2,2.4240236E1,1.150996E1,1.5854633E1,2.4813583E1,4.3813324E1,1.7642345E2,1.7783844E2,2.8865892E1,1.2878119E1,2.1990955E1,1.6881584E1,1.7222794E1,4.1950066E1,1.7213427E1,7.614278E2,5.73869E2,6.628191E2,3.9965677E2,1.1226962E1,7.13318E1,1.8073801E1,3.3755817E1,1.114699E3,3.940062E2,6.188245E2,2.443626E2,6.942907E1,2.3841887E3,4.1294437E1,6.790501E1,1.3918797E2,2.169103E2,2.9810422E2,3.3880112E3,1.7665154E3,6.291667E2,1.3024371E2,6.8680566E2,2.384916E3,1.4848688E3,2.5100731E2,4.1693153E1,2.2266602E1,3.1471087E1,1.6231293E1,2.0431446E1,1.1761718E2,4.0460148E1,2.6733036E1,7.1100975E1,4.366012E2,6.7282814E1,1.4346304E2,2.1559702E2,4.6986252E2,2.6623038E2,4.7618477E3,1.5941266E2,1.9393116E1,2.8477854E1,5.976363E1,5.7900375E1,2.0735191E1,3.177743E2,3.1852832E2,1.9603199E1,3.0625436E2,9.779173E2,4.137564E2,8.354697E2,1.5508409E2,5.1958344E2,4.26345E1,1.3238061E1,2.020666E1,1.16543396E2,1.31444E1,5.3593166E1,1.5780037E2,6.72589E2,3.767874E2,3.1607034E2,9.3363635E2,2.2736923E1,1.6485387E2,9.20255E1,3.9885724E2,2.7865894E2,6.212329E1,1.2784458E1,2.9053215E1,7.696779E2,1.6482175E2,3.762313E2,2.717727E1,1.0630854E1,5.2678326E2,1.9020465E2,7.561905E2,5.12618E3,2.390361E3,7.940027E1,2.1584184E2,3.5372046E2,5.3997925E1,2.2320311E2,6.389553E2,7.014018E2,1.00041736E3,3.186394E2,1.625638E2,4.7915323E2,8.121669E1,8.6636E2,6.733368E1,3.3478912E2,9.630058E1,1.9855621E2,5.6298065E1,2.4067617E1,7.745271E1,2.1887928E1,2.5664713E2,1.1273793E1,8.031613E1,1.4920932E2,3.9894154E1,3.559631E1,5.2907074E2,1.7449594E1,1.8134006E2,4.980311E1,7.9758194E1,3.6223398E2,1.3193436E2,3.0339094E1,1.5109131E2,2.6910992E1,9.770288E1,8.391957E1,2.8800964E3,1.3466605E2,1.725089E1,1.3315004E1,4.1506253E2,2.2360264E1,3.376317E1,6.1028763E1,3.324803E1,1.3266159E1,6.7902704E2,7.6401695E1,2.4750034E1,1.7950027E1,2.2809384E2,1.047163E1,1.3521059E1,2.5664783E2,6.724334E1,2.149989E1,7.7244644E1,4.2688683E1,4.0119534E2,1.3757226E1,4.385079E1,5.9257156E1,1.0598287E3,1.4519546E3,5.1365386E3,1.075715E3,5.532583E3,1.0755154E3,8.919617E2,2.441302E3,8.58911E2,9.376308E2,2.961608E2,3.0867626E1,2.257367E1,1.5192963E1,1.3474228E1,2.3424679E1,4.6118797E1,2.6712288E1,1.6673857E2,5.3910305E1,1.9856085E1,9.03255E1,9.30451E1,1.7998601E2,3.9665337E1,1.2348722E2,2.4890528E1,2.1706216E2,1.7269623E1,1.1123935E1,1.5388382E2,1.6458094E1,2.1179426E1,8.0062964E2,1.2123663E2,1.2520192E1,1.6918454E2,3.295365E1,3.1214172E1,1.0735895E1,2.9498328E2,4.664445E2,1.7811943E2,4.8469968E2,2.9721384E2,1.0244295E2,6.0027897E1,1.054671E3,1.146313E1,3.8254306E2,2.2468448E2,1.9678127E1,1.1934608E3,1.1907279E3,5.468568E1,1.3219329E1,5.816263E1,8.102534E1,1.777059E2,3.9204384E1,1.3807803E2,1.6002618E2,2.71573E3,6.722811E2,3.516599E2,1.4148555E3,1.5757549E2,4.7159125E2,1.690233E1,1.1334139E2,5.7255505E2,1.1425061E2,5.5749927E2,1.8274167E3,2.8223358E2,1.2026353E3,2.2710829E2,2.3899027E1,3.9176828E2,4.483292E1,2.5784338E1,4.1498478E1,3.5654522E1,1.07808525E2,1.8499567E2,3.0601345E1,1.1544081E2,3.5442172E2,2.4202228E2,2.4208109E1,6.343417E2,4.1275063E3,1.1718029E1,4.80456E1,3.0628305E2,1.1491228E1,2.1416129E2,9.209308E1,6.9978015E2,2.7813715E2,1.5211695E1,3.9854474E2,3.3142657E2,5.0404315E2,9.071555E1,6.4368546E1,2.310891E2,2.884944E2,2.0129715E1,3.346345E1,7.953008E1,7.827029E1,1.3743248E2,5.351565E2,2.0503172E2,1.11038635E2,2.934954E2,6.40141E2,7.718845E1,8.766542E1,2.6342981E1,6.568252E1,7.395573E1,3.2490152E2,1.5491681E2,1.2374212E2,3.6891556E1,2.5231735E1,1.245463E1,1.6598585E1,1.9713448E2,1.7909682E2,9.496586E1,4.3181744E2,3.4115616E2,4.1503433E2,5.0561924E3,6.998772E1,9.7310814E1,2.2930503E3,2.905523E1,5.0345036E1,1.9168993E2,4.4726538E2,5.334269E2,1.679749E2,2.0409642E2,7.963209E2,8.440258E1,2.3423682E2,3.1442987E1,1.3112082E2,4.3283975E2,4.6313473E1,6.2955566E1,1.8261124E1,3.6139163E2,5.0496838E2,1.6345701E1,5.0987976E1,3.143088E2,2.0480291E1,1.1703779E2,8.151842E1,3.587397E1,2.0424093E1,9.856789E0,1.4210829E1,4.826636E1,2.9186356E1,6.103007E1,8.8179245E1,3.2207214E2,2.0699861E2,4.836405E1,3.1394142E1,9.661369E1,2.6562027E2,5.5926743E1,7.6007614E1,7.9724754E1,1.7978127E1,4.1653574E2,2.4635608E3,6.613078E1,6.8535255E1,2.2753641E1,1.1009527E1,1.8459826E1,4.2568935E1,2.1489325E2,1.3200596E1,2.525782E1,3.3999336E1,5.014586E2,5.583701E2,1.1706759E3,2.8127872E2,4.8403774E3,2.961613E2,3.771807E2,6.9853424E2,5.2750996E3,2.5748343E2,3.744054E2,7.011099E2,4.0783954E2,4.841221E2,2.2222139E3,2.1908797E2,3.2340082E2,5.355102E2,1.1044383E2,8.2718695E2,1.217839E2,1.743769E2,1.0953331E1,4.2956978E1,7.945847E1,1.3586621E1,1.3684372E2,4.3142284E1,3.964862E1,1.7741354E2,1.0480996E1,1.4340282E2,2.1773662E2,5.82893E2,1.4100842E2,2.8176123E1,2.6358713E2,3.1396156E1,1.4599402E2,3.2045047E2,2.0678993E1,1.5744043E2,5.5587547E1,4.68554E1,4.2087234E1,1.794066E1,6.8664996E2,3.6802112E2,5.047885E2,6.886723E2,2.1688893E2,9.73839E2,3.4668358E1,2.0017323E1,4.0939835E1,1.7222794E1,3.4794147E1,4.6231194E1,1.7204062E1,1.6050185E2,2.1235624E1,1.1684241E2,8.384797E1,7.6178215E1,1.94551E3,7.7022003E2,2.65904E2,4.0637714E2,2.98612E2,5.304792E1,1.2742653E3,1.4059027E2,5.009749E1,1.07478E2,4.244923E2,4.709892E1,9.2143234E1,2.1198158E1,4.0088373E2,1.716713E2,2.585393E1,8.839668E1,5.0380637E2,5.369287E1,1.5145176E3,3.1289917E2,8.185963E1,2.0037395E2,8.013467E2,4.0128848E2,2.061744E2,2.0933893E1,3.332999E2,5.8468388E1,1.589945E1,2.893347E1,3.1150623E1,1.0347856E1,1.04557076E2,8.04386E1,3.0593994E1,2.1142828E2,4.0375842E2,2.3058322E2,3.9636526E3,1.6385371E2,3.2983765E1,5.910931E1,6.41861E2,5.791911E1,2.6217947E2,1.5957661E1,3.197152E1,3.665732E2,3.0314743E2,2.827915E1,2.4512256E2,2.589206E2,7.0735695E1,1.9979858E1,2.6129102E2,2.7203356E1,4.1048904E1,3.7221382E1,9.6121315E1,4.1311157E1,2.812609E2,2.538956E2,4.7010593E1,1.5802113E2,2.1160694E1,2.723347E2,6.0347626E2,3.6664753E1,2.4682459E1,5.2505993E1,1.796876E1,5.598697E1,6.4111626E1,2.607899E2,1.0368603E1,2.6522951E1,1.3502326E1,1.8363214E2,1.5211695E1,1.6388513E2,3.3592564E1,3.075636E2,2.987673E2,1.16267044E2,6.0377374E2,4.452419E3,2.62888E1,4.3698914E1,1.2873064E3,1.00574384E3,2.147179E1,1.7021814E2,4.3234607E2,1.4919331E1,1.4752472E2,3.8590216E2,1.4282948E2,2.5145426E1,5.4729187E1,1.4936723E2,7.7628485E2,2.0036055E1,1.8336325E2,5.0873566E1,1.3909099E1,3.2404373E1,5.092644E1,1.2029125E1,3.0918738E2,5.220426E1,2.5315356E2,2.5181482E2,1.1746128E1,3.0256268E2,8.218745E1,3.485034E1,4.46175E1,3.690092E1,1.2585755E1,1.6600601E1,6.673555E1,2.1443693E1,2.1822367E1,2.6541685E1,1.7353918E1,7.925977E1,1.2532973E2,1.4029056E2,1.6145142E3,8.490466E2,4.7554535E1,2.0980724E1,6.655226E1,1.4834099E2,1.5459232E2,3.4686627E2,1.1538693E3,1.6806656E1,2.68513E2,1.2765726E1,1.8597395E3,2.9806377E3,1.2722843E2,2.4995227E2,7.3162224E1,6.25372E2,2.0802378E3,3.1948618E3,7.299364E1,3.0141177E2,4.1621237E2,2.8489758E2,1.6431265E2,2.435269E2,1.7732592E1,4.663895E2,8.4753894E2,1.374675E3,8.499063E1,1.3409732E2,1.0253459E2,4.3297562E2,9.202147E1,1.8422361E1,1.5667834E2,6.705086E2,1.7903196E1,1.5647371E2,1.2386056E2,1.2983161E1,1.0226096E1,1.6718744E2,2.1085766E1,3.450178E1,1.3172498E1,6.734775E2,2.4659778E2,2.5819073E2,9.3470604E1,5.952017E2,1.130457E2,1.0384323E2,8.915559E2,8.228312E1,1.8117626E3,1.3374745E2,4.955552E2,2.7466483E2,2.2177956E2,4.412442E1,2.6308066E2,1.4329648E2,2.6845428E1,2.7176657E2,1.3048724E1,3.9999195E1,1.167495E3,1.06770195E2,6.69122E1,7.367807E1,1.01469475E2,3.2302283E2,3.1744719E1,1.53542E1,4.4847626E1,4.729561E1,2.8343918E2,1.1744456E2,9.098515E1,8.068614E1,2.1443693E1,6.695299E1,4.3880627E2,6.50001E1,1.1340592E3,3.8045834E2,1.8979062E2,1.2310854E2,3.5071808E1,4.6787823E1,4.7408E1,1.5296594E2,7.0640625E2,9.494048E1,8.3120735E1,3.1816776E2,1.4638669E2,5.97877E1,3.7808125E1,2.9549176E2,1.3275525E1,4.5192863E1,5.5162045E1,4.9395027E1,3.89274E2,1.448446E1,5.101815E2,3.453471E3,2.3850182E1,1.4000352E2,5.690888E1,5.8495215E2,4.3549057E1,2.1863043E2,1.5325699E2,1.4989043E2,9.4859505E1,1.5026306E2,1.6047575E2,9.8444824E1,2.4532399E2,1.5967028E1,1.8073801E1,2.3237356E1,1.5219661E2,1.01699E2,5.865571E1,9.936542E1,3.8594034E2,2.175359E2,1.321672E2,1.2862268E2,2.845905E2,2.297309E1,2.1945132E2,7.931597E1,3.2411728E1,8.3855316E1,1.6748586E2,4.284933E3,1.6308237E1,9.980563E0,5.525329E2,7.347735E2,8.5395544E2,1.5178842E2,3.195051E2,1.1284096E2,1.2387123E2,2.3653494E1,8.994682E1,2.9595535E2,4.3043738E2,3.4584747E2,5.024201E1,1.3312123E2,1.3984027E1,1.8420347E1,1.4531493E2,1.6387244E2,9.7369026E1,1.5578455E2,1.9477621E2,1.07786476E2,1.120823E1,5.5527325E1,2.8554796E1,5.070498E1,8.882621E1,3.6503513E1,5.2860596E1,7.96186E2,5.048754E1,1.0410478E2,8.7884204E2,9.808975E2,3.5750186E2,2.623136E3,2.3567184E1,1.0366125E2,1.1310925E2,1.3684302E2,6.5316536E1,5.600555E2,5.0141046E2,2.6934514E3,3.92409E2,2.3803352E1,2.4743066E2,3.7466915E1,4.439805E1,1.199146E2,2.2606793E2,1.745896E1,4.153561E2,4.321828E2,7.0536115E2,6.6931384E2,1.857222E1,6.641841E1,4.9364918E1,8.4732414E1,3.828046E1,6.4254135E1,6.492517E1,3.6805045E2,1.6153886E2,8.5058914E1,2.1569138E2,4.2499344E1,5.0070013E2,9.450158E1,7.197474E1,3.1868492E1,2.4110309E2,6.504528E2,5.3295467E1,2.8987654E1,6.2803687E2,1.1837257E3,1.0279554E2,3.0951921E1,4.4821277E2,4.7342438E1,2.204682E2,5.419663E1,4.8667793E1,1.7311177E2,1.305809E1,3.1066328E1,1.3700093E2,1.2607972E2,2.953693E1,1.13759544E2,1.8318056E2,8.858601E1,7.635773E2,4.0391776E2,1.2700163E1,9.407004E1,1.6883598E1,5.6794468E1,2.2353435E2,9.948849E1,3.485971E1,1.2435898E1,1.113457E2,1.7209348E2,8.6415695E1,3.1028864E1,2.8138659E1,6.2846497E1,4.6703526E1,3.3982616E1,1.2354946E2,3.152568E2,2.9649324E1,3.5350777E1,6.737315E1,1.0666862E3,3.4770077E1,3.4568826E2,6.081465E1,6.2293896E1,3.2520798E1,1.4267025E1,2.6571796E1,1.2639414E2,5.197306E2,1.8667563E2,8.101265E1,1.3927831E1,3.3577858E1,4.9542873E1,1.2160926E2,1.965585E2,3.791115E1,2.1876549E1],"tree_param":{"num_deleted":"0","num_feature":"13","num_nodes":"1531","size_leaf_vector":"1"}},{"base_weights":[-1.1301978E-3,5.0307363E-1,-7.9350674E-1,2.674888E-1,7.728241E-1,-5.9083694E-1,-1.1570406E0,3.9628845E-1,-3.3448684E-1,1.2135851E0,7.102491E-1,-9.614892E-1,-4.5910707E-1,-3.6827242E-1,-1.251829E0,9.127121E-2,6.205348E-1,1.173014E0,-7.2875065E-1,-6.10796E-1,1.301384E0,6.251561E-1,1.0796826E0,-2.3475774E-1,-1.0353208E0,-8.13828E-1,-2.987548E-1,1.3351119E-1,-6.8767387E-1,-1.2821938E0,-1.0556657E0,2.5469506E-1,-3.5170454E-1,4.9188682E-1,1.0484788E0,-5.078422E-1,1.3013922E0,-8.689523E-1,-7.7994496E-2,2.6838077E-2,-6.661361E-2,1.4275714E0,1.0043043E0,6.578373E-1,-3.155294E-1,7.7087104E-1,1.4490098E0,-0E0,-4.3333814E-1,-1.1272146E0,-7.7237195E-1,-5.0070536E-1,-1.0461823E0,-2.1606904E-1,-7.9061687E-1,-4.3420243E-1,4.12824E-1,-7.53653E-1,-3.5451898E-1,-1.2983189E0,-1.0121729E0,-1.2032506E0,-7.841219E-1,8.69357E-1,1.5000391E-1,3.9445865E-1,-4.6152517E-1,9.7868675E-1,4.0458268E-1,1.4296191E0,7.805598E-1,-4.1239844E-3,-6.091975E-2,6.8516815E-1,1.3258253E0,-5.651553E-2,-9.9185586E-1,-7.1123034E-1,4.9718574E-1,1.1815034E-1,1.4463985E-1,1.2636709E0,4.9998143E-1,6.928485E-1,5.5093683E-2,-5.767779E-1,4.2400712E-1,9.2977005E-1,4.742631E-1,1.7541795E0,1.1991154E0,-2.7700722E-2,2.9897626E-2,1.382169E-1,-5.6867022E-2,-1.0107021E0,-1.2807904E0,-9.4176954E-1,-0E0,2.64588E-1,-5.4907656E-1,-1.1470029E0,-8.235526E-1,-6.3039154E-1,-1.2256864E-1,-5.472812E-1,-8.533349E-1,-8.210561E-2,-2.5933948E-1,-3.7158944E-2,4.9030256E-1,-8.38268E-2,-6.2039775E-1,-8.708721E-2,-5.326964E-1,-1.1302908E-1,-1.3286746E0,-8.1420386E-1,-1.1356993E-1,-1.1984948E-1,-8.8698596E-1,-1.7373498E-1,-1.014311E-1,3.6112073E-1,9.798771E-1,3.2173E-1,-1.7764962E-1,-2.0795509E-1,6.903155E-1,-7.1824807E-1,-2.3090392E-1,1.1764654E0,7.511421E-1,5.846455E-1,6.583219E-2,4.3346596E-1,1.603622E0,1.0132267E0,4.7591293E-1,9.86574E-1,-0E0,6.7915154E-1,1.3429585E0,1.1448363E-1,-3.1270236E-1,-1.0819159E0,-6.975915E-1,2.1241902E-1,-8.6784434E-1,1.2696664E0,-2.999689E-1,8.782884E-2,1.3478485E-1,-0E0,5.674438E-1,5.604435E-1,8.078057E-1,-4.0893994E-2,4.83395E-1,-7.545896E-1,-1.0185947E-1,1.0264862E0,2.125191E-2,8.491278E-1,1.0633341E-1,5.5008274E-1,-3.0588084E-1,1.7546767E-1,1.4611465E0,1.4069688E0,8.856419E-1,-1.6780794E-2,9.723849E-2,-6.464143E-3,4.131273E-1,-1.0983001E0,-6.2438256E-1,-6.329857E-1,-1.3085567E0,-1.0178449E0,-1.4145772E-1,-1.3536903E-1,1.146532E-1,3.9583794E-3,6.5363206E-2,-3.7447843E-1,-7.429898E-1,-8.985982E-1,-1.2123168E0,-2.739855E-1,-8.832963E-1,-8.434795E-1,-5.216656E-1,5.692668E-1,-1.7006779E-1,-5.6726847E-2,-0E0,-8.924137E-1,-5.0821626E-1,-3.4452483E-1,2.0477768E-2,-8.270309E-3,5.555826E-1,-3.8400286E-1,-6.73994E-2,-0E0,-4.1984674E-2,-6.2760934E-2,-0E0,-1.2955886E-1,-1.1304941E-1,-8.871984E-1,-0E0,-9.3078405E-2,-0E0,3.0022267E-1,-3.5974315E-1,9.0483345E-2,1.5066648E-1,1.2914053E0,8.022479E-1,-6.0183506E-2,4.0061143E-1,-9.000338E-2,-5.060657E-1,5.0651395E-1,-5.6125E-1,9.543899E-1,3.9047605E-1,-7.8322166E-1,-0E0,-4.679628E-1,4.7220193E-2,7.703697E-1,1.2425989E0,1.708647E-1,8.0423385E-1,9.643226E-1,5.500263E-1,1.5906467E-1,-3.057E-1,1.063924E0,-0E0,1.7988063E-1,1.3843317E0,7.7697974E-1,1.2663362E0,1.1919913E0,1.8164062E-1,-0E0,1.1397445E-1,-0E0,8.3943725E-2,6.715309E-2,1.3183643E-1,1.754252E-1,-1.3280276E-2,2.5599007E-3,-3.7526527E-1,-8.05204E-2,-1.1587282E0,-8.788326E-1,2.8330302E-2,-0E0,4.1602936E-2,-9.045175E-2,-4.8976666E-3,1.5093003E-1,6.9958824E-1,-5.1348776E-1,5.182809E-3,4.3434188E-1,8.4508486E-2,4.0765035E-1,6.8800074E-1,1.009052E0,7.563559E-1,2.1625566E-1,-1.4674097E-1,2.84987E-1,7.254264E-2,-7.9585135E-1,1.6560199E-2,-5.54712E-1,6.006313E-1,-0E0,1.3432571E0,-7.020141E-2,5.529769E-2,8.061309E-1,1.1829653E-1,1.0429597E0,3.6694312E-1,-6.479305E-1,9.057631E-3,1.5149647E-1,8.046621E-1,1.4208282E0,-0E0,9.720818E-1,1.1507658E-1,2.603793E-2,-6.777357E-4,-0E0,6.606276E-2,-1.1804076E0,-8.321168E-1,1.1243443E-2,-6.5856767E-1,-7.9026705E-1,-0E0,-8.9278984E-1,-1.3493246E0,-1.0975702E0,-5.788927E-1,-4.3868837E-1,1.573581E-1,-0E0,-7.2478615E-2,-7.7922978E-3,2.950486E-2,-6.8437403E-1,-2.66673E-1,-6.424677E-1,-1.02798924E-1,-9.2046165E-1,-2.244341E-2,-0E0,-1.2190058E0,2.1007536E-2,-4.228779E-1,-9.537787E-2,-7.205517E-1,-9.4894856E-2,-6.722974E-1,3.767E-2,-5.501611E-1,8.79066E-2,4.1410258E-1,1.735789E-2,-4.1205755E-1,-7.5790113E-1,-9.182155E-2,-3.301071E-1,-7.318931E-2,-7.0558393E-1,-1.3118515E-2,3.6326548E-1,7.785101E-1,-4.9654692E-2,-0E0,-9.685784E-2,-5.459061E-1,-2.749044E-2,5.8298945E-1,-4.9019414E-1,-0E0,-1.9163595E-1,7.704342E-1,2.0690802E-2,1.2769435E-1,5.600115E-1,8.6316717E-1,4.2224827E-1,-2.4117471E-1,7.5719E-1,3.4609836E-1,2.1918817E-1,-1.805104E-1,-5.4645926E-1,-0E0,-0E0,8.025785E-2,-2.5515363E-1,-9.365047E-2,1.2857575E-3,1.01124756E-1,-0E0,5.034395E-2,-9.263634E-1,-5.955439E-1,1.0709407E-1,-5.468723E-1,1.2159962E-1,-5.281514E-1,1.2960945E-1,-6.936378E-1,5.894147E-1,1.2007301E-1,5.2703714E-1,1.2643073E0,5.540877E-2,-0E0,1.9795422E-1,8.22476E-1,-0E0,1.0164748E0,5.2015203E-1,9.200301E-1,1.9294886E-2,3.8423723E-1,-5.06823E-1,2.1121823E-3,1.3147096E-1,5.872886E-1,-3.9298835E-1,3.6493486E-1,1.0270231E0,1.6498792E0,1.1826639E-1,6.178803E-1,1.2900202E0,-0E0,1.385805E-1,8.739673E-2,-4.4542927E-2,4.8440737E-1,-3.237632E-2,2.1450384E-1,-4.0731755E-1,-0E0,-1.1877587E0,-3.9134184E-1,-9.218755E-1,-0E0,1.070572E-1,-4.734061E-1,1.1045503E-2,7.953392E-2,2.6954694E-3,-6.135977E-1,2.525056E-2,-9.964408E-3,5.704335E-1,9.790494E-2,4.9290064E-1,6.466726E-2,7.800879E-1,5.189235E-1,1.1275898E0,7.577616E-1,6.567685E-1,8.446197E-1,4.1096994E-1,-2.1073604E-3,2.5812978E-1,-2.1790698E-1,-0E0,3.800336E-1,-4.80565E-1,-9.37959E-1,-6.6926587E-1,1.0085113E-2,1.2861279E-1,-0E0,1.7792491E-2,1.5660077E-1,-2.1427196E-2,8.145034E-3,9.557291E-2,7.045788E-1,3.3289354E-2,1.0594202E-1,4.342934E-1,-0E0,-8.127592E-2,-0E0,-1.0071496E-2,3.9884977E-2,-0E0,1.00906745E-1,1.4084582E-1,8.9846104E-2,1.250319E0,6.780094E-1,-1.8670338E-1,6.340904E-2,-1.2479596E0,-7.9913664E-1,-0E0,-9.097483E-1,-5.7719964E-1,-1.0776812E-1,-4.504826E-3,-8.838322E-2,-1.0776085E-1,-4.2839628E-1,-1.3404118E-1,-1.0264237E0,-1.1384321E0,-6.6139966E-1,-0E0,-6.318916E-2,-0E0,-5.4959975E-2,4.065925E-2,-0E0,4.00565E-1,-8.284827E-2,-0E0,-6.8781845E-2,3.1422278E-1,-2.8862995E-1,-6.5891814E-1,-0E0,-6.075972E-1,-9.5111325E-2,-1.2448011E-1,-1.0687798E0,-5.815921E-2,-2.253504E-3,-0E0,-7.354983E-1,-5.948548E-1,-1.01973906E-1,-5.882005E-1,2.9355416E-2,2.6986262E-1,6.822207E-1,-1.2041852E-1,2.3107243E-1,-5.249319E-2,-4.8783183E-1,-7.5447805E-2,-0E0,-3.9227728E-2,-0E0,-0E0,-8.197043E-2,4.6267393E-1,-0E0,-0E0,7.9654485E-2,-6.776351E-2,-0E0,-0E0,7.979999E-2,-0E0,-5.680172E-2,2.2969101E-1,-5.7609034E-1,9.113779E-2,1.0343605E-2,6.764836E-3,6.915413E-2,8.508238E-2,6.559892E-3,5.785099E-1,1.5258998E-1,-4.939397E-1,1.0752015E-1,1.0225148E-1,6.225375E-1,8.99724E-3,3.93467E-1,4.1347384E-2,4.6715865E-1,-3.1737778E-1,7.2388566E-4,-2.6625064E-1,-6.1890656E-1,-7.0903885E-1,9.8239735E-2,-4.1424334E-1,-1.0376952E0,-8.437252E-1,-2.2021396E-1,-8.606158E-2,-1.0815327E-2,-1.1098859E-3,4.698206E-2,-5.4476887E-1,-0E0,4.1591898E-1,-0E0,-8.586636E-2,-0E0,8.5613415E-2,-0E0,-0E0,6.878978E-2,9.7888654E-1,1.2958834E-1,-1.4538401E-2,5.0445046E-2,6.0085006E-2,-2.225739E-2,8.3090526E-1,-0E0,8.771742E-2,-2.4257412E-2,1.4835408E-2,1.0403904E0,9.470477E-3,5.3621495E-1,9.611321E-1,1.2020677E-2,2.0863947E-1,-1.7402796E-1,5.6886204E-2,2.3962285E-1,-0E0,-5.341346E-1,7.1669675E-2,-5.886849E-2,-0E0,8.709565E-2,-5.658513E-1,-0E0,5.650878E-1,-0E0,1.0902399E0,-0E0,1.7809404E-1,1.4014767E0,-0E0,6.53714E-1,7.831492E-2,1.3434048E0,-2.7909067E-1,6.5518275E-2,7.243853E-1,2.2533773E-1,-0E0,2.5841314E-1,-5.2877888E-2,-1.7961839E-1,-1.2290826E-1,-1.0841699E0,-9.471224E-2,-1.6240487E-1,-9.453866E-1,-0E0,1.0657266E-2,-7.081783E-1,-0E0,-6.7885375E-1,6.2480956E-1,-0E0,-1.4851138E-1,3.068067E-1,5.725407E-1,3.3715868E-1,-1.8791531E-1,1.7771795E-1,1.1632035E0,7.0460033E-1,9.421755E-1,3.5443237E-1,3.3221807E-2,1.1106933E-1,9.76548E-1,4.935605E-1,9.667074E-2,6.2118196E-1,7.9186654E-1,1.1092311E0,-2.2301315E-3,5.180847E-2,-0E0,4.261326E-2,-2.882744E-1,3.535629E-1,5.166396E-2,6.870802E-3,-5.470157E-1,5.9830076E-3,-4.3070483E-1,-1.0057955E0,-7.222425E-2,-0E0,5.679257E-1,7.938031E-2,2.752642E-1,7.411502E-1,-1.6417826E-2,2.6451271E-2,1.3637991E-1,8.0428414E-2,1.0267893E0,3.9467767E-1,-4.313041E-2,1.27158435E-2,-6.27202E-1,-1.23171404E-1,-0E0,-8.640072E-1,-9.7117907E-1,-4.4025397E-1,-3.9148083E-1,-6.9338864E-1,6.2897876E-3,-5.6117296E-2,6.9434945E-3,-1.114228E-1,-1.1931692E-1,-9.591325E-1,-0E0,-7.3442556E-2,-7.0686704E-3,6.768515E-2,9.7329676E-2,-3.750031E-2,5.9569743E-2,-0E0,-4.2287263E-1,-1.9018906E-1,-3.5451557E-2,-7.1177053E-1,-0E0,-6.7874104E-2,-2.7316976E-1,-1.0822314E-1,-8.1057034E-2,-4.9048238E-2,-8.2829386E-1,-4.2519367E-1,-4.4598746E-1,-7.3138034E-1,6.1419296E-1,-7.726987E-2,6.1757336E-3,3.800968E-1,4.600708E-3,7.4188046E-2,-6.082123E-2,-4.984874E-1,8.7368935E-2,6.3494855E-1,-1.7749013E-1,7.031808E-2,-5.7988316E-1,-3.3681664E-1,1.7283371E-1,6.351117E-1,-2.1944225E-2,5.981949E-2,-0E0,-7.0841916E-2,-0E0,6.0503963E-2,-1.7709766E-2,2.5134217E-2,-6.785415E-1,6.319628E-1,-1.0376768E-2,2.9048806E-1,-0E0,6.925187E-1,-2.0360412E-1,1.6746002E-1,4.0672123E-1,-2.71847E-1,2.5737906E-2,-1.6351561E-1,-0E0,5.119209E-2,7.024796E-2,-4.4615337E-1,-3.4714106E-1,1.4765403E-1,-3.524234E-1,-0E0,-6.546842E-2,-2.9319352E-1,-0E0,-1.1418741E-1,-2.257496E-2,5.8323305E-2,-7.664738E-2,-1.1313657E-1,-5.926351E-1,-1.0941392E0,-4.293832E-1,-1.0036768E0,-0E0,-5.751156E-2,-0E0,-5.6719565E-1,6.556205E-2,-3.075574E-4,-1.0897565E-1,1.4390497E-1,-8.650607E-3,5.4541126E-2,-0E0,9.819688E-2,8.799386E-2,6.600466E-2,1.1694889E0,7.9700243E-1,3.218186E-1,5.674989E-1,3.2213775E-3,9.9573934E-1,3.3990124E-1,7.902892E-2,-2.0572282E-1,4.7543523E-1,-3.0825385E-1,2.7822074E-1,-1.836104E-2,-5.9123707E-1,2.0559134E-1,-1.784581E-1,-7.051606E-2,-0E0,-0E0,6.728966E-2,6.556046E-2,-2.358395E-2,1.2689081E-1,7.6673746E-1,1.4916077E-1,8.256094E-2,4.272133E-2,-1.1967996E-2,6.716002E-1,-0E0,1.4403923E-1,1.1244419E-1,1.5592813E-2,-3.986219E-1,2.5480226E-1,-1.0918259E-1,-0E0,7.8584313E-1,2.5352563E-3,4.7875077E-2,5.6799966E-1,1.384812E-1,-3.1607125E-2,-0E0,-1.1000584E0,-0E0,-0E0,-4.816605E-2,-1.0041862E0,-5.735558E-1,-1.3370955E-2,-8.26673E-2,-7.4131393E-1,-0E0,3.0380374E-2,7.51456E-2,-0E0,-4.830343E-2,4.8608464E-1,-0E0,9.4716355E-2,5.326024E-1,7.266207E-1,1.8237372E-1,4.5144695E-1,-3.237817E-1,5.9777386E-2,3.9501154E-1,1.1772982E0,-0E0,6.4148384E-1,9.9712795E-1,1.0580249E-1,6.7379445E-1,2.2622177E-1,5.845203E-1,3.6057573E-2,1.0370203E-1,9.489542E-1,3.8040492E-1,1.5701461E-1,6.963269E-1,7.5783795E-1,1.172896E0,1.7397007E0,9.446875E-1,-5.7355664E-4,-3.3978796E-1,-3.6329065E-2,7.299492E-1,-1.8453142E-1,-7.1383074E-2,-0E0,-6.298698E-2,-1.0128332E-1,-0E0,6.0821086E-2,1.7243985E-2,4.4770426E-1,5.1632088E-2,2.1041593E-2,