{"learner":{"attributes":{"scikit_learn":"{\"_estimator_type\": \"classifier\"}"},"feature_names":["drive","qtr","quarter_seconds_remaining","down","ydstogo","yardline_100","shotgun","no_huddle","score_differential","spread_line","season","poscoach","posteam"],"feature_types":[],"gradient_booster":{"model":{"gbtree_model_param":{"num_parallel_tree":"1","num_trees":"100"},"iteration_indptr":[0,1,2,3,4,5,6,7,8,9,10,11,12,13,14,15,16,17,18,19,20,21,22,23,24,25,26,27,28,29,30,31,32,33,34,35,36,37,38,39,40,41,42,43,44,45,46,47,48,49,50,51,52,53,54,55,56,57,58,59,60,61,62,63,64,65,66,67,68,69,70,71,72,73,74,75,76,77,78,79,80,81,82,83,84,85,86,87,88,89,90,91,92,93,94,95,96,97,98,99,100],"tree_info":[0,0,0,0,0,0,0,0,0,0,0,0,0,0,0,0,0,0,0,0,0,0,0,0,0,0,0,0,0,0,0,0,0,0,0,0,0,0,0,0,0,0,0,0,0,0,0,0,0,0,0,0,0,0,0,0,0,0,0,0,0,0,0,0,0,0,0,0,0,0,0,0,0,0,0,0,0,0,0,0,0,0,0,0,0,0,0,0,0,0,0,0,0,0,0,0,0,0,0,0],"trees":[{"base_weights":[-2.360754E-3,5.4300386E-1,-8.7961894E-1,2.9807082E-1,8.43156E-1,-6.613549E-1,-1.2573248E0,4.4163647E-1,-3.6491564E-1,1.4841145E0,7.8285056E-1,-1.0529263E0,-5.182007E-1,-4.5440078E-1,-1.3482233E0,1.03124976E-1,6.9334126E-1,1.3312855E0,-7.892622E-1,1.6266788E0,-6.644699E-1,6.857546E-1,1.2109147E0,-3.1405985E-1,-1.1261697E0,-8.982584E-1,-3.4121794E-1,9.8016836E-2,-7.8611064E-1,-1.3878355E0,-1.2052181E0,2.8411645E-1,-3.8252342E-1,5.4381496E-1,1.1979685E0,1.4786452E0,-5.035677E-1,4.6880115E-2,-9.122747E-1,1.4044693E0,1.6988714E0,5.3002983E-1,-7.411627E-1,7.2772586E-1,-1.6037202E-1,8.5950744E-1,1.6439728E0,-4.8505608E-2,-5.4992074E-1,-1.2157656E0,-8.6662006E-1,-5.702811E-1,-1.1348937E0,-2.4828357E-1,-8.7389576E-1,-6.0238844E-1,3.9425933E-1,-8.307071E-1,-3.2197905E-1,-1.4033607E0,-1.1347945E0,-1.3078511E0,-9.6785915E-1,3.349678E-1,5.6289166E-2,1.2567793E-1,-1.4958611E-1,3.3161294E-1,1.337272E-1,5.0074476E-1,2.7653182E-1,2.3279469E-1,4.5328343E-1,2.9746196E-1,-1.7205593E-1,7.611365E-2,-5.701857E-2,-3.200614E-1,-5.6050427E-2,1.8259205E-1,4.333258E-1,4.869947E-1,5.2594596E-1,3.3344266E-1,-1.4192352E-2,-2.4387713E-1,-6.303904E-3,2.3082401E-1,3.8497234E-3,-1.2708327E-1,1.5702999E-1,3.1318542E-1,1.6661648E-1,5.982545E-1,4.0399554E-1,-1.6821134E-1,1.0440221E-2,4.3481514E-2,-2.1354859E-1,-3.2862693E-1,-4.1234377E-1,-3.088924E-1,-2.0556659E-2,9.2679374E-2,-1.8672603E-1,-3.8090107E-1,-2.8332573E-1,-2.0642872E-1,-4.0309355E-2,-1.8707457E-1,-2.8148773E-1,-2.8318378E-1,-1.2977318E-1,-2.16464E-1,1.4137489E-1,-4.044942E-1,-2.3861791E-1,1.6544172E-1,-1.2700053E-1,-3.8231933E-1,-4.3000892E-1,-2.7879176E-1,-3.9114144E-1,-4.0254158E-1,-2.8016222E-1,-1.0063516E-1,-3.497891E-1],"categories":[],"categories_nodes":[],"categories_segments":[],"categories_sizes":[],"default_left":[0,0,1,0,0,0,0,0,0,0,0,0,0,0,0,0,0,0,0,0,0,0,0,0,0,0,0,0,0,0,0,0,0,0,0,0,0,0,0,0,0,0,0,0,0,0,0,0,0,0,0,0,0,0,0,0,0,0,0,0,0,0,0,0,0,0,0,0,0,0,0,0,0,0,0,0,0,0,0,0,0,0,0,0,0,0,0,0,0,0,0,0,0,0,0,0,0,0,0,0,0,0,0,0,0,0,0,0,0,0,0,0,0,0,0,0,0,0,0,0,0,0,0,0,0,0,0],"id":0,"left_children":[1,3,5,7,9,11,13,15,17,19,21,23,25,27,29,31,33,35,37,39,41,43,45,47,49,51,53,55,57,59,61,63,65,67,69,71,73,75,77,79,81,83,85,87,89,91,93,95,97,99,101,103,105,107,109,111,113,115,117,119,121,123,125,-1,-1,-1,-1,-1,-1,-1,-1,-1,-1,-1,-1,-1,-1,-1,-1,-1,-1,-1,-1,-1,-1,-1,-1,-1,-1,-1,-1,-1,-1,-1,-1,-1,-1,-1,-1,-1,-1,-1,-1,-1,-1,-1,-1,-1,-1,-1,-1,-1,-1,-1,-1,-1,-1,-1,-1,-1,-1,-1,-1,-1,-1,-1,-1],"loss_changes":[8.565747E4,8.1164062E3,5.6574414E3,5.7868726E3,1.916418E3,2.4379023E3,1.8338867E3,4.258045E3,7.7906436E3,1.3075234E3,1.8838809E3,6.29834E2,2.1425146E3,4.6875458E2,1.2623047E2,1.8735365E3,2.1620713E3,5.8640234E2,8.904873E2,6.178125E1,2.4770203E1,1.3128262E3,1.2742451E3,6.5840866E1,2.4531152E2,7.848535E2,1.075855E3,1.9952989E2,3.281311E1,6.784375E1,1.1822998E2,1.2469498E3,5.3866833E2,1.217145E3,8.509707E2,4.433838E1,1.7487587E1,5.4507244E1,8.461958E2,3.0489258E1,9.517578E0,5.6375513E0,1.2926483E1,1.0495391E3,3.1482047E2,2.5910986E2,3.881914E2,2.1173843E1,6.275119E1,1.488711E2,3.5409717E2,1.947345E2,1.4970117E2,9.2728406E2,5.1458252E1,1.6173439E1,5.8378357E1,2.5568237E1,1.2781221E1,6.2585938E1,3.4454224E1,4.2194824E1,1.8560217E2,0E0,0E0,0E0,0E0,0E0,0E0,0E0,0E0,0E0,0E0,0E0,0E0,0E0,0E0,0E0,0E0,0E0,0E0,0E0,0E0,0E0,0E0,0E0,0E0,0E0,0E0,0E0,0E0,0E0,0E0,0E0,0E0,0E0,0E0,0E0,0E0,0E0,0E0,0E0,0E0,0E0,0E0,0E0,0E0,0E0,0E0,0E0,0E0,0E0,0E0,0E0,0E0,0E0,0E0,0E0,0E0,0E0,0E0,0E0,0E0,0E0,0E0,0E0,0E0],"parents":[2147483647,0,0,1,1,2,2,3,3,4,4,5,5,6,6,7,7,8,8,9,9,10,10,11,11,12,12,13,13,14,14,15,15,16,16,17,17,18,18,19,19,20,20,21,21,22,22,23,23,24,24,25,25,26,26,27,27,28,28,29,29,30,30,31,31,32,32,33,33,34,34,35,35,36,36,37,37,38,38,39,39,40,40,41,41,42,42,43,43,44,44,45,45,46,46,47,47,48,48,49,49,50,50,51,51,52,52,53,53,54,54,55,55,56,56,57,57,58,58,59,59,60,60,61,61,62,62],"right_children":[2,4,6,8,10,12,14,16,18,20,22,24,26,28,30,32,34,36,38,40,42,44,46,48,50,52,54,56,58,60,62,64,66,68,70,72,74,76,78,80,82,84,86,88,90,92,94,96,98,100,102,104,106,108,110,112,114,116,118,120,122,124,126,-1,-1,-1,-1,-1,-1,-1,-1,-1,-1,-1,-1,-1,-1,-1,-1,-1,-1,-1,-1,-1,-1,-1,-1,-1,-1,-1,-1,-1,-1,-1,-1,-1,-1,-1,-1,-1,-1,-1,-1,-1,-1,-1,-1,-1,-1,-1,-1,-1,-1,-1,-1,-1,-1,-1,-1,-1,-1,-1,-1,-1,-1,-1,-1],"split_conditions":[1E0,2.008E3,3E0,3E0,2E0,1.27E2,3E0,0E0,2E0,8.00001E0,8E0,2E0,-7E0,2E0,5E0,4E0,4E0,8.00001E0,3E0,2E0,2E0,3E0,4E0,2E0,1E0,4E0,1.1E1,2.013E3,2.02E3,1.8E1,4E0,5E0,5E0,6E0,3.6E2,4.2E1,2E0,4.7E1,8E0,3.1E1,0E0,8.8E1,1.25E2,1.1E1,2.013E3,2E0,3.75E2,2.011E3,6E0,4E0,3E0,4E0,4.68E2,2.012E3,2E0,2.008E3,3.1E1,3E0,4E0,5E0,3E0,1.6E1,2.94E2,3.349678E-1,5.6289166E-2,1.2567793E-1,-1.4958611E-1,3.3161294E-1,1.337272E-1,5.0074476E-1,2.7653182E-1,2.3279469E-1,4.5328343E-1,2.9746196E-1,-1.7205593E-1,7.611365E-2,-5.701857E-2,-3.200614E-1,-5.6050427E-2,1.8259205E-1,4.333258E-1,4.869947E-1,5.2594596E-1,3.3344266E-1,-1.4192352E-2,-2.4387713E-1,-6.303904E-3,2.3082401E-1,3.8497234E-3,-1.2708327E-1,1.5702999E-1,3.1318542E-1,1.6661648E-1,5.982545E-1,4.0399554E-1,-1.6821134E-1,1.0440221E-2,4.3481514E-2,-2.1354859E-1,-3.2862693E-1,-4.1234377E-1,-3.088924E-1,-2.0556659E-2,9.2679374E-2,-1.8672603E-1,-3.8090107E-1,-2.8332573E-1,-2.0642872E-1,-4.0309355E-2,-1.8707457E-1,-2.8148773E-1,-2.8318378E-1,-1.2977318E-1,-2.16464E-1,1.4137489E-1,-4.044942E-1,-2.3861791E-1,1.6544172E-1,-1.2700053E-1,-3.8231933E-1,-4.3000892E-1,-2.7879176E-1,-3.9114144E-1,-4.0254158E-1,-2.8016222E-1,-1.0063516E-1,-3.497891E-1],"split_indices":[6,10,3,3,4,2,4,8,4,3,8,1,8,4,8,1,1,3,4,5,5,3,1,3,8,1,4,10,10,4,1,4,4,4,2,2,5,5,8,2,8,11,11,4,10,3,2,10,4,1,1,4,2,10,3,10,2,12,12,4,1,4,2,0,0,0,0,0,0,0,0,0,0,0,0,0,0,0,0,0,0,0,0,0,0,0,0,0,0,0,0,0,0,0,0,0,0,0,0,0,0,0,0,0,0,0,0,0,0,0,0,0,0,0,0,0,0,0,0,0,0,0,0,0,0,0,0],"split_type":[0,0,0,0,0,0,0,0,0,0,0,0,0,0,0,0,0,0,0,0,0,0,0,0,0,0,0,0,0,0,0,0,0,0,0,0,0,0,0,0,0,0,0,0,0,0,0,0,0,0,0,0,0,0,0,0,0,0,0,0,0,0,0,0,0,0,0,0,0,0,0,0,0,0,0,0,0,0,0,0,0,0,0,0,0,0,0,0,0,0,0,0,0,0,0,0,0,0,0,0,0,0,0,0,0,0,0,0,0,0,0,0,0,0,0,0,0,0,0,0,0,0,0,0,0,0,0],"sum_hessian":[1.7903831E5,1.1040394E5,6.8634375E4,6.0795223E4,4.960872E4,4.3499926E4,2.5134451E4,4.9973992E4,1.0821228E4,4.264085E3,4.5344633E4,1.1643895E4,3.185603E4,2.556692E3,2.257776E4,2.1312607E4,2.8661387E4,2.1650273E3,8.6562E3,3.9989849E3,2.651004E2,3.6963062E4,8.381571E3,1.0506284E3,1.0593266E4,1.0119994E4,2.1736035E4,9.594925E2,1.5971995E3,1.7673523E4,4.9042354E3,1.5526577E4,5.7860303E3,2.2111574E4,6.5498125E3,2.0042568E3,1.6077057E2,1.1102455E3,7.545955E3,9.85636E2,3.0133489E3,1.56372595E1,2.4946315E2,3.521633E4,1.7467307E3,4.628629E3,3.7529424E3,4.9477267E2,5.558557E2,7.8721387E3,2.7211274E3,4.242828E3,5.877166E3,1.8508406E4,3.2276282E3,2.8489133E2,6.7460114E2,1.4564641E3,1.4073534E2,1.6647572E4,1.0259508E3,3.4206504E3,1.483585E3,1.6116151E3,1.3914962E4,7.317749E2,5.0542554E3,3.285535E3,1.882604E4,2.4186443E3,4.1311685E3,8.9181244E1,1.9150756E3,6.5969687E0,1.541736E2,5.927499E2,5.1749554E2,6.2199644E3,1.3259907E3,4.7889107E1,9.377469E2,1.2727263E3,1.7406224E3,7.3299656E0,8.307294E0,2.2674026E2,2.2722893E1,3.3275844E4,1.9404862E3,1.261487E3,4.852437E2,2.879699E3,1.7489297E3,1.7205872E3,2.0323551E3,6.841301E1,4.2635965E2,1.05062836E2,4.5079288E2,4.481785E3,3.3903533E3,2.2593396E3,4.617878E2,2.3724655E2,4.0055818E3,3.4384868E3,2.4386794E3,3.8066953E3,1.4701712E4,6.6262885E2,2.5649993E3,9.309056E1,1.9180077E2,4.3002464E1,6.315987E2,9.064724E1,1.3658169E3,1.4171267E1,1.2656407E2,3.1501748E3,1.3497398E4,4.6594147E2,5.6000934E2,3.1335603E3,2.870903E2,3.54526E2,1.129059E3],"tree_param":{"num_deleted":"0","num_feature":"13","num_nodes":"127","size_leaf_vector":"1"}},{"base_weights":[-7.4880263E-3,3.7348607E-1,-6.648856E-1,2.5850868E-1,6.894561E-1,-4.8956573E-1,-9.8374325E-1,4.6186575E-1,6.345437E-2,5.1535493E-1,7.98959E-1,-6.59861E-1,-2.66651E-1,-3.330658E-1,-1.0626628E0,-1.0584579E-2,5.6780607E-1,8.1483644E-1,-1.0582892E-1,8.430045E-1,4.1226673E-1,6.813297E-1,1.1243205E0,-4.6783376E-1,-9.061193E-1,-7.0271546E-1,-1.7593661E-1,6.61382E-2,-5.8457965E-1,-1.090465E0,-8.8602793E-1,1.8783568E-1,-4.2317623E-1,9.090345E-1,4.8605964E-1,9.8620296E-1,5.172002E-1,6.728595E-2,-6.5003526E-1,9.073617E-1,-5.701639E-1,5.3288543E-1,6.6687874E-2,1.0179359E0,6.2225395E-1,1.4559236E0,9.0787095E-1,-7.7707064E-1,-3.2955572E-1,-1.057072E0,-7.0088303E-1,-7.956948E-1,-1.6493055E-1,3.8900938E-2,-3.6906633E-1,-3.5768008E-1,3.1305853E-1,-5.422968E-1,-9.5966077E-1,-1.1004643E0,-6.9173545E-1,-1.0082811E0,-6.6652465E-1,-3.1878322E-2,9.0634815E-2,1.9130112E-1,-1.4828463E-1,9.455043E-2,2.9475626E-1,1.1894961E-1,2.584066E-1,3.1460324E-1,-1.1970344E-1,2.8158003E-1,3.175467E-2,1.419768E-1,-3.5041325E-2,-2.6690122E-1,-8.230315E-2,3.3102283E-1,2.2897945E-1,1.8178116E-1,-1.9174452E-1,2.4205983E-1,1.4301172E-1,-2.6601149E-2,7.770833E-2,2.1538399E-1,3.3718506E-1,2.187484E-1,1.1736318E-1,4.463905E-1,1.5359221E-1,3.2626486E-1,2.0047396E-1,-7.097467E-2,-2.5464684E-1,-7.5991176E-2,-2.3919682E-1,-2.0396276E-1,-3.3234927E-1,-1.2685119E-2,-2.2441097E-1,-7.851471E-2,-2.619588E-1,-2.6240734E-2,-2.5619787E-1,-1.02752544E-1,4.7432333E-2,1.2196622E-1,-1.4726855E-1,-1.4854904E-1,2.4264427E-3,4.5190036E-2,1.8971857E-1,-1.2883426E-1,-2.2072673E-1,-2.9319093E-1,6.1642993E-2,-2.778795E-1,-3.3511746E-1,-2.4552023E-1,-4.3097343E-2,-3.1453562E-1,-2.050963E-1,-4.034509E-2,-2.709291E-1],"categories":[],"categories_nodes":[],"categories_segments":[],"categories_sizes":[],"default_left":[0,0,1,0,0,0,0,0,0,0,0,0,0,0,0,0,0,0,0,0,0,0,0,0,0,0,0,0,0,0,0,0,0,0,0,0,0,0,0,0,0,0,0,0,0,0,0,0,0,0,0,0,0,0,0,0,0,0,0,0,0,0,0,0,0,0,0,0,0,0,0,0,0,0,0,0,0,0,0,0,0,0,0,0,0,0,0,0,0,0,0,0,0,0,0,0,0,0,0,0,0,0,0,0,0,0,0,0,0,0,0,0,0,0,0,0,0,0,0,0,0,0,0,0,0,0,0],"id":1,"left_children":[1,3,5,7,9,11,13,15,17,19,21,23,25,27,29,31,33,35,37,39,41,43,45,47,49,51,53,55,57,59,61,63,65,67,69,71,73,75,77,79,81,83,85,87,89,91,93,95,97,99,101,103,105,107,109,111,113,115,117,119,121,123,125,-1,-1,-1,-1,-1,-1,-1,-1,-1,-1,-1,-1,-1,-1,-1,-1,-1,-1,-1,-1,-1,-1,-1,-1,-1,-1,-1,-1,-1,-1,-1,-1,-1,-1,-1,-1,-1,-1,-1,-1,-1,-1,-1,-1,-1,-1,-1,-1,-1,-1,-1,-1,-1,-1,-1,-1,-1,-1,-1,-1,-1,-1,-1,-1],"loss_changes":[4.4069695E4,4.0469805E3,3.6085215E3,3.2399082E3,5.662158E2,1.5812012E3,1.1757285E3,2.0015352E3,5.303268E3,3.873645E2,6.974658E2,1.1163086E3,7.136146E2,2.4892557E2,9.933789E1,5.997999E2,9.1071387E2,3.905039E2,3.2057954E3,2.5027942E2,3.6400244E2,2.6586963E2,3.4627393E2,5.672119E2,3.1977637E2,1.5521777E2,6.197873E2,1.0047134E2,2.3598877E1,6.9583984E1,7.4009766E1,1.6631046E2,1.7978558E2,2.7514502E2,8.854629E2,4.213501E2,4.858199E2,1.9294547E3,7.3908813E2,7.336987E1,1.0142052E1,9.92594E1,6.7577286E1,6.2779297E1,2.8138818E2,5.704297E1,1.2554785E2,1.5879492E2,3.2694476E2,1.1334082E2,1.3622119E2,1.09380005E2,2.4436893E1,3.2160168E2,7.434972E2,1.7780857E1,3.1362793E1,2.9572601E1,3.3411713E0,4.871289E1,3.0033981E1,2.2567383E1,1.2555438E2,0E0,0E0,0E0,0E0,0E0,0E0,0E0,0E0,0E0,0E0,0E0,0E0,0E0,0E0,0E0,0E0,0E0,0E0,0E0,0E0,0E0,0E0,0E0,0E0,0E0,0E0,0E0,0E0,0E0,0E0,0E0,0E0,0E0,0E0,0E0,0E0,0E0,0E0,0E0,0E0,0E0,0E0,0E0,0E0,0E0,0E0,0E0,0E0,0E0,0E0,0E0,0E0,0E0,0E0,0E0,0E0,0E0,0E0,0E0,0E0,0E0,0E0,0E0,0E0],"parents":[2147483647,0,0,1,1,2,2,3,3,4,4,5,5,6,6,7,7,8,8,9,9,10,10,11,11,12,12,13,13,14,14,15,15,16,16,17,17,18,18,19,19,20,20,21,21,22,22,23,23,24,24,25,25,26,26,27,27,28,28,29,29,30,30,31,31,32,32,33,33,34,34,35,35,36,36,37,37,38,38,39,39,40,40,41,41,42,42,43,43,44,44,45,45,46,46,47,47,48,48,49,49,50,50,51,51,52,52,53,53,54,54,55,55,56,56,57,57,58,58,59,59,60,60,61,61,62,62],"right_children":[2,4,6,8,10,12,14,16,18,20,22,24,26,28,30,32,34,36,38,40,42,44,46,48,50,52,54,56,58,60,62,64,66,68,70,72,74,76,78,80,82,84,86,88,90,92,94,96,98,100,102,104,106,108,110,112,114,116,118,120,122,124,126,-1,-1,-1,-1,-1,-1,-1,-1,-1,-1,-1,-1,-1,-1,-1,-1,-1,-1,-1,-1,-1,-1,-1,-1,-1,-1,-1,-1,-1,-1,-1,-1,-1,-1,-1,-1,-1,-1,-1,-1,-1,-1,-1,-1,-1,-1,-1,-1,-1,-1,-1,-1,-1,-1,-1,-1,-1,-1,-1,-1,-1,-1,-1,-1],"split_conditions":[1E0,2.012E3,3E0,2E0,0E0,0E0,3E0,-7E0,3E0,6E0,4E0,4E0,9.9E1,2E0,8E0,4E0,2.9E1,2E0,3E0,8.00001E0,2E0,4E0,3.12E2,1.27E2,3.45E2,7.5E1,2E0,2.014E3,4E0,2.1E1,4E0,2.09E2,7E0,9.3E1,8E0,8.00001E0,3E0,7E0,1E0,2E0,2E0,3.2E1,1E1,4E0,2E0,4E0,2E0,2E0,1.1E1,-2.1E1,4E0,2E0,1E0,2.013E3,5E0,2.4E1,2.019E3,6.1E1,9E2,4E0,8.6E1,1.5E1,3.68E2,-3.1878322E-2,9.0634815E-2,1.9130112E-1,-1.4828463E-1,9.455043E-2,2.9475626E-1,1.1894961E-1,2.584066E-1,3.1460324E-1,-1.1970344E-1,2.8158003E-1,3.175467E-2,1.419768E-1,-3.5041325E-2,-2.6690122E-1,-8.230315E-2,3.3102283E-1,2.2897945E-1,1.8178116E-1,-1.9174452E-1,2.4205983E-1,1.4301172E-1,-2.6601149E-2,7.770833E-2,2.1538399E-1,3.3718506E-1,2.187484E-1,1.1736318E-1,4.463905E-1,1.5359221E-1,3.2626486E-1,2.0047396E-1,-7.097467E-2,-2.5464684E-1,-7.5991176E-2,-2.3919682E-1,-2.0396276E-1,-3.3234927E-1,-1.2685119E-2,-2.2441097E-1,-7.851471E-2,-2.619588E-1,-2.6240734E-2,-2.5619787E-1,-1.02752544E-1,4.7432333E-2,1.2196622E-1,-1.4726855E-1,-1.4854904E-1,2.4264427E-3,4.5190036E-2,1.8971857E-1,-1.2883426E-1,-2.2072673E-1,-2.9319093E-1,6.1642993E-2,-2.778795E-1,-3.3511746E-1,-2.4552023E-1,-4.3097343E-2,-3.1453562E-1,-2.050963E-1,-4.034509E-2,-2.709291E-1],"split_indices":[6,10,3,3,8,8,4,8,4,4,1,1,2,4,8,1,5,4,3,3,3,4,2,2,2,5,3,10,3,4,1,2,5,2,8,3,3,4,8,4,5,5,4,5,3,3,3,1,4,8,4,1,7,10,4,12,10,5,2,4,5,4,2,0,0,0,0,0,0,0,0,0,0,0,0,0,0,0,0,0,0,0,0,0,0,0,0,0,0,0,0,0,0,0,0,0,0,0,0,0,0,0,0,0,0,0,0,0,0,0,0,0,0,0,0,0,0,0,0,0,0,0,0,0,0,0,0],"split_type":[0,0,0,0,0,0,0,0,0,0,0,0,0,0,0,0,0,0,0,0,0,0,0,0,0,0,0,0,0,0,0,0,0,0,0,0,0,0,0,0,0,0,0,0,0,0,0,0,0,0,0,0,0,0,0,0,0,0,0,0,0,0,0,0,0,0,0,0,0,0,0,0,0,0,0,0,0,0,0,0,0,0,0,0,0,0,0,0,0,0,0,0,0,0,0,0,0,0,0,0,0,0,0,0,0,0,0,0,0,0,0,0,0,0,0,0,0,0,0,0,0,0,0,0,0,0,0],"sum_hessian":[1.7595906E5,1.1140071E5,6.4558348E4,8.168018E4,2.9720533E4,4.1656555E4,2.2901793E4,3.998833E4,4.169185E4,1.1477652E4,1.824288E4,2.361441E4,1.8042143E4,2.4778215E3,2.0423973E4,7.324587E3,3.2663738E4,7.665204E3,3.402665E4,2.7452217E3,8.732431E3,1.3401042E4,4.8418384E3,1.3269792E4,1.0344618E4,3.1058E3,1.4936343E4,9.5800616E2,1.5198153E3,1.7641965E4,2.7820076E3,4.9463657E3,2.3782217E3,6.3108184E3,2.6352922E4,4.8629863E3,2.8022178E3,2.5815482E4,8.211163E3,2.6259893E3,1.19232285E2,6.472698E3,2.2597324E3,1.9983682E3,1.1402674E4,1.9099885E3,2.93185E3,4.0988174E3,9.170975E3,5.958182E3,4.386436E3,2.647573E3,4.5822696E2,7.07117E3,7.865173E3,3.5250757E2,6.0549866E2,1.3680421E3,1.5177315E2,1.7208645E4,4.3332028E2,1.7845194E3,9.9748816E2,1.3842118E3,3.5621538E3,1.488922E2,2.2293293E3,6.9550555E2,5.6153125E3,2.1277332E4,5.0755894E3,4.653359E3,2.096278E2,1.3835688E3,1.4186489E3,8.0535693E3,1.7761914E4,5.012539E3,3.1986245E3,1.1096384E3,1.516351E3,6.1748524E0,1.13057434E2,1.0991129E3,5.3735854E3,1.250338E3,1.0093944E3,5.2383655E2,1.4745316E3,7.7940767E3,3.608597E3,1.8467205E3,6.3268036E1,1.6734797E3,1.2583704E3,4.8086838E2,3.617949E3,7.88686E3,1.2841146E3,7.083936E2,5.2497886E3,2.9319785E2,4.0932383E3,3.3611752E2,2.3114556E3,4.1293365E2,4.5293304E1,1.6833423E3,5.3878276E3,1.0673807E3,6.797792E3,2.5594887E2,9.655869E1,4.0233145E2,2.0316718E2,8.6606506E2,5.019771E2,1.4966812E2,2.1050267E0,1.5016184E3,1.5707025E4,3.5157516E2,8.174513E1,1.586027E3,1.9849246E2,3.075007E2,6.899875E2],"tree_param":{"num_deleted":"0","num_feature":"13","num_nodes":"127","size_leaf_vector":"1"}},{"base_weights":[-9.207183E-3,2.6419082E-1,-5.1142496E-1,7.691871E-2,3.9442888E-1,-3.656854E-1,-7.96158E-1,-3.1241849E-2,3.350694E-1,2.8269568E-1,7.39283E-1,-6.067756E-1,-2.4610643E-1,-2.4511865E-1,-8.69704E-1,7.364615E-2,-3.1944358E-1,6.1756575E-1,2.6735494E-1,3.2429764E-1,-2.5171405E-1,1.1619735E0,5.100824E-1,-7.3699296E-1,-4.830858E-1,3.2232776E-1,-2.8480545E-1,4.573392E-2,-4.3727508E-1,-9.109045E-1,-7.5059754E-1,7.3771644E-1,3.1099994E-2,-6.0408336E-1,-1.1935561E-1,6.676317E-1,-4.0291837E-1,3.5979465E-1,4.5512736E-2,3.7565118E-1,-7.923217E-2,-4.4118318E-1,1.3170886E-1,2.311659E-1,1.2916604E0,7.4369687E-1,2.745581E-1,-4.2137027E-1,-7.836913E-1,-7.1929526E-1,-3.817815E-1,-3.1366193E-1,4.8047152E-1,-4.2308012E-1,-1.3325687E-1,-4.7852397E-1,1.6356201E-1,-4.7496316E-1,-6.413088E-2,-9.2564106E-1,-6.847131E-1,-8.2956713E-1,-5.665484E-1,6.914608E-2,2.3104846E-1,3.3396393E-2,-1.854261E-1,1.1275884E-2,-2.0328613E-1,1.582577E-1,-6.144305E-2,1.262943E-1,2.2469948E-1,1.5442188E-1,-1.3764693E-1,1.874851E-1,9.842802E-2,-4.8640445E-2,4.286074E-2,2.1868633E-1,9.804868E-2,1.7659758E-1,-2.161462E-1,-2.8871937E-2,-1.6057011E-1,-1.1356109E-2,1.7735605E-1,3.2098275E-1,-8.792288E-2,4.7158265E-1,3.2888395E-1,1.760759E-1,3.1341094E-1,1.995452E-1,6.4288056E-3,-1.8646072E-1,-9.954313E-2,-2.5969014E-1,-2.0457049E-1,-2.360949E-1,-1.4304417E-1,-1.8164322E-1,-8.9432254E-2,2.0487158E-1,-1.2773764E-1,2.6829036E-2,1.9763398E-1,-8.345759E-2,-2.0046346E-1,8.32747E-3,-9.398341E-2,2.769579E-1,-1.629444E-1,-1.8064034E-1,6.851915E-2,-1.6298296E-1,-7.827464E-2,2.4302363E-2,-1.8253039E-1,-2.3919542E-1,-2.8697813E-1,-2.4223688E-1,-1.1371401E-1,-2.5979033E-1,-1.647987E-1,5.5179514E-2,-1.9862197E-1],"categories":[],"categories_nodes":[],"categories_segments":[],"categories_sizes":[],"default_left":[0,0,1,0,0,0,0,0,0,0,0,0,0,0,0,0,0,0,0,0,0,0,0,0,0,0,0,0,0,0,0,0,0,0,0,0,0,0,0,0,0,0,0,0,0,0,0,0,0,0,0,0,0,0,0,0,0,0,0,0,0,0,0,0,0,0,0,0,0,0,0,0,0,0,0,0,0,0,0,0,0,0,0,0,0,0,0,0,0,0,0,0,0,0,0,0,0,0,0,0,0,0,0,0,0,0,0,0,0,0,0,0,0,0,0,0,0,0,0,0,0,0,0,0,0,0,0],"id":2,"left_children":[1,3,5,7,9,11,13,15,17,19,21,23,25,27,29,31,33,35,37,39,41,43,45,47,49,51,53,55,57,59,61,63,65,67,69,71,73,75,77,79,81,83,85,87,89,91,93,95,97,99,101,103,105,107,109,111,113,115,117,119,121,123,125,-1,-1,-1,-1,-1,-1,-1,-1,-1,-1,-1,-1,-1,-1,-1,-1,-1,-1,-1,-1,-1,-1,-1,-1,-1,-1,-1,-1,-1,-1,-1,-1,-1,-1,-1,-1,-1,-1,-1,-1,-1,-1,-1,-1,-1,-1,-1,-1,-1,-1,-1,-1,-1,-1,-1,-1,-1,-1,-1,-1,-1,-1,-1,-1],"loss_changes":[2.337779E4,2.6888564E3,2.490171E3,1.2626979E3,2.5052842E3,1.1443398E3,8.232051E2,9.6343463E2,2.5526355E2,1.091998E3,1.5409473E3,2.116289E2,5.838801E2,1.3381087E2,8.727832E1,6.601894E2,4.8426685E2,1.3213934E2,2.2090228E2,9.442964E2,2.5779047E2,6.749341E2,5.6756885E2,9.414111E1,1.6131226E2,1.7033282E2,5.2062915E2,5.8963284E1,2.0242859E1,4.3745117E1,6.65708E1,2.297644E1,1.1437888E3,1.656571E2,2.7622858E2,4.9069336E1,6.460623E0,6.3713074E1,6.410234E1,6.970166E2,2.2039846E3,7.698718E1,9.14964E1,3.0163885E2,2.6712402E2,2.4383301E2,5.081886E2,1.4642044E1,4.5971436E1,3.287268E1,8.831714E1,3.801136E1,9.445364E1,4.6125488E2,3.4367255E2,1.637054E1,3.881389E1,1.900177E1,1.0588034E1,4.8871094E1,3.039038E1,3.242749E1,9.9630585E1,0E0,0E0,0E0,0E0,0E0,0E0,0E0,0E0,0E0,0E0,0E0,0E0,0E0,0E0,0E0,0E0,0E0,0E0,0E0,0E0,0E0,0E0,0E0,0E0,0E0,0E0,0E0,0E0,0E0,0E0,0E0,0E0,0E0,0E0,0E0,0E0,0E0,0E0,0E0,0E0,0E0,0E0,0E0,0E0,0E0,0E0,0E0,0E0,0E0,0E0,0E0,0E0,0E0,0E0,0E0,0E0,0E0,0E0,0E0,0E0,0E0,0E0,0E0,0E0],"parents":[2147483647,0,0,1,1,2,2,3,3,4,4,5,5,6,6,7,7,8,8,9,9,10,10,11,11,12,12,13,13,14,14,15,15,16,16,17,17,18,18,19,19,20,20,21,21,22,22,23,23,24,24,25,25,26,26,27,27,28,28,29,29,30,30,31,31,32,32,33,33,34,34,35,35,36,36,37,37,38,38,39,39,40,40,41,41,42,42,43,43,44,44,45,45,46,46,47,47,48,48,49,49,50,50,51,51,52,52,53,53,54,54,55,55,56,56,57,57,58,58,59,59,60,60,61,61,62,62],"right_children":[2,4,6,8,10,12,14,16,18,20,22,24,26,28,30,32,34,36,38,40,42,44,46,48,50,52,54,56,58,60,62,64,66,68,70,72,74,76,78,80,82,84,86,88,90,92,94,96,98,100,102,104,106,108,110,112,114,116,118,120,122,124,126,-1,-1,-1,-1,-1,-1,-1,-1,-1,-1,-1,-1,-1,-1,-1,-1,-1,-1,-1,-1,-1,-1,-1,-1,-1,-1,-1,-1,-1,-1,-1,-1,-1,-1,-1,-1,-1,-1,-1,-1,-1,-1,-1,-1,-1,-1,-1,-1,-1,-1,-1,-1,-1,-1,-1,-1,-1,-1,-1,-1,-1,-1,-1,-1],"split_conditions":[1E0,0E0,3E0,2.011E3,4E0,2.013E3,3E0,4E0,5E0,1.1E1,3.09E2,-4E0,4E0,2E0,4E0,2E0,3.75E2,8.00001E0,2E0,3E0,7.4E1,1E0,2E0,9E0,1.16E2,9.9E1,0E0,2.011E3,2.02E3,1.8E1,4E0,4.2E1,3E0,2E0,3E0,5E0,2E0,2.3E1,2.013E3,5E0,3E0,2E0,9E1,3.5E1,1.51E2,1.2E1,6E0,1.95E2,2.69E2,7E1,2.008E3,2E0,-8E0,4E0,2E0,4E0,3.4E1,2.5E1,2.7E1,5E0,0E0,1.5E1,1.92E2,6.914608E-2,2.3104846E-1,3.3396393E-2,-1.854261E-1,1.1275884E-2,-2.0328613E-1,1.582577E-1,-6.144305E-2,1.262943E-1,2.2469948E-1,1.5442188E-1,-1.3764693E-1,1.874851E-1,9.842802E-2,-4.8640445E-2,4.286074E-2,2.1868633E-1,9.804868E-2,1.7659758E-1,-2.161462E-1,-2.8871937E-2,-1.6057011E-1,-1.1356109E-2,1.7735605E-1,3.2098275E-1,-8.792288E-2,4.7158265E-1,3.2888395E-1,1.760759E-1,3.1341094E-1,1.995452E-1,6.4288056E-3,-1.8646072E-1,-9.954313E-2,-2.5969014E-1,-2.0457049E-1,-2.360949E-1,-1.4304417E-1,-1.8164322E-1,-8.9432254E-2,2.0487158E-1,-1.2773764E-1,2.6829036E-2,1.9763398E-1,-8.345759E-2,-2.0046346E-1,8.32747E-3,-9.398341E-2,2.769579E-1,-1.629444E-1,-1.8064034E-1,6.851915E-2,-1.6298296E-1,-7.827464E-2,2.4302363E-2,-1.8253039E-1,-2.3919542E-1,-2.8697813E-1,-2.4223688E-1,-1.1371401E-1,-2.5979033E-1,-1.647987E-1,5.5179514E-2,-1.9862197E-1],"split_indices":[6,8,3,10,1,10,4,1,4,4,2,8,4,4,8,4,2,3,3,3,5,8,3,0,2,2,8,10,10,4,1,2,3,4,4,5,5,5,10,4,4,3,5,5,2,8,4,2,2,5,10,1,8,1,3,11,2,12,12,4,8,4,2,0,0,0,0,0,0,0,0,0,0,0,0,0,0,0,0,0,0,0,0,0,0,0,0,0,0,0,0,0,0,0,0,0,0,0,0,0,0,0,0,0,0,0,0,0,0,0,0,0,0,0,0,0,0,0,0,0,0,0,0,0,0,0,0],"split_type":[0,0,0,0,0,0,0,0,0,0,0,0,0,0,0,0,0,0,0,0,0,0,0,0,0,0,0,0,0,0,0,0,0,0,0,0,0,0,0,0,0,0,0,0,0,0,0,0,0,0,0,0,0,0,0,0,0,0,0,0,0,0,0,0,0,0,0,0,0,0,0,0,0,0,0,0,0,0,0,0,0,0,0,0,0,0,0,0,0,0,0,0,0,0,0,0,0,0,0,0,0,0,0,0,0,0,0,0,0,0,0,0,0,0,0,0,0,0,0,0,0,0,0,0,0,0,0],"sum_hessian":[1.7025934E5,1.1024467E5,6.0014676E4,4.522141E4,6.5023258E4,3.9697797E4,2.031688E4,3.1869523E4,1.3351887E4,4.9112547E4,1.5910712E4,1.3160355E4,2.6537441E4,2.3928591E3,1.7924021E4,2.3366336E4,8.503188E3,2.5800625E3,1.0771824E4,4.55658E4,3.5467458E3,5.592671E3,1.0318041E4,6.4085957E3,6.7517593E3,1.6910446E3,2.4846396E4,9.522591E2,1.4406001E3,1.331243E4,4.6115923E3,1.4059292E3,2.1960406E4,3.509149E3,4.9940396E3,2.4597314E3,1.2033099E2,7.6030693E3,3.1687546E3,4.042176E4,5.14404E3,2.3736511E3,1.1730947E3,6.842632E2,4.9084077E3,5.17894E3,5.1391016E3,8.2727386E2,5.581322E3,2.0247006E3,4.727059E3,3.3655878E2,1.3544857E3,1.2991246E4,1.1855151E4,1.7418567E2,7.780734E2,1.3081975E3,1.3240259E2,1.2495261E4,8.171687E2,3.2245386E3,1.3870536E3,8.501124E1,1.320918E3,1.9545908E4,2.414498E3,3.608586E2,3.1482903E3,5.8213916E2,4.4119004E3,6.116817E2,1.8480498E3,6.4384465E0,1.1389255E2,8.0993164E2,6.7931377E3,1.0112451E3,2.1575095E3,4.9059365E3,3.5515824E4,2.5197305E3,2.6243096E3,5.089669E2,1.8646843E3,8.575486E2,3.1554617E2,2.627799E2,4.2148328E2,2.0132589E3,2.8951487E3,3.4072468E3,1.771693E3,2.0201947E3,3.1189067E3,2.5389064E2,5.7338324E2,3.087958E3,2.4933638E3,1.5810978E3,4.4360278E2,1.2851296E3,3.4419292E3,3.3523685E1,3.030351E2,4.2466672E2,9.2981903E2,8.166477E3,4.824769E3,6.2583677E3,5.596783E3,7.0911226E0,1.6709454E2,6.0093086E1,7.1798035E2,9.905313E2,3.1766623E2,1.0520169E2,2.720089E1,2.4334546E3,1.0061807E4,5.818714E2,2.3529732E2,2.8519985E3,3.7254004E2,1.5651167E2,1.2305419E3],"tree_param":{"num_deleted":"0","num_feature":"13","num_nodes":"127","size_leaf_vector":"1"}},{"base_weights":[-9.005913E-3,1.8904597E-1,-3.9251995E-1,2.2357951E-1,-2.3438829E-1,-2.716611E-1,-6.4833105E-1,-3.482461E-2,2.7502233E-1,-4.8432645E-1,-7.178925E-2,-5.4648566E-1,-1.9230428E-1,-1.8032052E-1,-7.175918E-1,-1.0399569E-1,2.8165102E-1,6.4452726E-1,2.4691114E-1,-6.1647856E-1,-2.117539E-2,-1.8180856E-1,3.8207492E-1,-8.375315E-2,-6.04097E-1,-4.193436E-1,-1.03560165E-1,3.1158373E-2,-3.258098E-1,-7.90471E-1,-6.514626E-1,-1.7764545E-3,-3.2150844E-1,4.9459535E-1,2.0780607E-1,7.049807E-1,-5.334302E-1,2.9602566E-1,-2.80292E-1,-4.019319E-1,-7.5229436E-1,-1.1848671E-1,5.147155E-1,-2.3899454E-1,4.150614E-1,9.1128606E-1,3.9316667E-3,-1.3328889E-2,-4.8778442E-1,-6.4803445E-1,-2.6938322E-1,-2.3663633E-1,-5.6925696E-1,-4.745456E-2,-4.5813718E-1,-1.3351397E-1,2.5567827E-1,-7.812959E-1,-2.9711127E-1,-8.020206E-1,-4.2791146E-1,-6.830733E-1,-3.1176883E-1,-6.2086497E-2,2.5725132E-2,2.6515622E-2,-1.1978906E-1,1.6521865E-1,-1.1222647E-1,-2.545949E-2,7.872881E-2,7.381229E-2,2.1892266E-1,2.3360848E-1,-1.7525423E-1,7.938959E-2,1.980741E-1,-1.249047E-1,5.2883446E-2,-3.5813335E-2,-1.4616843E-1,-2.6559094E-1,-1.7899457E-1,-1.267362E-1,1.7019471E-2,2.6354708E-2,2.2628064E-1,-1.322086E-1,-3.381123E-2,1.3559152E-1,-2.6954234E-1,-1.1894487E-1,3.1883967E-1,-6.332011E-2,1.7289983E-1,3.1829502E-2,-4.433953E-2,-1.5455182E-1,2.726462E-1,-8.816183E-3,-2.0277199E-1,-7.445461E-3,-2.4137805E-1,7.975334E-2,-8.645867E-2,-9.606366E-2,-1.8694669E-1,-1.0038915E-1,1.7069421E-3,-1.485263E-1,-4.0781662E-2,-1.2395828E-1,2.6351862E-2,2.3178339E-1,3.6872316E-2,9.607953E-2,-2.5290856E-1,1.4706847E-2,-1.0064056E-1,-2.3541504E-1,-2.999391E-1,-3.9840862E-2,-2.3159726E-1,-2.1904044E-1,-1.5727381E-1,-1.7347082E-1,-4.371603E-2],"categories":[],"categories_nodes":[],"categories_segments":[],"categories_sizes":[],"default_left":[0,0,1,0,0,0,0,0,0,0,0,0,0,0,0,0,0,0,0,0,0,0,0,0,0,0,0,0,0,0,0,0,0,0,0,0,0,0,0,0,0,0,0,0,0,0,0,0,0,0,0,0,0,0,0,0,0,0,0,0,0,0,0,0,0,0,0,0,0,0,0,0,0,0,0,0,0,0,0,0,0,0,0,0,0,0,0,0,0,0,0,0,0,0,0,0,0,0,0,0,0,0,0,0,0,0,0,0,0,0,0,0,0,0,0,0,0,0,0,0,0,0,0,0,0,0,0],"id":3,"left_children":[1,3,5,7,9,11,13,15,17,19,21,23,25,27,29,31,33,35,37,39,41,43,45,47,49,51,53,55,57,59,61,63,65,67,69,71,73,75,77,79,81,83,85,87,89,91,93,95,97,99,101,103,105,107,109,111,113,115,117,119,121,123,125,-1,-1,-1,-1,-1,-1,-1,-1,-1,-1,-1,-1,-1,-1,-1,-1,-1,-1,-1,-1,-1,-1,-1,-1,-1,-1,-1,-1,-1,-1,-1,-1,-1,-1,-1,-1,-1,-1,-1,-1,-1,-1,-1,-1,-1,-1,-1,-1,-1,-1,-1,-1,-1,-1,-1,-1,-1,-1,-1,-1,-1,-1,-1,-1],"loss_changes":[1.2478618E4,1.5842737E3,1.7295762E3,1.3315859E3,3.3199072E2,8.286079E2,5.817446E2,3.641182E2,8.6758984E2,1.9706995E2,2.4729207E2,2.2690088E2,5.9405383E2,7.125092E1,7.484473E1,3.0348206E2,4.681134E1,4.2092358E2,2.0103247E3,7.2694214E1,3.7390877E1,1.3614122E2,1.9337268E2,2.6845984E1,1.1116113E2,2.2682349E2,4.2174527E2,3.495841E1,1.7699936E1,3.0785645E1,8.7876465E1,1.6679454E2,1.3917422E2,3.7629868E1,3.5464066E1,6.3660645E1,1.9689919E1,8.118833E2,4.1110028E2,2.3397827E1,3.1205994E1,3.233416E1,1.1202343E1,9.2616776E1,1.7319191E1,8.021585E1,6.960477E1,1.2938258E1,5.8252525E0,1.1535913E2,1.1518863E2,9.687453E1,6.088684E1,2.7937964E2,3.441382E1,3.381275E1,2.735976E1,5.757534E0,1.7171562E1,2.3867188E1,2.3418972E1,5.5708984E1,3.0899094E1,0E0,0E0,0E0,0E0,0E0,0E0,0E0,0E0,0E0,0E0,0E0,0E0,0E0,0E0,0E0,0E0,0E0,0E0,0E0,0E0,0E0,0E0,0E0,0E0,0E0,0E0,0E0,0E0,0E0,0E0,0E0,0E0,0E0,0E0,0E0,0E0,0E0,0E0,0E0,0E0,0E0,0E0,0E0,0E0,0E0,0E0,0E0,0E0,0E0,0E0,0E0,0E0,0E0,0E0,0E0,0E0,0E0,0E0,0E0,0E0,0E0,0E0,0E0,0E0],"parents":[2147483647,0,0,1,1,2,2,3,3,4,4,5,5,6,6,7,7,8,8,9,9,10,10,11,11,12,12,13,13,14,14,15,15,16,16,17,17,18,18,19,19,20,20,21,21,22,22,23,23,24,24,25,25,26,26,27,27,28,28,29,29,30,30,31,31,32,32,33,33,34,34,35,35,36,36,37,37,38,38,39,39,40,40,41,41,42,42,43,43,44,44,45,45,46,46,47,47,48,48,49,49,50,50,51,51,52,52,53,53,54,54,55,55,56,56,57,57,58,58,59,59,60,60,61,61,62,62],"right_children":[2,4,6,8,10,12,14,16,18,20,22,24,26,28,30,32,34,36,38,40,42,44,46,48,50,52,54,56,58,60,62,64,66,68,70,72,74,76,78,80,82,84,86,88,90,92,94,96,98,100,102,104,106,108,110,112,114,116,118,120,122,124,126,-1,-1,-1,-1,-1,-1,-1,-1,-1,-1,-1,-1,-1,-1,-1,-1,-1,-1,-1,-1,-1,-1,-1,-1,-1,-1,-1,-1,-1,-1,-1,-1,-1,-1,-1,-1,-1,-1,-1,-1,-1,-1,-1,-1,-1,-1,-1,-1,-1,-1,-1,-1,-1,-1,-1,-1,-1,-1,-1,-1,-1,-1,-1,-1],"split_conditions":[1E0,1.1E1,3E0,-8E0,-1E0,1.2E2,3E0,2.014E3,2E0,8.1E1,2E1,2E0,-8E0,2E0,0E0,4E0,6E0,8.00001E0,3E0,1E1,9.4E1,9E1,2.23E2,1.1E1,7.9E1,1.7E1,1.1E1,0E0,3E0,8.9E1,1.6E1,2.26E2,-2.6E1,8.00001E0,1E1,4.7E1,9E0,1.5E1,2E1,2E0,2.005E3,1.5E1,5.5E1,2.004E3,8.93E2,4E0,1.6E1,2E0,2.8E1,9E0,4E0,5E0,-2.4E1,2.011E3,1.3E1,2.12E2,8E0,-6.5E0,6E0,4E0,1.6E1,4E0,5.5E1,-6.2086497E-2,2.5725132E-2,2.6515622E-2,-1.1978906E-1,1.6521865E-1,-1.1222647E-1,-2.545949E-2,7.872881E-2,7.381229E-2,2.1892266E-1,2.3360848E-1,-1.7525423E-1,7.938959E-2,1.980741E-1,-1.249047E-1,5.2883446E-2,-3.5813335E-2,-1.4616843E-1,-2.6559094E-1,-1.7899457E-1,-1.267362E-1,1.7019471E-2,2.6354708E-2,2.2628064E-1,-1.322086E-1,-3.381123E-2,1.3559152E-1,-2.6954234E-1,-1.1894487E-1,3.1883967E-1,-6.332011E-2,1.7289983E-1,3.1829502E-2,-4.433953E-2,-1.5455182E-1,2.726462E-1,-8.816183E-3,-2.0277199E-1,-7.445461E-3,-2.4137805E-1,7.975334E-2,-8.645867E-2,-9.606366E-2,-1.8694669E-1,-1.0038915E-1,1.7069421E-3,-1.485263E-1,-4.0781662E-2,-1.2395828E-1,2.6351862E-2,2.3178339E-1,3.6872316E-2,9.607953E-2,-2.5290856E-1,1.4706847E-2,-1.0064056E-1,-2.3541504E-1,-2.999391E-1,-3.9840862E-2,-2.3159726E-1,-2.1904044E-1,-1.5727381E-1,-1.7347082E-1,-4.371603E-2],"split_indices":[6,4,3,8,8,2,4,10,4,5,0,1,8,4,8,1,4,3,3,0,5,5,2,4,5,0,4,8,12,5,4,2,8,3,4,2,2,8,0,3,10,4,11,10,2,1,8,3,4,5,1,4,8,10,8,2,12,9,12,3,0,1,5,0,0,0,0,0,0,0,0,0,0,0,0,0,0,0,0,0,0,0,0,0,0,0,0,0,0,0,0,0,0,0,0,0,0,0,0,0,0,0,0,0,0,0,0,0,0,0,0,0,0,0,0,0,0,0,0,0,0,0,0,0,0,0,0],"split_type":[0,0,0,0,0,0,0,0,0,0,0,0,0,0,0,0,0,0,0,0,0,0,0,0,0,0,0,0,0,0,0,0,0,0,0,0,0,0,0,0,0,0,0,0,0,0,0,0,0,0,0,0,0,0,0,0,0,0,0,0,0,0,0,0,0,0,0,0,0,0,0,0,0,0,0,0,0,0,0,0,0,0,0,0,0,0,0,0,0,0,0,0,0,0,0,0,0,0,0,0,0,0,0,0,0,0,0,0,0,0,0,0,0,0,0,0,0,0,0,0,0,0,0,0,0,0,0],"sum_hessian":[1.6428619E5,1.0833898E5,5.5947215E4,1.0017E5,8.168979E3,3.7997312E4,1.7949902E4,1.663093E4,8.353907E4,3.2189739E3,4.9500054E3,8.512246E3,2.9485068E4,2.314424E3,1.5635479E4,1.3648493E4,2.982437E3,5.904602E3,7.763447E4,2.504132E3,7.148417E2,3.9846921E3,9.6531305E2,9.427287E2,7.569517E3,8.285096E3,2.1199973E4,9.4360864E2,1.3708154E3,7.4329136E3,8.202564E3,9.285717E3,4.362777E3,7.6647626E2,2.2159607E3,5.616749E3,2.878532E2,7.101876E4,6.615707E3,9.722459E2,1.5318862E3,6.0564307E2,1.0919859E2,3.6368462E3,3.478459E2,4.0171017E2,5.636029E2,8.036775E2,1.3905121E2,6.690348E3,8.791692E2,3.7352861E3,4.54981E3,1.8304707E4,2.8952656E3,5.445893E2,3.9901938E2,7.9696434E1,1.291119E3,7.2022676E3,2.3064581E2,7.5033213E3,6.9924347E2,2.776274E3,6.5094424E3,6.9586896E2,3.666908E3,7.2029736E2,4.617887E1,3.4844455E2,1.8675161E3,2.8809045E2,5.328658E3,1.0184894E1,2.776683E2,6.538471E4,5.634047E3,5.0969224E3,1.5187845E3,2.2599823E2,7.462477E2,8.234827E2,7.084035E2,2.2094261E2,3.8470047E2,3.9744144E1,6.9454445E1,1.3993805E3,2.2374658E3,3.3897656E2,8.86932E0,4.1540474E1,3.601697E2,4.101706E2,1.5343228E2,4.2575775E2,3.7791974E2,1.3699576E2,2.0554497E0,2.8851703E2,6.401831E3,6.041489E2,2.7502026E2,3.472207E2,3.3880654E3,8.1072107E2,3.7390889E3,2.857633E3,1.5447074E4,2.5969094E3,2.9835623E2,2.4021315E2,3.0437613E2,8.0557014E1,3.1846234E2,4.007015E0,7.5689415E1,1.2877551E2,1.1623435E3,6.627392E3,5.748757E2,1.24904335E2,1.0574147E2,5.785458E3,1.7178634E3,2.6749606E2,4.3174738E2],"tree_param":{"num_deleted":"0","num_feature":"13","num_nodes":"127","size_leaf_vector":"1"}},{"base_weights":[-8.337781E-3,1.348753E-1,-2.9906186E-1,1.3388505E-2,2.288221E-1,-2.0103645E-1,-5.2319676E-1,1.4693263E-1,-1.112823E-1,4.6232185E-1,1.9113228E-1,-4.489234E-1,-1.4463598E-1,-2.136544E-1,-6.087494E-1,5.708771E-1,1.03801474E-1,2.7934286E-1,-2.2473383E-1,4.8997423E-1,-3.9557096E-1,2.819653E-1,3.8515735E-2,-5.243925E-2,-5.0223666E-1,1.557872E-1,-1.8907571E-1,2.1545053E-2,-3.012567E-1,-6.3287055E-1,-3.5750312E-1,-2.1974683E-1,6.605252E-1,-1.7802039E-1,1.5181749E-1,-1.0823687E-1,3.322296E-1,-1.4555246E-1,-4.7688383E-1,3.0894995E-1,5.453463E-1,-4.6747047E-1,2.1085769E-1,4.914503E-1,2.2647215E-1,-3.310532E-2,2.164407E-1,2.258467E-3,-3.7939698E-1,-5.779314E-1,-2.5796422E-1,5.674301E-1,8.597178E-2,-5.736634E-2,-3.586866E-1,-7.4811794E-2,3.698691E-1,-2.6414642E-1,-7.051458E-1,-6.604243E-1,-4.7780886E-1,-4.9306673E-1,-1.2703453E-1,2.3978898E-1,-1.2428179E-1,-2.4609353E-2,2.0671912E-1,-8.8370666E-2,1.23226866E-1,-1.9640125E-2,5.9076566E-2,-1.036999E-1,3.419249E-2,1.5332253E-1,5.457072E-2,2.1106265E-2,-6.60455E-2,-4.3972734E-2,-1.8061921E-1,1.4804022E-1,5.2792974E-2,1.9291593E-1,1.3436389E-1,-5.5852856E-2,-1.968941E-1,-9.078037E-2,2.0471068E-1,9.693484E-2,1.7688358E-1,5.819203E-2,1.9247656E-1,5.7547025E-2,-2.7148826E-2,1.9956458E-2,1.8421336E-1,1.7530674E-1,-6.6046817E-3,6.895268E-2,-1.3833681E-1,-2.076331E-1,-1.20076835E-1,-2.9134257E-2,-2.1221417E-1,2.9949984E-2,2.2673708E-1,1.5547901E-1,8.741994E-3,-8.224237E-2,9.481936E-3,-1.3920587E-1,-7.6504916E-2,-4.960592E-2,7.597699E-2,3.384166E-1,7.2206624E-2,-5.0561722E-2,-1.259485E-1,-1.5605053E-1,-2.4388537E-1,-1.7184883E-1,-2.0610921E-1,-9.940568E-2,-2.0210654E-1,-2.1582784E-1,-1.0121201E-1,3.3715863E-2,-9.552328E-2],"categories":[],"categories_nodes":[],"categories_segments":[],"categories_sizes":[],"default_left":[0,0,1,0,0,0,0,0,0,0,0,0,0,0,0,0,0,1,0,0,0,0,0,0,0,0,0,0,0,0,0,0,0,0,0,1,0,0,0,0,0,0,0,0,0,0,0,0,0,0,0,0,0,0,0,0,0,0,0,0,0,0,0,0,0,0,0,0,0,0,0,0,0,0,0,0,0,0,0,0,0,0,0,0,0,0,0,0,0,0,0,0,0,0,0,0,0,0,0,0,0,0,0,0,0,0,0,0,0,0,0,0,0,0,0,0,0,0,0,0,0,0,0,0,0,0,0],"id":4,"left_children":[1,3,5,7,9,11,13,15,17,19,21,23,25,27,29,31,33,35,37,39,41,43,45,47,49,51,53,55,57,59,61,63,65,67,69,71,73,75,77,79,81,83,85,87,89,91,93,95,97,99,101,103,105,107,109,111,113,115,117,119,121,123,125,-1,-1,-1,-1,-1,-1,-1,-1,-1,-1,-1,-1,-1,-1,-1,-1,-1,-1,-1,-1,-1,-1,-1,-1,-1,-1,-1,-1,-1,-1,-1,-1,-1,-1,-1,-1,-1,-1,-1,-1,-1,-1,-1,-1,-1,-1,-1,-1,-1,-1,-1,-1,-1,-1,-1,-1,-1,-1,-1,-1,-1,-1,-1,-1],"loss_changes":[6.630513E3,1.2177207E3,1.1546436E3,7.7466693E2,5.2940894E2,5.1118408E2,4.2335938E2,4.107196E2,1.0665131E3,1.9854407E2,7.181571E2,1.4323376E2,3.9776263E2,7.138472E1,7.569873E1,1.4716522E2,2.7596826E2,1.1106268E2,3.7226086E2,8.102893E1,1.1506683E1,3.774292E2,2.4633818E2,1.4387066E1,1.1031091E2,1.1029452E2,5.797445E2,3.1613373E1,3.764769E1,4.851758E1,3.4296127E1,4.2355328E1,3.9541992E1,2.0385614E2,1.7077484E2,3.439192E1,1.2805322E2,2.2862128E2,1.8416663E2,4.652475E1,5.8772583E1,1.2319721E1,7.087496E0,1.12181885E2,3.462787E2,1.7794438E2,3.306709E2,9.764331E0,5.8465195E0,9.222888E1,1.02225174E2,4.8946182E1,8.06638E1,2.8178772E2,1.2375574E2,2.1962866E1,1.9717403E1,3.4362625E1,3.8010406E0,2.2218262E1,4.9353455E1,2.4148087E1,1.8759445E1,0E0,0E0,0E0,0E0,0E0,0E0,0E0,0E0,0E0,0E0,0E0,0E0,0E0,0E0,0E0,0E0,0E0,0E0,0E0,0E0,0E0,0E0,0E0,0E0,0E0,0E0,0E0,0E0,0E0,0E0,0E0,0E0,0E0,0E0,0E0,0E0,0E0,0E0,0E0,0E0,0E0,0E0,0E0,0E0,0E0,0E0,0E0,0E0,0E0,0E0,0E0,0E0,0E0,0E0,0E0,0E0,0E0,0E0,0E0,0E0,0E0,0E0,0E0,0E0],"parents":[2147483647,0,0,1,1,2,2,3,3,4,4,5,5,6,6,7,7,8,8,9,9,10,10,11,11,12,12,13,13,14,14,15,15,16,16,17,17,18,18,19,19,20,20,21,21,22,22,23,23,24,24,25,25,26,26,27,27,28,28,29,29,30,30,31,31,32,32,33,33,34,34,35,35,36,36,37,37,38,38,39,39,40,40,41,41,42,42,43,43,44,44,45,45,46,46,47,47,48,48,49,49,50,50,51,51,52,52,53,53,54,54,55,55,56,56,57,57,58,58,59,59,60,60,61,61,62,62],"right_children":[2,4,6,8,10,12,14,16,18,20,22,24,26,28,30,32,34,36,38,40,42,44,46,48,50,52,54,56,58,60,62,64,66,68,70,72,74,76,78,80,82,84,86,88,90,92,94,96,98,100,102,104,106,108,110,112,114,116,118,120,122,124,126,-1,-1,-1,-1,-1,-1,-1,-1,-1,-1,-1,-1,-1,-1,-1,-1,-1,-1,-1,-1,-1,-1,-1,-1,-1,-1,-1,-1,-1,-1,-1,-1,-1,-1,-1,-1,-1,-1,-1,-1,-1,-1,-1,-1,-1,-1,-1,-1,-1,-1,-1,-1,-1,-1,-1,-1,-1,-1,-1,-1,-1,-1,-1,-1],"split_conditions":[1E0,2.006E3,3E0,2E0,4E0,1.03E2,4E0,1.6E1,4E0,8.00001E0,2E0,2E0,6E0,2E0,1.7E1,6.7E1,1.34E2,9.6E1,3E0,4E0,1.25E2,3.4E1,5E0,1.1E1,7E1,2E0,2E0,2.019E3,4E0,8E0,7.4E1,2E0,4E0,7.9E1,-8E0,3E0,3E0,7E0,2.05E2,2E0,3E0,-3E0,2.1E1,-2E0,8.8E1,6E0,2E1,3E0,2.009E3,3E0,4E0,-1.2E1,2E0,-8E0,0E0,1.13E2,5E0,6E1,1.6E1,6E0,4.9E2,-3E0,3E0,2.3978898E-1,-1.2428179E-1,-2.4609353E-2,2.0671912E-1,-8.8370666E-2,1.23226866E-1,-1.9640125E-2,5.9076566E-2,-1.036999E-1,3.419249E-2,1.5332253E-1,5.457072E-2,2.1106265E-2,-6.60455E-2,-4.3972734E-2,-1.8061921E-1,1.4804022E-1,5.2792974E-2,1.9291593E-1,1.3436389E-1,-5.5852856E-2,-1.968941E-1,-9.078037E-2,2.0471068E-1,9.693484E-2,1.7688358E-1,5.819203E-2,1.9247656E-1,5.7547025E-2,-2.7148826E-2,1.9956458E-2,1.8421336E-1,1.7530674E-1,-6.6046817E-3,6.895268E-2,-1.3833681E-1,-2.076331E-1,-1.20076835E-1,-2.9134257E-2,-2.1221417E-1,2.9949984E-2,2.2673708E-1,1.5547901E-1,8.741994E-3,-8.224237E-2,9.481936E-3,-1.3920587E-1,-7.6504916E-2,-4.960592E-2,7.597699E-2,3.384166E-1,7.2206624E-2,-5.0561722E-2,-1.259485E-1,-1.5605053E-1,-2.4388537E-1,-1.7184883E-1,-2.0610921E-1,-9.940568E-2,-2.0210654E-1,-2.1582784E-1,-1.0121201E-1,3.3715863E-2,-9.552328E-2],"split_indices":[6,10,3,3,4,2,4,5,4,3,3,1,4,4,4,2,2,2,3,5,11,5,8,4,5,4,3,10,3,8,5,1,11,5,8,3,3,4,2,3,3,8,12,8,5,4,0,4,10,1,1,8,3,8,8,11,12,5,0,4,2,8,1,0,0,0,0,0,0,0,0,0,0,0,0,0,0,0,0,0,0,0,0,0,0,0,0,0,0,0,0,0,0,0,0,0,0,0,0,0,0,0,0,0,0,0,0,0,0,0,0,0,0,0,0,0,0,0,0,0,0,0,0,0,0,0,0],"split_type":[0,0,0,0,0,0,0,0,0,0,0,0,0,0,0,0,0,0,0,0,0,0,0,0,0,0,0,0,0,0,0,0,0,0,0,0,0,0,0,0,0,0,0,0,0,0,0,0,0,0,0,0,0,0,0,0,0,0,0,0,0,0,0,0,0,0,0,0,0,0,0,0,0,0,0,0,0,0,0,0,0,0,0,0,0,0,0,0,0,0,0,0,0,0,0,0,0,0,0,0,0,0,0,0,0,0,0,0,0,0,0,0,0,0,0,0,0,0,0,0,0,0,0,0,0,0,0],"sum_hessian":[1.592495E5,1.0669246E5,5.2557047E4,4.6527203E4,6.0165258E4,3.656656E4,1.599049E4,2.2464082E4,2.4063121E4,8.360179E3,5.180508E4,6.7764175E3,2.979014E4,3.4632876E3,1.2527202E4,2.073271E3,2.0390812E4,5.4155093E3,1.8647611E4,8.0995366E3,2.6064252E2,3.247565E4,1.9329428E4,8.03425E2,5.972992E3,3.838494E3,2.5951646E4,9.400754E2,2.5232122E3,1.142848E4,1.0987218E3,2.1099695E2,1.8622739E3,2.96799E3,1.7422822E4,6.501137E2,4.7653955E3,1.4192417E4,4.455195E3,1.8987296E3,6.2008066E3,2.3322054E2,2.742199E1,6.7995767E3,2.5676072E4,1.3782357E4,5.54707E3,6.891313E2,1.142937E2,4.558917E3,1.4140754E3,5.5557965E2,3.2829143E3,1.4608739E4,1.1342907E4,7.369878E2,2.0308762E2,2.3123977E3,2.108144E2,9.701338E3,1.7271425E3,6.9108203E2,4.0763977E2,3.3322845E1,1.776741E2,6.885395E1,1.7934199E3,2.4779739E3,4.9001596E2,2.9948875E3,1.4427935E4,3.1402643E2,3.3608728E2,2.1751738E3,2.590222E3,3.6444946E3,1.0547922E4,1.2250018E3,3.2301929E3,7.9410175E2,1.1046279E3,3.093796E3,3.107011E3,9.447688E1,1.3874365E2,1.3298561E1,1.4123428E1,2.506151E3,4.2934253E3,2.3813242E4,1.8628301E3,2.8012434E3,1.0981114E4,4.029055E3,1.5180149E3,2.6663431E1,6.6246783E2,1.3304027E1,1.0098967E2,2.7736194E3,1.7852976E3,1.0422582E3,3.7181723E2,1.5997583E2,3.9560385E2,3.8050217E2,2.902412E3,4.250548E3,1.0358191E4,5.624611E3,5.7182964E3,5.779731E2,1.590147E2,2.8439276E1,1.7464835E2,1.4338961E3,8.785017E2,7.97687E1,1.310457E2,2.2654456E3,7.4358926E3,9.8978485E2,7.373576E2,2.8015283E2,4.1092917E2,1.8127238E2,2.2636739E2],"tree_param":{"num_deleted":"0","num_feature":"13","num_nodes":"127","size_leaf_vector":"1"}},{"base_weights":[-7.166473E-3,9.6274E-2,-2.2522445E-1,-2.8116748E-2,1.5599875E-1,-1.4754339E-1,-4.1596618E-1,1.7597893E-1,-9.9448055E-2,8.972342E-2,3.7310237E-1,-3.3684582E-1,-8.269828E-2,-1.5734635E-1,-4.9374434E-1,2.031268E-1,-1.6595995E-1,-2.9396284E-1,-2.2716535E-2,4.284992E-2,2.4706414E-1,6.3775283E-1,1.8136786E-1,-2.4084286E-1,-5.000893E-1,-1.1911769E-1,1.6530308E-1,-1.9801824E-1,2.2246665E-1,-5.1667494E-1,-2.3121642E-1,4.1145685E-1,1.7078042E-1,-2.4974892E-1,2.9459444E-1,-4.2373484E-1,-1.01953365E-1,2.565257E-1,-6.668398E-2,2.1004654E-2,3.7599075E-1,1.3503723E-3,2.759485E-1,-3.455229E-3,8.4483504E-1,3.2261217E-1,4.0228315E-2,-2.602984E-1,2.2101702E-1,-5.457838E-1,-1.6847866E-2,-2.7139762E-1,-6.1362263E-2,-1.0140939E-2,6.488909E-1,-2.653192E-1,5.154496E-3,9.998446E-1,1.1474285E-1,-5.533399E-1,-4.022136E-1,-4.0658736E-1,-1.7054876E-2,1.9940354E-1,1.09857164E-1,6.070674E-2,-1.6773531E-1,-3.584961E-2,-1.2941872E-1,-3.3620007E-2,1.3775364E-1,-9.314859E-2,-1.9552657E-1,-4.1630827E-2,1.0268376E-1,1.1619551E-1,3.617938E-2,-7.603352E-3,-2.0892407E-1,9.205006E-2,-2.5189517E-3,2.7264667E-1,9.775501E-2,8.331597E-2,-1.9113146E-2,7.640408E-2,1.5926081E-1,1.8155193E-1,-1.5268542E-1,3.3993074E-1,2.0291291E-1,6.171067E-2,1.5654127E-1,8.811369E-2,-3.5693742E-2,-6.967666E-2,-2.5941864E-1,3.5981935E-1,-1.4352192E-1,-1.9798307E-1,-1.2326817E-1,1.1004578E-1,-6.7832336E-2,2.301028E-3,-9.954E-2,1.1080552E-2,-5.011982E-2,1.4185204E-1,-1.711553E-2,4.5914605E-1,1.1086704E-1,-5.6432147E-2,-1.2144357E-1,4.7439415E-2,-7.9872735E-2,1.1774292E-1,5.780251E-1,7.4965894E-2,-5.935355E-2,-1.7591122E-1,-1.3513531E-1,-1.505511E-1,-6.470138E-2,8.160163E-2,-1.3907412E-1,-3.0197402E-2,1.7397705E-1],"categories":[],"categories_nodes":[],"categories_segments":[],"categories_sizes":[],"default_left":[0,0,1,0,0,0,0,0,0,0,0,0,0,0,0,0,0,0,0,0,0,0,0,0,0,0,0,0,0,0,0,0,0,0,0,0,0,0,0,0,0,0,0,0,0,0,0,0,0,0,1,0,0,0,0,0,0,0,0,0,0,0,0,0,0,0,0,0,0,0,0,0,0,0,0,0,0,0,0,0,0,0,0,0,0,0,0,0,0,0,0,0,0,0,0,0,0,0,0,0,0,0,0,0,0,0,0,0,0,0,0,0,0,0,0,0,0,0,0,0,0,0,0,0,0,0,0],"id":5,"left_children":[1,3,5,7,9,11,13,15,17,19,21,23,25,27,29,31,33,35,37,39,41,43,45,47,49,51,53,55,57,59,61,63,65,67,69,71,73,75,77,79,81,83,85,87,89,91,93,95,97,99,101,103,105,107,109,111,113,115,117,119,121,123,125,-1,-1,-1,-1,-1,-1,-1,-1,-1,-1,-1,-1,-1,-1,-1,-1,-1,-1,-1,-1,-1,-1,-1,-1,-1,-1,-1,-1,-1,-1,-1,-1,-1,-1,-1,-1,-1,-1,-1,-1,-1,-1,-1,-1,-1,-1,-1,-1,-1,-1,-1,-1,-1,-1,-1,-1,-1,-1,-1,-1,-1,-1,-1,-1],"loss_changes":[3.497286E3,7.812801E2,7.391028E2,4.966678E2,1.0222693E3,4.3514197E2,2.903108E2,8.205231E1,3.7730603E2,4.0144644E2,8.430437E2,1.4162915E2,2.3852852E2,5.16285E1,6.6690186E1,5.5092926E1,2.5173397E1,1.7814679E2,2.2260526E2,3.0521948E2,8.867377E1,9.2688086E2,1.9210165E2,5.1252228E1,7.393103E1,2.0249811E2,2.8692398E2,4.1252594E1,2.6973166E1,4.26084E1,3.354377E1,1.2359207E1,1.6345811E2,1.29814415E1,6.783142E0,1.0997211E2,4.7237038E1,4.3802765E1,4.077638E2,3.307809E2,6.8657104E1,2.3666628E1,6.0478943E1,5.2487726E2,2.5546045E2,1.120585E2,1.9461072E2,9.247299E1,1.5853554E2,4.6837524E1,2.3390682E1,1.06727264E2,1.7348158E2,5.6272415E1,2.2113971E2,2.4331772E1,3.1248545E1,2.1334259E1,1.2098718E1,2.5996338E1,4.597467E1,1.911905E1,2.0182787E1,0E0,0E0,0E0,0E0,0E0,0E0,0E0,0E0,0E0,0E0,0E0,0E0,0E0,0E0,0E0,0E0,0E0,0E0,0E0,0E0,0E0,0E0,0E0,0E0,0E0,0E0,0E0,0E0,0E0,0E0,0E0,0E0,0E0,0E0,0E0,0E0,0E0,0E0,0E0,0E0,0E0,0E0,0E0,0E0,0E0,0E0,0E0,0E0,0E0,0E0,0E0,0E0,0E0,0E0,0E0,0E0,0E0,0E0,0E0,0E0,0E0,0E0,0E0,0E0],"parents":[2147483647,0,0,1,1,2,2,3,3,4,4,5,5,6,6,7,7,8,8,9,9,10,10,11,11,12,12,13,13,14,14,15,15,16,16,17,17,18,18,19,19,20,20,21,21,22,22,23,23,24,24,25,25,26,26,27,27,28,28,29,29,30,30,31,31,32,32,33,33,34,34,35,35,36,36,37,37,38,38,39,39,40,40,41,41,42,42,43,43,44,44,45,45,46,46,47,47,48,48,49,49,50,50,51,51,52,52,53,53,54,54,55,55,56,56,57,57,58,58,59,59,60,60,61,61,62,62],"right_children":[2,4,6,8,10,12,14,16,18,20,22,24,26,28,30,32,34,36,38,40,42,44,46,48,50,52,54,56,58,60,62,64,66,68,70,72,74,76,78,80,82,84,86,88,90,92,94,96,98,100,102,104,106,108,110,112,114,116,118,120,122,124,126,-1,-1,-1,-1,-1,-1,-1,-1,-1,-1,-1,-1,-1,-1,-1,-1,-1,-1,-1,-1,-1,-1,-1,-1,-1,-1,-1,-1,-1,-1,-1,-1,-1,-1,-1,-1,-1,-1,-1,-1,-1,-1,-1,-1,-1,-1,-1,-1,-1,-1,-1,-1,-1,-1,-1,-1,-1,-1,-1,-1,-1,-1,-1,-1],"split_conditions":[1E0,-3E0,3E0,8E0,4E0,2.012E3,4E0,1.1E1,2.37E2,2.013E3,3.9E2,4E0,8E0,2.02E3,8.4E1,4E0,8.4E1,2.007E3,4E0,8.6E1,4E0,1E0,2E0,1.37E2,3E0,1.92E2,4E0,2.5E1,4E0,5E0,1.2E1,2.4E1,3E0,2E0,2.73E2,4E0,8.4E1,3E0,3E0,3E0,8.4E1,6E0,8.5E1,4.1E1,1.64E2,9E0,6E0,1.36E2,1.38E2,2.87E2,2E0,2E0,2E0,5E0,3.9E2,3E0,3E1,3E0,6E1,2.5E1,4E0,7.5E1,8E0,1.9940354E-1,1.09857164E-1,6.070674E-2,-1.6773531E-1,-3.584961E-2,-1.2941872E-1,-3.3620007E-2,1.3775364E-1,-9.314859E-2,-1.9552657E-1,-4.1630827E-2,1.0268376E-1,1.1619551E-1,3.617938E-2,-7.603352E-3,-2.0892407E-1,9.205006E-2,-2.5189517E-3,2.7264667E-1,9.775501E-2,8.331597E-2,-1.9113146E-2,7.640408E-2,1.5926081E-1,1.8155193E-1,-1.5268542E-1,3.3993074E-1,2.0291291E-1,6.171067E-2,1.5654127E-1,8.811369E-2,-3.5693742E-2,-6.967666E-2,-2.5941864E-1,3.5981935E-1,-1.4352192E-1,-1.9798307E-1,-1.2326817E-1,1.1004578E-1,-6.7832336E-2,2.301028E-3,-9.954E-2,1.1080552E-2,-5.011982E-2,1.4185204E-1,-1.711553E-2,4.5914605E-1,1.1086704E-1,-5.6432147E-2,-1.2144357E-1,4.7439415E-2,-7.9872735E-2,1.1774292E-1,5.780251E-1,7.4965894E-2,-5.935355E-2,-1.7591122E-1,-1.3513531E-1,-1.505511E-1,-6.470138E-2,8.160163E-2,-1.3907412E-1,-3.0197402E-2,1.7397705E-1],"split_indices":[6,8,3,0,1,10,4,4,2,10,2,1,8,10,5,4,5,10,4,5,12,8,3,11,8,2,1,12,12,8,4,11,3,1,2,1,5,3,3,4,2,4,5,5,2,8,4,11,11,2,3,1,3,4,2,4,12,12,5,12,1,2,8,0,0,0,0,0,0,0,0,0,0,0,0,0,0,0,0,0,0,0,0,0,0,0,0,0,0,0,0,0,0,0,0,0,0,0,0,0,0,0,0,0,0,0,0,0,0,0,0,0,0,0,0,0,0,0,0,0,0,0,0,0,0,0,0],"split_type":[0,0,0,0,0,0,0,0,0,0,0,0,0,0,0,0,0,0,0,0,0,0,0,0,0,0,0,0,0,0,0,0,0,0,0,0,0,0,0,0,0,0,0,0,0,0,0,0,0,0,0,0,0,0,0,0,0,0,0,0,0,0,0,0,0,0,0,0,0,0,0,0,0,0,0,0,0,0,0,0,0,0,0,0,0,0,0,0,0,0,0,0,0,0,0,0,0,0,0,0,0,0,0,0,0,0,0,0,0,0,0,0,0,0,0,0,0,0,0,0,0,0,0,0,0,0,0],"sum_hessian":[1.5504692E5,1.0516174E5,4.988517E4,3.4113316E4,7.104843E4,3.5449754E4,1.4435418E4,8.834438E3,2.5278877E4,5.4433043E4,1.6615387E4,9.043845E3,2.6405908E4,3.3382937E3,1.1097124E4,8.185005E3,6.4943365E2,7.1502153E3,1.8128662E4,4.193995E4,1.2493093E4,6.979408E3,9.635979E3,5.6963286E3,3.3475164E3,2.3025146E4,3.3807612E3,3.0158257E3,3.2246796E2,1.0204813E4,8.923106E2,1.0984712E3,7.0865337E3,5.498558E2,9.957789E1,4.265868E3,2.8843477E3,2.4654534E3,1.5663208E4,3.936003E4,2.5799187E3,1.31423E3,1.1178863E4,1.7040333E3,5.275375E3,4.815559E3,4.8204194E3,5.466492E3,2.2983617E2,3.058208E3,2.8930835E2,6.3304272E3,1.6694719E4,2.481471E3,8.992902E2,2.2651792E3,7.5064636E2,3.823894E1,2.8422903E2,7.7261045E3,2.4787092E3,4.900905E2,4.022201E2,1.645103E2,9.339609E2,6.7933755E3,2.9315842E2,3.2119794E2,2.2865782E2,2.878181E1,7.079608E1,2.8519119E3,1.413956E3,2.664235E3,2.2011255E2,1.2555176E3,1.2099358E3,1.4699293E4,9.639154E2,3.670187E3,3.5689844E4,2.2042278E2,2.359496E3,2.4980867E2,1.0644213E3,1.0319867E4,8.5899585E2,7.7305774E2,9.309755E2,1.9436558E3,3.3317192E3,3.035811E3,1.7797479E3,1.8592878E3,2.9611316E3,5.2254395E3,2.4105296E2,9.551343E1,1.3432274E2,1.654274E3,1.4039338E3,1.01838974E2,1.8746938E2,1.1265366E3,5.2038906E3,8.650752E3,8.0439673E3,2.1887848E2,2.2625925E3,2.1530261E2,6.839876E2,1.4596061E3,8.0557324E2,4.8032272E2,2.7032364E2,2.3961348E1,1.4277593E1,1.9857726E2,8.5651764E1,5.8449707E3,1.8811339E3,1.6146901E3,8.6401904E2,3.7679787E1,4.524107E2,3.535403E2,4.8679752E1],"tree_param":{"num_deleted":"0","num_feature":"13","num_nodes":"127","size_leaf_vector":"1"}},{"base_weights":[-5.6616883E-3,6.9041826E-2,-1.6768281E-1,1.3775656E-1,-6.8051643E-3,-1.0759656E-1,-3.2460395E-1,4.016366E-1,1.0522794E-1,1.6686654E-1,-1.1891294E-1,-2.38384E-1,-5.0493363E-2,-1.1465683E-1,-3.928728E-1,-2.898893E-1,4.358798E-1,9.142317E-2,5.579941E-1,2.624381E-1,3.6415964E-2,-2.2001897E-1,-9.236589E-3,-1.690939E-1,-3.6899254E-1,1.5922865E-1,-9.578439E-2,-2.3080678E-1,-2.270324E-2,-4.3163368E-1,-2.3526345E-1,5.552424E-1,-5.148969E-1,1.0530917E-1,4.6135765E-1,7.632607E-2,4.6246466E-1,1.8543439E-1,6.381129E-1,-7.44768E-2,3.1898057E-1,2.9870442E-1,-1.8822265E-1,-2.993337E-1,7.285139E-3,1.1386851E-1,-1.8123804E-1,-2.0442803E-1,1.0040435E-1,-4.2706305E-1,7.054222E-2,4.2014605E-1,9.85017E-2,-9.478116E-3,-2.352826E-1,-3.1708604E-1,-1.3401759E-2,1.489779E-1,-1.0755785E-1,-3.2801783E-1,-4.693527E-1,-4.9717763E-1,-1.5124772E-1,2.2398789E-1,4.3048054E-2,-3.3097845E-1,3.3865113E-2,9.466081E-2,-2.1740464E-2,1.3241246E-1,2.2906399E-1,2.7984246E-3,3.762103E-2,7.1985796E-2,2.2661763E-1,8.549896E-2,-1.6395834E-1,1.993248E-1,4.968324E-2,-7.8647904E-2,5.5791717E-2,7.950784E-2,1.3743185E-1,1.12364374E-1,-1.0929843E-1,-1.2704949E-2,-9.1509E-2,-4.85058E-2,-1.3591327E-1,-8.836302E-2,1.0170359E-1,1.2158804E-1,-3.3532016E-3,-6.8543546E-2,4.946307E-2,5.0762244E-2,-6.606225E-2,-3.714303E-2,1.922238E-1,-1.4875422E-1,-6.1835527E-2,-5.4055336E-3,2.9838997E-1,-1.2890485E-1,1.574806E-1,3.7159957E-3,8.920077E-2,-2.0887423E-2,4.2889435E-2,-8.646268E-2,-2.3590533E-2,-5.3052984E-2,-1.2578629E-1,-2.582534E-2,1.745185E-1,1.078753E-1,-1.6936151E-3,-4.0795058E-2,1.4287172E-1,-7.071612E-2,-1.2665302E-1,-1.4473282E-1,-3.9129615E-2,-1.8963449E-1,-9.0004966E-2,-5.682933E-2,1.0794773E-1],"categories":[],"categories_nodes":[],"categories_segments":[],"categories_sizes":[],"default_left":[0,0,1,0,0,0,0,0,0,0,0,0,0,0,0,0,0,0,0,0,0,0,0,0,0,0,0,0,0,0,0,0,0,0,0,0,0,0,0,0,0,0,0,0,0,0,0,0,0,0,0,0,0,0,0,0,0,0,0,0,0,0,0,0,0,0,0,0,0,0,0,0,0,0,0,0,0,0,0,0,0,0,0,0,0,0,0,0,0,0,0,0,0,0,0,0,0,0,0,0,0,0,0,0,0,0,0,0,0,0,0,0,0,0,0,0,0,0,0,0,0,0,0,0,0,0,0],"id":6,"left_children":[1,3,5,7,9,11,13,15,17,19,21,23,25,27,29,31,33,35,37,39,41,43,45,47,49,51,53,55,57,59,61,63,65,67,69,71,73,75,77,79,81,83,85,87,89,91,93,95,97,99,101,103,105,107,109,111,113,115,117,119,121,123,125,-1,-1,-1,-1,-1,-1,-1,-1,-1,-1,-1,-1,-1,-1,-1,-1,-1,-1,-1,-1,-1,-1,-1,-1,-1,-1,-1,-1,-1,-1,-1,-1,-1,-1,-1,-1,-1,-1,-1,-1,-1,-1,-1,-1,-1,-1,-1,-1,-1,-1,-1,-1,-1,-1,-1,-1,-1,-1,-1,-1,-1,-1,-1,-1],"loss_changes":[1.8348318E3,5.407555E2,4.5102844E2,4.672295E2,9.602641E2,2.5835263E2,1.8979944E2,1.4158484E2,3.028694E2,2.4120612E2,3.3236145E2,9.508429E1,2.2875766E2,3.4722965E1,6.095764E1,5.399754E1,4.789319E1,2.634209E2,4.26781E1,2.1274695E2,4.821525E2,2.8116766E2,3.0446347E2,6.545094E1,9.302524E1,6.77326E1,2.384475E2,2.6943764E1,2.6470396E1,3.1193604E1,4.3385483E1,4.610731E0,8.270822E1,1.5294474E1,3.1574951E1,1.4860135E2,1.1966086E2,1.8751373E1,1.4550262E1,7.8529625E1,7.165558E1,1.8997672E2,7.5095795E1,2.445415E2,4.041189E2,3.0541132E2,9.8112366E1,3.5854126E1,9.665333E1,4.8809387E1,3.4884815E1,7.211539E1,5.943087E1,1.12205956E2,6.27381E1,1.4666534E1,1.7750656E1,1.9575893E1,2.0241653E1,1.8532166E1,2.601416E1,1.2560249E1,2.9277561E1,0E0,0E0,0E0,0E0,0E0,0E0,0E0,0E0,0E0,0E0,0E0,0E0,0E0,0E0,0E0,0E0,0E0,0E0,0E0,0E0,0E0,0E0,0E0,0E0,0E0,0E0,0E0,0E0,0E0,0E0,0E0,0E0,0E0,0E0,0E0,0E0,0E0,0E0,0E0,0E0,0E0,0E0,0E0,0E0,0E0,0E0,0E0,0E0,0E0,0E0,0E0,0E0,0E0,0E0,0E0,0E0,0E0,0E0,0E0,0E0,0E0,0E0,0E0,0E0],"parents":[2147483647,0,0,1,1,2,2,3,3,4,4,5,5,6,6,7,7,8,8,9,9,10,10,11,11,12,12,13,13,14,14,15,15,16,16,17,17,18,18,19,19,20,20,21,21,22,22,23,23,24,24,25,25,26,26,27,27,28,28,29,29,30,30,31,31,32,32,33,33,34,34,35,35,36,36,37,37,38,38,39,39,40,40,41,41,42,42,43,43,44,44,45,45,46,46,47,47,48,48,49,49,50,50,51,51,52,52,53,53,54,54,55,55,56,56,57,57,58,58,59,59,60,60,61,61,62,62],"right_children":[2,4,6,8,10,12,14,16,18,20,22,24,26,28,30,32,34,36,38,40,42,44,46,48,50,52,54,56,58,60,62,64,66,68,70,72,74,76,78,80,82,84,86,88,90,92,94,96,98,100,102,104,106,108,110,112,114,116,118,120,122,124,126,-1,-1,-1,-1,-1,-1,-1,-1,-1,-1,-1,-1,-1,-1,-1,-1,-1,-1,-1,-1,-1,-1,-1,-1,-1,-1,-1,-1,-1,-1,-1,-1,-1,-1,-1,-1,-1,-1,-1,-1,-1,-1,-1,-1,-1,-1,-1,-1,-1,-1,-1,-1,-1,-1,-1,-1,-1,-1,-1,-1,-1,-1,-1,-1],"split_conditions":[1E0,2E0,3E0,1.9E1,6E0,2.013E3,4E0,3.9E1,9.2E1,3E0,1E1,4E0,7E0,2.014E3,1.3E1,2E0,-1.4E1,1.8E1,2.6E1,1.38E2,2E0,4E0,1.1E1,2.8E1,1E0,7E0,2E0,2.4E1,2E0,6E0,-7E0,2.012E3,3E0,1.7E1,3.1E1,-2E0,1.9E1,2.2E1,1.4E1,2.008E3,4E0,8.00001E0,4E1,8E0,6E0,7E0,1.3E1,1E1,2.012E3,5.54E2,2.9E1,2.6E1,2.5E1,3E0,2.5E1,1.1E1,1E1,1.1E1,1.5E1,5.3E1,1.9E1,7.1E1,9E1,2.2398789E-1,4.3048054E-2,-3.3097845E-1,3.3865113E-2,9.466081E-2,-2.1740464E-2,1.3241246E-1,2.2906399E-1,2.7984246E-3,3.762103E-2,7.1985796E-2,2.2661763E-1,8.549896E-2,-1.6395834E-1,1.993248E-1,4.968324E-2,-7.8647904E-2,5.5791717E-2,7.950784E-2,1.3743185E-1,1.12364374E-1,-1.0929843E-1,-1.2704949E-2,-9.1509E-2,-4.85058E-2,-1.3591327E-1,-8.836302E-2,1.0170359E-1,1.2158804E-1,-3.3532016E-3,-6.8543546E-2,4.946307E-2,5.0762244E-2,-6.606225E-2,-3.714303E-2,1.922238E-1,-1.4875422E-1,-6.1835527E-2,-5.4055336E-3,2.9838997E-1,-1.2890485E-1,1.574806E-1,3.7159957E-3,8.920077E-2,-2.0887423E-2,4.2889435E-2,-8.646268E-2,-2.3590533E-2,-5.3052984E-2,-1.2578629E-1,-2.582534E-2,1.745185E-1,1.078753E-1,-1.6936151E-3,-4.0795058E-2,1.4287172E-1,-7.071612E-2,-1.2665302E-1,-1.4473282E-1,-3.9129615E-2,-1.8963449E-1,-9.0004966E-2,-5.682933E-2,1.0794773E-1],"split_indices":[6,3,3,5,4,10,4,2,5,3,4,1,4,10,4,1,8,8,11,2,4,1,4,12,8,12,3,12,4,4,8,10,1,0,12,8,0,11,4,10,8,3,5,4,8,0,8,5,10,2,12,11,12,8,12,12,8,0,8,5,8,5,5,0,0,0,0,0,0,0,0,0,0,0,0,0,0,0,0,0,0,0,0,0,0,0,0,0,0,0,0,0,0,0,0,0,0,0,0,0,0,0,0,0,0,0,0,0,0,0,0,0,0,0,0,0,0,0,0,0,0,0,0,0,0,0,0],"split_type":[0,0,0,0,0,0,0,0,0,0,0,0,0,0,0,0,0,0,0,0,0,0,0,0,0,0,0,0,0,0,0,0,0,0,0,0,0,0,0,0,0,0,0,0,0,0,0,0,0,0,0,0,0,0,0,0,0,0,0,0,0,0,0,0,0,0,0,0,0,0,0,0,0,0,0,0,0,0,0,0,0,0,0,0,0,0,0,0,0,0,0,0,0,0,0,0,0,0,0,0,0,0,0,0,0,0,0,0,0,0,0,0,0,0,0,0,0,0,0,0,0,0,0,0,0,0,0],"sum_hessian":[1.5159258E5,1.03754695E5,4.7837883E4,5.44364E4,4.9318297E4,3.4593473E4,1.324441E4,5.97274E3,4.846366E4,1.934677E4,2.9971527E4,1.0512587E4,2.4080887E4,3.250581E3,9.993829E3,2.8145337E2,5.691287E3,4.7030895E4,1.4327631E3,1.1165567E4,8.1812026E3,1.5594556E4,1.4376972E4,6.8701484E3,3.642438E3,4.2763853E3,1.98045E4,1.4356494E3,1.8149315E3,8.0197847E3,1.9740444E3,5.886983E1,2.2258353E2,4.0762036E2,5.2836665E3,4.5193258E4,1.8376372E3,2.5416884E2,1.1785942E3,1.6045219E3,9.561046E3,3.7741587E3,4.407044E3,1.1560394E4,4.034162E3,8.379747E3,5.9972256E3,6.0740205E3,7.9612823E2,3.2173909E3,4.2504712E2,8.062708E2,3.4701147E3,1.2235547E4,7.5689536E3,1.027441E3,4.0820834E2,6.000769E2,1.2148546E3,2.142884E3,5.8769004E3,4.782403E2,1.4958041E3,3.9634247E1,1.9235584E1,1.14507835E2,1.080757E2,1.8641014E2,2.2121022E2,4.9582534E3,3.254132E2,1.9108482E4,2.6084775E4,1.0453744E3,7.922628E2,2.2427359E2,2.989525E1,1.1160597E3,6.253454E1,9.325258E2,6.719961E2,6.891391E3,2.669654E3,3.3871426E3,3.8701602E2,1.9603091E3,2.446735E3,6.099946E3,5.4604478E3,2.1123284E3,1.9218337E3,2.5153562E3,5.8643906E3,5.2772812E3,7.1994434E2,2.457308E2,5.8282896E3,5.631997E2,2.3292853E2,2.4526038E3,7.6478723E2,3.887697E2,3.6277416E1,8.816471E1,7.181061E2,2.422146E3,1.0479686E3,8.77421E3,3.4613372E3,5.656843E3,1.9121105E3,4.3426517E2,5.931759E2,3.6454245E2,4.366589E1,2.5348679E2,3.4659015E2,1.15918E3,5.5674614E1,1.0839075E3,1.0589767E3,5.657952E3,2.1894849E2,2.8261328E2,1.9562701E2,1.392404E3,1.0340008E2],"tree_param":{"num_deleted":"0","num_feature":"13","num_nodes":"127","size_leaf_vector":"1"}},{"base_weights":[-4.3894695E-3,4.9455944E-2,-1.2353011E-1,1.6921645E-2,1.6400129E-1,-7.79634E-2,-2.4886467E-1,9.66219E-4,2.52791E-1,-5.6519255E-2,1.9057204E-1,-2.5217903E-1,-4.3540265E-2,-3.1198815E-2,-2.9420084E-1,6.039926E-2,-6.1088905E-2,8.619749E-3,5.166464E-1,1.2545311E-1,-1.12775035E-1,1.8212464E-1,5.256062E-1,-1.876503E-1,-4.8367912E-1,-1.4535508E-2,-2.6014492E-1,-3.0532497E-1,1.5732955E-2,-2.788054E-1,-6.6398484E-1,3.2716525E-1,3.6920615E-2,1.06489785E-1,-1.3243727E-1,-6.370603E-2,2.2483945E-1,7.5763303E-1,1.1888756E-1,2.2900811E-1,-1.518262E-1,-4.3231112E-1,-6.1468486E-2,2.798448E-1,1.586185E-1,5.7498246E-1,2.2918177E-1,-2.98936E-1,4.335628E-1,-5.0706685E-1,7.297394E-1,-2.8857315E-1,9.591142E-3,-4.5081407E-1,-2.0141067E-1,-1.6321453E-1,-6.399676E-1,5.566752E-2,-2.897849E-1,-2.9147604E-1,1.0834709E-1,-6.7501E-1,8.9011914E-1,-2.2069594E-2,1.13829024E-1,7.1221236E-3,9.272633E-2,6.542734E-2,1.4569481E-2,-2.6106084E-2,-1.0681223E-1,-1.0541945E-1,1.1718538E-2,1.7355175E-1,4.5165427E-2,3.0374426E-1,1.9327001E-1,1.7813014E-2,1.4222422E-1,-1.9078232E-2,8.288661E-2,3.3769302E-2,-2.060109E-1,-3.9084226E-2,-1.7286548E-1,-2.2139952E-2,2.6042995E-1,1.2676245E-1,6.009377E-2,4.3414205E-2,8.803991E-2,1.1667066E-1,1.981269E-1,-2.3086056E-2,1.5036578E-1,-1.21229E-1,4.444393E-3,1.7123382E-1,-1.2343176E-1,1.5348291E-2,-1.7899376E-1,-7.499575E-2,-1.9152361E-1,1.1341333E-1,-2.2104692E-3,-1.4837886E-1,-2.5319366E-2,-7.8781486E-2,-1.3666187E-2,7.1634045E-3,-1.04234256E-1,3.8282824E-1,-2.1177785E-1,-2.8133977E-3,8.412408E-2,-1.5440089E-1,1.2642951E-2,-9.905057E-2,-5.2195087E-2,1.0510877E-1,-3.667717E-2,-8.354696E-2,-2.0955667E-1,5.2986467E-1,-8.254999E-2],"categories":[],"categories_nodes":[],"categories_segments":[],"categories_sizes":[],"default_left":[0,0,1,0,0,0,0,0,0,0,0,0,0,0,0,0,0,0,0,0,0,0,0,0,0,0,0,0,0,0,0,0,0,0,0,0,0,0,0,0,0,0,0,0,0,0,0,0,0,0,0,0,0,0,0,0,0,0,0,0,0,0,0,0,0,0,0,0,0,0,0,0,0,0,0,0,0,0,0,0,0,0,0,0,0,0,0,0,0,0,0,0,0,0,0,0,0,0,0,0,0,0,0,0,0,0,0,0,0,0,0,0,0,0,0,0,0,0,0,0,0,0,0,0,0],"id":7,"left_children":[1,3,5,7,9,11,13,15,17,19,21,23,25,27,29,31,33,35,37,39,41,43,45,47,49,51,53,55,57,59,61,63,65,67,69,71,73,75,77,79,81,83,85,87,89,91,93,95,97,99,-1,101,103,105,107,109,111,113,115,117,119,121,123,-1,-1,-1,-1,-1,-1,-1,-1,-1,-1,-1,-1,-1,-1,-1,-1,-1,-1,-1,-1,-1,-1,-1,-1,-1,-1,-1,-1,-1,-1,-1,-1,-1,-1,-1,-1,-1,-1,-1,-1,-1,-1,-1,-1,-1,-1,-1,-1,-1,-1,-1,-1,-1,-1,-1,-1,-1,-1,-1,-1,-1,-1],"loss_changes":[9.5379565E2,3.8160275E2,2.6428394E2,3.0012784E2,1.3273041E2,2.0353656E2,1.217511E2,2.754971E2,3.2552985E2,2.4956583E1,5.711676E1,8.356036E1,1.7806018E2,2.738283E1,5.794995E1,2.3896622E2,4.3694055E2,4.106994E1,2.3269452E2,1.6569077E1,3.0494106E1,4.5252075E1,7.1371E0,3.0297906E2,8.4440125E1,1.6527026E2,3.7391586E1,1.469153E1,2.2196287E1,4.813092E1,7.581894E0,6.466885E1,1.2579624E2,7.053675E1,2.6026266E2,5.8200226E1,1.7207928E1,4.3046814E1,1.9364143E1,5.8232365E0,2.230511E1,1.1112549E1,1.8464964E1,4.3295532E1,2.9766571E1,6.5010376E0,6.08272E0,1.2260516E2,7.745128E1,6.0593323E1,0E0,2.714534E1,1.4356668E2,1.259021E1,2.440979E1,7.5820236E0,1.2578159E1,2.3518627E1,1.5720858E1,4.3106506E1,1.7425514E1,3.5825348E0,3.8563483E0,0E0,0E0,0E0,0E0,0E0,0E0,0E0,0E0,0E0,0E0,0E0,0E0,0E0,0E0,0E0,0E0,0E0,0E0,0E0,0E0,0E0,0E0,0E0,0E0,0E0,0E0,0E0,0E0,0E0,0E0,0E0,0E0,0E0,0E0,0E0,0E0,0E0,0E0,0E0,0E0,0E0,0E0,0E0,0E0,0E0,0E0,0E0,0E0,0E0,0E0,0E0,0E0,0E0,0E0,0E0,0E0,0E0,0E0,0E0,0E0,0E0,0E0],"parents":[2147483647,0,0,1,1,2,2,3,3,4,4,5,5,6,6,7,7,8,8,9,9,10,10,11,11,12,12,13,13,14,14,15,15,16,16,17,17,18,18,19,19,20,20,21,21,22,22,23,23,24,24,25,25,26,26,27,27,28,28,29,29,30,30,31,31,32,32,33,33,34,34,35,35,36,36,37,37,38,38,39,39,40,40,41,41,42,42,43,43,44,44,45,45,46,46,47,47,48,48,49,49,51,51,52,52,53,53,54,54,55,55,56,56,57,57,58,58,59,59,60,60,61,61,62,62],"right_children":[2,4,6,8,10,12,14,16,18,20,22,24,26,28,30,32,34,36,38,40,42,44,46,48,50,52,54,56,58,60,62,64,66,68,70,72,74,76,78,80,82,84,86,88,90,92,94,96,98,100,-1,102,104,106,108,110,112,114,116,118,120,122,124,-1,-1,-1,-1,-1,-1,-1,-1,-1,-1,-1,-1,-1,-1,-1,-1,-1,-1,-1,-1,-1,-1,-1,-1,-1,-1,-1,-1,-1,-1,-1,-1,-1,-1,-1,-1,-1,-1,-1,-1,-1,-1,-1,-1,-1,-1,-1,-1,-1,-1,-1,-1,-1,-1,-1,-1,-1,-1,-1,-1,-1,-1],"split_conditions":[1E0,2.013E3,3E0,1.5E1,4E0,9.9E1,3E0,2E0,4E0,7E0,2.2E1,4E0,1.1E1,7.8E1,4E0,1.5E1,5E0,7.1E1,5.72E2,3E0,1E1,1E1,9E0,3E0,1E0,2.008E3,-7E0,4E0,4E0,2.1E1,3.4E1,7.8E1,8.9E1,2E0,3E0,3E0,1.2E2,2.05E2,2.9E1,-9E0,2E0,2E0,2.7E1,7.4E1,3.1E1,-2.5E0,2.6E1,7E1,1.1E1,-1.8E1,7.297394E-1,1.36E2,3E0,8.6E1,2.4E1,2E0,-3E1,1.14E2,-4E0,2.5E1,3E0,7E0,2.62E2,-2.2069594E-2,1.13829024E-1,7.1221236E-3,9.272633E-2,6.542734E-2,1.4569481E-2,-2.6106084E-2,-1.0681223E-1,-1.0541945E-1,1.1718538E-2,1.7355175E-1,4.5165427E-2,3.0374426E-1,1.9327001E-1,1.7813014E-2,1.4222422E-1,-1.9078232E-2,8.288661E-2,3.3769302E-2,-2.060109E-1,-3.9084226E-2,-1.7286548E-1,-2.2139952E-2,2.6042995E-1,1.2676245E-1,6.009377E-2,4.3414205E-2,8.803991E-2,1.1667066E-1,1.981269E-1,-2.3086056E-2,1.5036578E-1,-1.21229E-1,4.444393E-3,1.7123382E-1,-1.2343176E-1,1.5348291E-2,-1.7899376E-1,-7.499575E-2,-1.9152361E-1,1.1341333E-1,-2.2104692E-3,-1.4837886E-1,-2.5319366E-2,-7.8781486E-2,-1.3666187E-2,7.1634045E-3,-1.04234256E-1,3.8282824E-1,-2.1177785E-1,-2.8133977E-3,8.412408E-2,-1.5440089E-1,1.2642951E-2,-9.905057E-2,-5.2195087E-2,1.0510877E-1,-3.667717E-2,-8.354696E-2,-2.0955667E-1,5.2986467E-1,-8.254999E-2],"split_indices":[6,10,3,8,12,2,4,3,1,4,8,1,4,2,3,5,4,5,2,3,4,12,9,1,8,10,8,1,3,4,8,2,5,4,3,1,2,2,8,8,4,12,8,11,12,9,8,5,4,8,0,11,4,5,12,4,8,11,8,12,1,0,2,0,0,0,0,0,0,0,0,0,0,0,0,0,0,0,0,0,0,0,0,0,0,0,0,0,0,0,0,0,0,0,0,0,0,0,0,0,0,0,0,0,0,0,0,0,0,0,0,0,0,0,0,0,0,0,0,0,0,0,0,0,0],"split_type":[0,0,0,0,0,0,0,0,0,0,0,0,0,0,0,0,0,0,0,0,0,0,0,0,0,0,0,0,0,0,0,0,0,0,0,0,0,0,0,0,0,0,0,0,0,0,0,0,0,0,0,0,0,0,0,0,0,0,0,0,0,0,0,0,0,0,0,0,0,0,0,0,0,0,0,0,0,0,0,0,0,0,0,0,0,0,0,0,0,0,0,0,0,0,0,0,0,0,0,0,0,0,0,0,0,0,0,0,0,0,0,0,0,0,0,0,0,0,0,0,0,0,0,0,0],"sum_hessian":[1.4867603E5,1.0239801E5,4.6278023E4,7.9748266E4,2.2649742E4,3.3940293E4,1.2337732E4,7.4696414E4,5.0518496E3,2.435499E3,2.0214242E4,5.5987363E3,2.8341555E4,2.1270642E3,1.0210669E4,3.815431E4,3.654211E4,2.6243315E3,2.4275183E3,5.748342E2,1.8606648E3,1.9718611E4,4.9563205E2,4.379733E3,1.2190035E3,2.4995557E4,3.3459988E3,3.1012628E2,1.816938E3,9.804236E3,4.0643198E2,3.0853555E3,3.5068953E4,1.0912053E4,2.5630057E4,1.9670544E3,6.5727704E2,1.5110978E3,9.164205E2,4.186543E2,1.5617995E2,2.5639792E2,1.6042668E3,3.8213853E3,1.5897226E4,4.2405606E2,7.1576E1,3.714777E3,6.6495593E2,1.2101243E3,8.87919E0,2.021686E3,2.2973871E4,7.864072E2,2.5595916E3,2.1872818E2,9.1398094E1,1.6076218E3,2.0931618E2,9.493773E3,3.1046286E2,4.041306E2,2.3013384E0,3.559291E2,2.7294265E3,3.3450156E4,1.6187991E3,3.7275588E3,7.1844937E3,2.1304254E4,4.3258022E3,5.1708575E2,1.4499686E3,1.1291761E2,5.4435944E2,4.628923E2,1.0482054E3,7.85912E2,1.3050847E2,5.819036E1,3.6046393E2,1.0504538E2,5.1134563E1,8.335625E1,1.7304169E2,1.5841724E3,2.0094501E1,1.3660703E3,2.455315E3,1.4413127E4,1.484098E3,1.3518631E2,2.8886972E2,3.4014812E1,3.7561184E1,2.782029E3,9.327481E2,5.723404E2,9.261559E1,1.6739575E2,1.0427286E3,1.8223904E3,1.9929567E2,1.00998596E3,2.1963885E4,7.021583E2,8.424889E1,1.8374612E3,7.221305E2,1.0895373E2,1.0977445E2,2.4310288E0,8.8967064E1,1.2475244E3,3.6009744E2,1.2444968E2,8.486649E1,7.1404688E3,2.353305E3,1.5123007E2,1.5923279E2,2.3341064E1,3.8078955E2,1.0193032E0,1.2820352E0],"tree_param":{"num_deleted":"0","num_feature":"13","num_nodes":"125","size_leaf_vector":"1"}},{"base_weights":[-3.4387982E-3,-1.4933917E-1,2.2505404E-2,-7.428244E-2,-2.6790014E-1,4.7016937E-2,-1.06350824E-1,-1.675213E-1,1.5655221E-2,5.235762E-2,-3.5705483E-1,1.8951817E-1,2.4169356E-2,1.5825358E-1,-1.6462956E-1,1.3082922E-1,-2.0085873E-1,1.2584424E-1,-9.977839E-2,-5.437172E-2,4.5494455E-1,-4.682088E-1,-1.5623653E-1,1.0513561E-1,2.991114E-1,-9.788867E-2,5.333387E-2,-1.887452E-1,2.4010703E-1,-2.5670895E-2,-2.2746614E-1,1.7791247E-1,-3.3361816E-1,4.8356038E-2,-2.3000714E-1,1.885857E-2,2.0608565E-1,9.396222E-2,-2.1156843E-1,1.4699163E-1,-1.4132543E-1,1.4324771E0,2.4795294E-1,-2.2681038E-1,-5.2634096E-1,-2.7883288E-1,-4.6071604E-2,-2.867931E-1,1.3988209E-1,7.501875E-2,3.450169E-1,3.8244337E-1,-1.3726996E-1,7.795408E-2,-1.3282824E-1,-7.014308E-2,-3.287711E-1,4.0523916E-1,1.8912143E-1,-2.2640951E-1,1.67398E-1,-2.5172776E-1,1.3427663E-1,3.039981E-3,8.1636585E-2,7.950521E-2,-1.3379411E-1,-3.204065E-2,5.7714403E-2,-4.5022644E-2,-9.785464E-2,-1.36339795E-2,5.531936E-2,3.6994837E-2,9.281764E-2,7.1776055E-2,-2.9187279E-2,-1.04249276E-1,-2.7547112E-2,3.642791E-2,3.5934922E-1,-5.177285E-2,1.7121626E-1,-8.7728865E-2,4.8819518E-1,2.6225396E-2,1.7919317E-1,-8.918178E-2,6.0072847E-2,-8.18629E-2,-1.7072657E-1,4.229302E-2,-9.51959E-2,3.6689922E-2,-4.7795426E-2,9.881798E-2,-1.78143E-1,6.5663725E-2,2.7541725E-2,7.059908E-2,-7.922954E-2,5.7353124E-2,1.1641996E-1,-8.8976E-2,1.2643842E-1,-5.179134E-3,-7.882273E-2,-2.6961109E-2,3.1872798E-2,1.6771873E-2,-6.010235E-2,2.7394665E-2,-7.546514E-2,-1.9630018E-1,-8.18941E-2,1.2659872E-1,-1.8684186E-1,-6.69609E-2,6.2390286E-2,-3.4798585E-2,-1.108834E-1,-4.6038635E-2,2.0558254E-1,-3.3159144E-2,-1.009014E-1,1.2594266E-1,3.1941787E-3],"categories":[],"categories_nodes":[],"categories_segments":[],"categories_sizes":[],"default_left":[0,0,0,0,0,0,0,0,1,0,0,0,0,0,0,0,0,0,0,0,0,0,0,0,0,0,0,0,0,0,0,0,0,0,0,0,0,0,0,0,0,0,0,0,0,0,0,0,0,0,0,0,0,0,0,0,0,0,0,0,0,0,0,0,0,0,0,0,0,0,0,0,0,0,0,0,0,0,0,0,0,0,0,0,0,0,0,0,0,0,0,0,0,0,0,0,0,0,0,0,0,0,0,0,0,0,0,0,0,0,0,0,0,0,0,0,0,0,0,0,0,0,0,0,0,0,0],"id":8,"left_children":[1,3,5,7,9,11,13,15,17,19,21,23,25,27,29,31,33,35,37,39,41,43,45,47,49,51,53,55,57,59,61,63,65,67,69,71,73,75,77,79,81,83,85,87,89,91,93,95,97,99,101,103,105,107,109,111,113,115,117,119,121,123,125,-1,-1,-1,-1,-1,-1,-1,-1,-1,-1,-1,-1,-1,-1,-1,-1,-1,-1,-1,-1,-1,-1,-1,-1,-1,-1,-1,-1,-1,-1,-1,-1,-1,-1,-1,-1,-1,-1,-1,-1,-1,-1,-1,-1,-1,-1,-1,-1,-1,-1,-1,-1,-1,-1,-1,-1,-1,-1,-1,-1,-1,-1,-1,-1],"loss_changes":[5.545899E2,1.9681909E2,3.9289597E2,1.1359763E2,2.4483966E2,3.4026978E2,3.066079E2,6.6180405E1,8.772799E1,8.029121E1,1.4964679E2,1.3351782E2,3.2064288E2,1.01982E2,1.422605E2,1.4691119E1,4.3473373E1,3.0288513E1,7.297517E1,2.5890621E1,7.887474E1,6.046216E1,3.228356E1,1.1117268E2,6.459387E1,3.2865582E2,3.3322974E2,1.1362398E1,2.4376282E1,1.9671117E2,9.85014E1,9.610205E0,4.2841682E0,1.4039408E1,4.1130524E1,1.611863E1,1.7202065E1,3.429007E1,3.4740158E1,1.1838698E1,2.3071533E1,2.3401825E1,1.8138706E1,2.5324116E1,3.7533875E1,1.832801E1,2.4057903E1,1.2597958E2,2.8451645E1,5.819353E1,3.4452515E1,3.5007538E1,2.4175864E2,3.0485144E2,1.082198E2,1.0931938E1,5.526821E0,1.2051094E1,1.730568E1,3.9301094E1,4.3002548E2,1.2557886E2,2.4911602E1,0E0,0E0,0E0,0E0,0E0,0E0,0E0,0E0,0E0,0E0,0E0,0E0,0E0,0E0,0E0,0E0,0E0,0E0,0E0,0E0,0E0,0E0,0E0,0E0,0E0,0E0,0E0,0E0,0E0,0E0,0E0,0E0,0E0,0E0,0E0,0E0,0E0,0E0,0E0,0E0,0E0,0E0,0E0,0E0,0E0,0E0,0E0,0E0,0E0,0E0,0E0,0E0,0E0,0E0,0E0,0E0,0E0,0E0,0E0,0E0,0E0,0E0,0E0,0E0],"parents":[2147483647,0,0,1,1,2,2,3,3,4,4,5,5,6,6,7,7,8,8,9,9,10,10,11,11,12,12,13,13,14,14,15,15,16,16,17,17,18,18,19,19,20,20,21,21,22,22,23,23,24,24,25,25,26,26,27,27,28,28,29,29,30,30,31,31,32,32,33,33,34,34,35,35,36,36,37,37,38,38,39,39,40,40,41,41,42,42,43,43,44,44,45,45,46,46,47,47,48,48,49,49,50,50,51,51,52,52,53,53,54,54,55,55,56,56,57,57,58,58,59,59,60,60,61,61,62,62],"right_children":[2,4,6,8,10,12,14,16,18,20,22,24,26,28,30,32,34,36,38,40,42,44,46,48,50,52,54,56,58,60,62,64,66,68,70,72,74,76,78,80,82,84,86,88,90,92,94,96,98,100,102,104,106,108,110,112,114,116,118,120,122,124,126,-1,-1,-1,-1,-1,-1,-1,-1,-1,-1,-1,-1,-1,-1,-1,-1,-1,-1,-1,-1,-1,-1,-1,-1,-1,-1,-1,-1,-1,-1,-1,-1,-1,-1,-1,-1,-1,-1,-1,-1,-1,-1,-1,-1,-1,-1,-1,-1,-1,-1,-1,-1,-1,-1,-1,-1,-1,-1,-1,-1,-1,-1,-1,-1],"split_conditions":[-1E1,4E0,3E0,3.6E2,-2.4E1,6E0,2E0,2E0,2E0,7.4E1,5.72E2,3E0,1E1,3E0,2.4E2,1.1E1,3E0,-1.6E1,6E0,-3.2E1,1.68E2,-2E1,-1.6E1,5.6E1,-6E0,2E0,1.1E1,7.7E1,2.8E1,1E0,1.7E1,1E1,3.9E1,3E0,2E0,7E0,6.54E2,3E0,1E1,2.9E1,2.02E3,2.001E3,2.3E1,7.7E1,3E0,9E0,4.4E1,2E0,3.2E1,2E1,6E0,3.9E1,8E0,1.27E2,2E0,2E0,-3.5E0,8.00001E0,4E0,3E0,4E0,5E0,1E0,3.039981E-3,8.1636585E-2,7.950521E-2,-1.3379411E-1,-3.204065E-2,5.7714403E-2,-4.5022644E-2,-9.785464E-2,-1.36339795E-2,5.531936E-2,3.6994837E-2,9.281764E-2,7.1776055E-2,-2.9187279E-2,-1.04249276E-1,-2.7547112E-2,3.642791E-2,3.5934922E-1,-5.177285E-2,1.7121626E-1,-8.7728865E-2,4.8819518E-1,2.6225396E-2,1.7919317E-1,-8.918178E-2,6.0072847E-2,-8.18629E-2,-1.7072657E-1,4.229302E-2,-9.51959E-2,3.6689922E-2,-4.7795426E-2,9.881798E-2,-1.78143E-1,6.5663725E-2,2.7541725E-2,7.059908E-2,-7.922954E-2,5.7353124E-2,1.1641996E-1,-8.8976E-2,1.2643842E-1,-5.179134E-3,-7.882273E-2,-2.6961109E-2,3.1872798E-2,1.6771873E-2,-6.010235E-2,2.7394665E-2,-7.546514E-2,-1.9630018E-1,-8.18941E-2,1.2659872E-1,-1.8684186E-1,-6.69609E-2,6.2390286E-2,-3.4798585E-2,-1.108834E-1,-4.6038635E-2,2.0558254E-1,-3.3159144E-2,-1.009014E-1,1.2594266E-1,3.1941787E-3],"split_indices":[8,1,3,2,8,4,4,1,3,5,2,1,4,5,2,4,4,8,4,8,2,8,8,2,8,3,4,11,5,8,4,4,2,1,3,9,2,3,4,0,10,10,0,5,4,5,5,1,5,0,5,2,4,2,1,5,9,3,11,1,1,4,6,0,0,0,0,0,0,0,0,0,0,0,0,0,0,0,0,0,0,0,0,0,0,0,0,0,0,0,0,0,0,0,0,0,0,0,0,0,0,0,0,0,0,0,0,0,0,0,0,0,0,0,0,0,0,0,0,0,0,0,0,0,0,0,0],"split_type":[0,0,0,0,0,0,0,0,0,0,0,0,0,0,0,0,0,0,0,0,0,0,0,0,0,0,0,0,0,0,0,0,0,0,0,0,0,0,0,0,0,0,0,0,0,0,0,0,0,0,0,0,0,0,0,0,0,0,0,0,0,0,0,0,0,0,0,0,0,0,0,0,0,0,0,0,0,0,0,0,0,0,0,0,0,0,0,0,0,0,0,0,0,0,0,0,0,0,0,0,0,0,0,0,0,0,0,0,0,0,0,0,0,0,0,0,0,0,0,0,0,0,0,0,0,0,0],"sum_hessian":[1.4651078E5,2.211872E4,1.2439206E5,1.3545299E4,8.573421E3,1.0451202E5,1.9880047E4,6.6501694E3,6.8951294E3,1.8670591E3,6.7063613E3,1.4440263E4,9.007176E4,3.5879358E3,1.629211E4,6.681041E2,5.9820654E3,3.5276572E3,3.3674724E3,1.4764928E3,3.9056628E2,4.3160654E3,2.3902961E3,8.1596255E3,6.280637E3,1.7370629E4,7.270113E4,6.8456683E2,2.9033691E3,5.073603E3,1.1218508E4,6.071694E2,6.093473E1,6.263346E2,5.355731E3,1.5124056E3,2.0152516E3,1.2321765E3,2.135296E3,4.4508807E2,1.0314048E3,6.721557E1,3.2335074E2,8.3860297E2,3.4774622E3,1.1305925E3,1.2597036E3,6.638919E2,7.4957334E3,1.0682915E3,5.2123457E3,1.3155995E3,1.6055028E4,6.420986E4,8.491268E3,3.7144952E2,3.1311728E2,6.833116E2,2.2200576E3,2.4873105E3,2.5862925E3,1.0513673E4,7.048345E2,2.1873253E2,3.8843686E2,9.415084E0,5.151965E1,3.0163846E2,3.2469614E2,2.9262583E3,2.4294727E3,1.089792E3,4.2261365E2,1.1200537E3,8.951978E2,7.0008484E2,5.3209174E2,9.9917395E2,1.136122E3,4.3560602E2,9.482058E0,9.887668E2,4.2637993E1,6.771049E0,6.0444523E1,2.2240334E2,1.0094739E2,7.20094E2,1.1850898E2,5.0291162E2,2.9745505E3,9.472115E1,1.0358713E3,5.0653024E2,7.531734E2,2.2075706E2,4.4313486E2,2.8345576E3,4.661176E3,7.255887E2,3.4270282E2,1.1408628E3,4.071483E3,7.112968E1,1.2444698E3,8.206852E3,7.848177E3,9.261719E3,5.4948145E4,2.2372202E3,6.2540474E3,1.9679344E2,1.746561E2,4.4238514E1,2.6887875E2,6.729327E2,1.0378892E1,9.656325E1,2.1234944E3,1.4054576E3,1.081853E3,1.597337E3,9.889554E2,3.9403442E3,6.573329E3,2.1224394E2,4.9259055E2],"tree_param":{"num_deleted":"0","num_feature":"13","num_nodes":"127","size_leaf_vector":"1"}},{"base_weights":[-2.8440186E-3,-1.9020349E-2,1.5324306E-1,1.2543324E-2,-8.90339E-2,7.030661E-3,3.7913984E-1,-7.647191E-2,4.2125262E-2,1.340602E-1,-1.0649696E-1,-1.9081494E-2,3.5053554E-1,6.917541E-1,1.5183143E-1,-2.845907E-1,-5.893267E-2,3.5418827E-2,3.213624E-1,3.9988884E-1,-1.5343681E-2,-8.559973E-2,-2.6645103E-1,-2.1726869E-1,9.947065E-3,4.7940585E-1,1.01674385E-1,9.266472E-1,5.807372E-1,2.346641E-1,-8.8820435E-2,-2.2071138E-1,-7.4886715E-1,2.3605201E-2,-1.0666603E-1,1.0343802E-1,8.553413E-3,6.80264E-1,2.6822314E-1,-2.8692767E-1,4.387498E-1,-5.075634E-1,8.0643585E-3,-1.2265513E-1,1.9413441E-1,-7.565625E-1,-8.9413814E-2,2.7911583E-1,-2.4126829E-1,-9.663145E-2,7.392897E-2,-2.5114518E-2,5.4705954E-1,6.2473744E-2,1.5419412E0,1.024409E0,7.645723E-1,6.155696E-1,-5.5938557E-2,3.112577E-1,-5.0023757E-2,-1.652629E-1,1.4073339E-1,-2.8571893E-2,-1.00502335E-1,-9.862172E-2,-2.8154904E-1,-4.4384092E-2,2.4807794E-2,-3.7011307E-2,7.372943E-2,2.88183E-2,3.375023E-1,2.6125165E-2,-7.808471E-3,2.622923E-1,1.09732516E-1,1.0084123E-1,2.6030426E-3,2.7412957E-1,-1.3972932E-1,1.069134E-1,2.0740993E-1,-1.00147486E-1,-2.4583553E-1,5.6510385E-2,-1.1859061E-2,-2.893955E-2,-1.0498548E-1,-6.84905E-2,7.67198E-2,2.6655823E-1,-2.2795293E-1,7.80485E-1,-2.8969139E-2,-3.2222944E-1,1.1565899E-1,-5.480774E-2,-1.2275071E-1,-7.0846796E-2,-7.7190753E-3,3.7264246E-2,-6.2303286E-2,1.2385367E-2,-4.3539098E-1,1.0771239E-1,2.213102E-1,-1.895484E-2,1.1102166E-1,9.56446E-2,5.4254323E-1,2.9529145E-1,4.0827355E-1,2.4389617E-1,-1.1144497E-1,2.9675898E-1,1.6058165E-1,1.7110223E-1,-9.477057E-2,1.0766648E-1,-3.407874E-2,-6.3985206E-2,6.664576E-2,-5.6249246E-2,1.8726158E-1,9.47431E-2,-2.0190917E-2],"categories":[],"categories_nodes":[],"categories_segments":[],"categories_sizes":[],"default_left":[0,0,0,0,0,0,0,0,0,1,0,0,0,0,0,0,0,0,0,0,0,0,0,0,0,0,0,0,0,0,0,0,0,0,0,0,0,0,0,0,0,0,0,0,0,0,0,0,0,0,1,0,0,0,0,0,0,0,0,0,0,0,0,0,0,0,0,0,0,0,0,0,0,0,0,0,0,0,0,0,0,0,0,0,0,0,0,0,0,0,0,0,0,0,0,0,0,0,0,0,0,0,0,0,0,0,0,0,0,0,0,0,0,0,0,0,0,0,0,0,0,0,0,0,0,0,0],"id":9,"left_children":[1,3,5,7,9,11,13,15,17,19,21,23,25,27,29,31,33,35,37,39,41,43,45,47,49,51,53,55,57,59,61,63,65,67,69,71,73,75,77,79,81,83,85,87,89,91,93,95,97,99,101,103,105,107,109,111,113,115,117,119,121,123,125,-1,-1,-1,-1,-1,-1,-1,-1,-1,-1,-1,-1,-1,-1,-1,-1,-1,-1,-1,-1,-1,-1,-1,-1,-1,-1,-1,-1,-1,-1,-1,-1,-1,-1,-1,-1,-1,-1,-1,-1,-1,-1,-1,-1,-1,-1,-1,-1,-1,-1,-1,-1,-1,-1,-1,-1,-1,-1,-1,-1,-1,-1,-1,-1],"loss_changes":[3.6513458E2,2.895681E2,4.4852292E2,2.3782977E2,1.5864243E2,7.396074E1,3.7906128E2,8.221709E1,1.2693737E2,1.1741545E2,1.2619833E2,4.4090332E1,1.8633362E1,5.80343E1,6.1631157E1,5.1757828E1,8.186608E1,1.2097219E2,3.0137741E1,2.8516754E1,2.1821056E1,3.4623248E2,3.78486E2,1.1731396E1,4.5594788E1,1.3104195E1,1.1196062E1,1.0612305E1,3.391931E1,5.0158714E1,1.3923674E1,2.205915E1,1.6527985E1,7.719618E1,7.753824E1,1.411484E2,1.2888457E2,1.2152298E1,2.4435303E1,1.2787014E1,2.07108E1,4.3852386E0,1.5527426E1,1.7553702E2,1.0172862E2,6.9226685E0,6.194153E1,6.98325E0,9.11581E0,2.4806873E1,5.9189243E1,4.4447074E0,1.1858093E1,7.5895348E0,1.137351E0,4.674713E0,1.5402023E1,4.293518E1,1.3233195E1,3.671251E1,2.1749119E1,1.0556459E1,7.2486057E0,0E0,0E0,0E0,0E0,0E0,0E0,0E0,0E0,0E0,0E0,0E0,0E0,0E0,0E0,0E0,0E0,0E0,0E0,0E0,0E0,0E0,0E0,0E0,0E0,0E0,0E0,0E0,0E0,0E0,0E0,0E0,0E0,0E0,0E0,0E0,0E0,0E0,0E0,0E0,0E0,0E0,0E0,0E0,0E0,0E0,0E0,0E0,0E0,0E0,0E0,0E0,0E0,0E0,0E0,0E0,0E0,0E0,0E0,0E0,0E0,0E0,0E0,0E0,0E0],"parents":[2147483647,0,0,1,1,2,2,3,3,4,4,5,5,6,6,7,7,8,8,9,9,10,10,11,11,12,12,13,13,14,14,15,15,16,16,17,17,18,18,19,19,20,20,21,21,22,22,23,23,24,24,25,25,26,26,27,27,28,28,29,29,30,30,31,31,32,32,33,33,34,34,35,35,36,36,37,37,38,38,39,39,40,40,41,41,42,42,43,43,44,44,45,45,46,46,47,47,48,48,49,49,50,50,51,51,52,52,53,53,54,54,55,55,56,56,57,57,58,58,59,59,60,60,61,61,62,62],"right_children":[2,4,6,8,10,12,14,16,18,20,22,24,26,28,30,32,34,36,38,40,42,44,46,48,50,52,54,56,58,60,62,64,66,68,70,72,74,76,78,80,82,84,86,88,90,92,94,96,98,100,102,104,106,108,110,112,114,116,118,120,122,124,126,-1,-1,-1,-1,-1,-1,-1,-1,-1,-1,-1,-1,-1,-1,-1,-1,-1,-1,-1,-1,-1,-1,-1,-1,-1,-1,-1,-1,-1,-1,-1,-1,-1,-1,-1,-1,-1,-1,-1,-1,-1,-1,-1,-1,-1,-1,-1,-1,-1,-1,-1,-1,-1,-1,-1,-1,-1,-1,-1,-1,-1,-1,-1,-1],"split_conditions":[1.2E1,1E0,4E0,2.003E3,1.3E1,8.5E1,4.31E2,9E0,9.2E1,2E0,1.25E2,9E0,5.13E2,2E0,8.01E2,8E0,4.8E1,3.7E1,1.2E2,2.6E1,2.1E1,1.14E2,1.27E2,2E0,3E0,9E0,2.1E1,3.05E2,4E0,3E0,2.3E1,1.1E1,3.6E1,2E3,8.7E1,5E0,2E0,3E0,4E0,2E0,1.09E2,9E0,1.51E2,1.06E2,2.011E3,-1.6E1,-1.6E1,3E0,2.6E1,2.006E3,3E0,8E0,1.7E1,1.5E1,3E0,1E0,1.4E1,1.27E2,9.3E1,1.1E1,2.1E1,3.2E1,8.64E2,-2.8571893E-2,-1.00502335E-1,-9.862172E-2,-2.8154904E-1,-4.4384092E-2,2.4807794E-2,-3.7011307E-2,7.372943E-2,2.88183E-2,3.375023E-1,2.6125165E-2,-7.808471E-3,2.622923E-1,1.09732516E-1,1.0084123E-1,2.6030426E-3,2.7412957E-1,-1.3972932E-1,1.069134E-1,2.0740993E-1,-1.00147486E-1,-2.4583553E-1,5.6510385E-2,-1.1859061E-2,-2.893955E-2,-1.0498548E-1,-6.84905E-2,7.67198E-2,2.6655823E-1,-2.2795293E-1,7.80485E-1,-2.8969139E-2,-3.2222944E-1,1.1565899E-1,-5.480774E-2,-1.2275071E-1,-7.0846796E-2,-7.7190753E-3,3.7264246E-2,-6.2303286E-2,1.2385367E-2,-4.3539098E-1,1.0771239E-1,2.213102E-1,-1.895484E-2,1.1102166E-1,9.56446E-2,5.4254323E-1,2.9529145E-1,4.0827355E-1,2.4389617E-1,-1.1144497E-1,2.9675898E-1,1.6058165E-1,1.7110223E-1,-9.477057E-2,1.0766648E-1,-3.407874E-2,-6.3985206E-2,6.664576E-2,-5.6249246E-2,1.8726158E-1,9.47431E-2,-2.0190917E-2],"split_indices":[8,6,1,10,5,5,2,11,5,3,11,11,2,3,2,11,11,5,2,2,2,11,11,4,1,11,4,2,3,3,8,0,5,10,5,1,1,1,1,4,11,5,2,11,10,9,9,11,12,10,3,11,12,0,1,6,4,2,2,4,8,12,2,0,0,0,0,0,0,0,0,0,0,0,0,0,0,0,0,0,0,0,0,0,0,0,0,0,0,0,0,0,0,0,0,0,0,0,0,0,0,0,0,0,0,0,0,0,0,0,0,0,0,0,0,0,0,0,0,0,0,0,0,0,0,0,0],"split_type":[0,0,0,0,0,0,0,0,0,0,0,0,0,0,0,0,0,0,0,0,0,0,0,0,0,0,0,0,0,0,0,0,0,0,0,0,0,0,0,0,0,0,0,0,0,0,0,0,0,0,0,0,0,0,0,0,0,0,0,0,0,0,0,0,0,0,0,0,0,0,0,0,0,0,0,0,0,0,0,0,0,0,0,0,0,0,0,0,0,0,0,0,0,0,0,0,0,0,0,0,0,0,0,0,0,0,0,0,0,0,0,0,0,0,0,0,0,0,0,0,0,0,0,0,0,0,0],"sum_hessian":[1.446104E5,1.3103162E5,1.3578789E4,9.031598E4,4.0715637E4,8.243918E3,5.334871E3,2.2527305E4,6.778867E4,2.9552349E3,3.7760402E4,7.6623916E3,5.8152637E2,2.24513E3,3.089741E3,1.7497482E3,2.0777557E4,6.6199875E4,1.5887952E3,1.0627133E3,1.8925216E3,3.3398574E4,4.3618276E3,9.7810095E2,6.684291E3,3.8251718E2,1.9900917E2,7.181978E2,1.5269323E3,2.2985889E3,7.9115216E2,1.5394169E3,2.1033139E2,7.6133975E3,1.3164159E4,1.8742875E4,4.7457E4,2.033785E2,1.3854166E3,5.6567795E1,1.00614545E3,8.497616E1,1.8075455E3,2.9492385E4,3.9061912E3,1.1566033E3,3.2052246E3,4.4618782E1,9.334822E2,2.5072698E3,4.177021E3,4.530308E1,3.372141E2,1.9475186E2,4.2573066E0,4.446617E2,2.7353607E2,1.4477587E3,7.917352E1,1.8112023E3,4.8738663E2,5.937206E2,1.9743158E2,7.34707E2,8.047099E2,6.6261444E1,1.4406995E2,1.9500872E3,5.6633105E3,1.2569045E4,5.9511444E2,1.8609586E4,1.3329065E2,1.4508515E4,3.2948484E4,1.24673386E2,7.870512E1,1.0978519E3,2.875648E2,6.800485E0,4.976731E1,7.6055774E2,2.4558765E2,5.5904625E1,2.9071531E1,3.7687256E2,1.430673E3,2.6446537E4,3.045847E3,4.9675763E2,3.4094336E3,1.7648249E0,1.1548384E3,7.5320415E0,3.1976924E3,2.5899644E0,4.202882E1,6.9359467E2,2.398875E2,8.4401843E2,1.6632513E3,3.5446316E3,6.323895E2,4.421559E1,1.087493E0,1.7122655E2,1.6598755E2,1.3883229E2,5.5919563E1,1.1546767E0,3.1026297E0,4.0081757E2,4.384414E1,2.6262814E2,1.0907951E1,2.5410063E2,1.1936581E3,2.2873913E1,5.629961E1,1.6287567E3,1.8244554E2,3.0478372E2,1.826029E2,5.781987E2,1.5521884E1,1.0692706E2,9.050451E1],"tree_param":{"num_deleted":"0","num_feature":"13","num_nodes":"127","size_leaf_vector":"1"}},{"base_weights":[-2.0129462E-3,-2.5997816E-2,7.419138E-2,2.5618381E-3,-1.2328235E-1,-8.314332E-3,2.6172492E-1,-4.9115144E-2,3.5714347E-2,-2.051081E-1,5.5572163E-2,-2.7631607E-2,2.0559627E-1,5.8740896E-1,8.224147E-2,4.806111E-2,-9.9392764E-2,5.612012E-2,-9.740349E-2,-3.3783254E-1,-5.998615E-2,3.475287E-1,-1.18451774E-1,-8.5134305E-2,3.9473314E-2,6.174126E-1,1.3066916E-1,8.80936E-1,4.4751644E-1,2.160023E-1,-4.1893546E-2,7.679765E-2,-1.2665047E-1,-1.2145883E-1,1.9708872E-1,-6.801199E-2,6.721652E-2,5.902636E-2,-2.1009003E-1,7.5676404E-2,-4.1527495E-1,-3.0364446E-2,-3.6735004E-1,7.280374E-1,1.9744235E-1,-2.7690354E-1,8.713853E-2,6.226192E-2,-1.0616232E-1,1.2850866E-1,-4.6603546E-2,8.3637345E-1,1.7511557E-1,1.1667264E-1,8.508875E-1,1.0748945E0,7.0135146E-1,9.0255183E-1,3.1128925E-1,2.9280084E-1,-7.32104E-2,-3.1335267E-1,-3.440961E-3,-9.43355E-3,3.136644E-2,2.1659771E-2,-9.372644E-2,-6.173039E-2,-1.8627559E-3,2.2556783E-1,1.465854E-2,6.0073692E-2,-2.8340977E-2,3.1885345E-2,9.7351475E-3,5.1215E-2,-9.645643E-3,-7.2139904E-2,1.5433124E-1,-2.7284823E-2,1.2918456E-1,-4.584432E-4,-1.3774458E-1,2.7081905E-2,-2.5700243E-2,-1.35646E-1,-1.2448172E-2,2.4095403E-1,-7.059266E-2,4.058327E-2,1.8819566E-1,-1.4822596E-1,-6.2057015E-2,2.9122686E-1,-2.6289048E-3,-1.546323E-1,2.4602888E-2,-6.249115E-2,-2.1880668E-2,1.14830226E-1,2.574336E-2,2.3919014E-2,-4.4736773E-2,3.9831694E-2,3.4264278E-1,1.6404645E-1,-7.292571E-2,-3.930828E-2,4.36061E-2,3.4546328E-1,1.4946836E-1,3.1073505E-1,4.3210417E-1,2.1867824E-1,3.8176026E-2,3.04178E-1,6.727278E-3,3.3121258E-2,1.2458864E-1,9.893427E-2,-1.3657681E-2,-3.7360612E-2,1.9178542E-1,3.6372073E-2,-1.1238251E-1,1.4049E-1,-6.486798E-3],"categories":[],"categories_nodes":[],"categories_segments":[],"categories_sizes":[],"default_left":[0,0,0,0,0,0,0,0,0,0,0,0,0,0,0,1,0,0,0,0,0,0,0,0,0,0,0,0,0,0,0,0,0,0,0,0,0,0,0,0,0,0,0,0,0,0,0,0,0,0,0,0,0,0,0,0,0,0,0,0,0,0,0,0,0,0,0,0,0,0,0,0,0,0,0,0,0,0,0,0,0,0,0,0,0,0,0,0,0,0,0,0,0,0,0,0,0,0,0,0,0,0,0,0,0,0,0,0,0,0,0,0,0,0,0,0,0,0,0,0,0,0,0,0,0,0,0],"id":10,"left_children":[1,3,5,7,9,11,13,15,17,19,21,23,25,27,29,31,33,35,37,39,41,43,45,47,49,51,53,55,57,59,61,63,65,67,69,71,73,75,77,79,81,83,85,87,89,91,93,95,97,99,101,103,105,107,109,111,113,115,117,119,121,123,125,-1,-1,-1,-1,-1,-1,-1,-1,-1,-1,-1,-1,-1,-1,-1,-1,-1,-1,-1,-1,-1,-1,-1,-1,-1,-1,-1,-1,-1,-1,-1,-1,-1,-1,-1,-1,-1,-1,-1,-1,-1,-1,-1,-1,-1,-1,-1,-1,-1,-1,-1,-1,-1,-1,-1,-1,-1,-1,-1,-1,-1,-1,-1,-1],"loss_changes":[2.6235114E2,3.0333444E2,5.3167633E2,1.4459691E2,3.62617E2,9.8617836E1,6.136597E2,1.6116212E2,1.396695E2,3.2741534E2,3.9522357E2,8.4465904E1,6.0913193E1,1.5276855E2,1.1241774E2,5.6479473E1,1.4223982E2,6.141313E1,1.20484924E2,2.8436176E2,7.393504E1,1.657597E2,1.5880096E2,3.654316E1,7.742424E1,2.9296364E1,1.67725E1,4.114502E1,1.5643344E2,7.240141E1,3.665912E1,2.9025463E1,5.8723705E1,1.9659555E2,1.2382948E2,2.5987226E1,5.5581833E1,2.915657E1,8.755966E1,8.2920715E1,1.3575354E2,4.9437603E1,1.9707054E1,5.96456E1,5.5624092E1,4.177623E1,1.7984528E2,1.6839733E1,3.4997917E1,5.3876724E1,6.654318E1,4.353981E1,1.597828E1,1.1691032E1,2.7924042E0,6.7470703E0,9.840851E0,5.702301E1,4.063707E1,3.2233734E1,2.511332E1,1.16457405E1,2.6404533E1,0E0,0E0,0E0,0E0,0E0,0E0,0E0,0E0,0E0,0E0,0E0,0E0,0E0,0E0,0E0,0E0,0E0,0E0,0E0,0E0,0E0,0E0,0E0,0E0,0E0,0E0,0E0,0E0,0E0,0E0,0E0,0E0,0E0,0E0,0E0,0E0,0E0,0E0,0E0,0E0,0E0,0E0,0E0,0E0,0E0,0E0,0E0,0E0,0E0,0E0,0E0,0E0,0E0,0E0,0E0,0E0,0E0,0E0,0E0,0E0,0E0,0E0,0E0,0E0],"parents":[2147483647,0,0,1,1,2,2,3,3,4,4,5,5,6,6,7,7,8,8,9,9,10,10,11,11,12,12,13,13,14,14,15,15,16,16,17,17,18,18,19,19,20,20,21,21,22,22,23,23,24,24,25,25,26,26,27,27,28,28,29,29,30,30,31,31,32,32,33,33,34,34,35,35,36,36,37,37,38,38,39,39,40,40,41,41,42,42,43,43,44,44,45,45,46,46,47,47,48,48,49,49,50,50,51,51,52,52,53,53,54,54,55,55,56,56,57,57,58,58,59,59,60,60,61,61,62,62],"right_children":[2,4,6,8,10,12,14,16,18,20,22,24,26,28,30,32,34,36,38,40,42,44,46,48,50,52,54,56,58,60,62,64,66,68,70,72,74,76,78,80,82,84,86,88,90,92,94,96,98,100,102,104,106,108,110,112,114,116,118,120,122,124,126,-1,-1,-1,-1,-1,-1,-1,-1,-1,-1,-1,-1,-1,-1,-1,-1,-1,-1,-1,-1,-1,-1,-1,-1,-1,-1,-1,-1,-1,-1,-1,-1,-1,-1,-1,-1,-1,-1,-1,-1,-1,-1,-1,-1,-1,-1,-1,-1,-1,-1,-1,-1,-1,-1,-1,-1,-1,-1,-1,-1,-1,-1,-1,-1],"split_conditions":[5E0,4E0,4E0,3.64E2,-2E0,8.4E1,3.71E2,2E0,3E0,4.49E2,4.4E1,3E0,1.16E2,2E0,6.42E2,3E0,8.4E1,9E0,4E0,-2.1E1,1.1E1,2.26E2,1E0,4E0,2E0,3E0,2.1E1,2.19E2,1.24E2,3E0,9E0,4E0,5E0,3E0,7.5E1,2E0,7.5E1,2E0,9E1,6.6E1,9E0,3.7E1,1.14E2,4E0,5E0,2.02E2,1.48E2,1.8E1,1.27E2,1.38E2,7E0,2E0,2E0,9E0,1E0,1E0,1.1E1,4E0,9E0,1.1E1,1.5E1,4E0,1.2E1,-9.43355E-3,3.136644E-2,2.1659771E-2,-9.372644E-2,-6.173039E-2,-1.8627559E-3,2.2556783E-1,1.465854E-2,6.0073692E-2,-2.8340977E-2,3.1885345E-2,9.7351475E-3,5.1215E-2,-9.645643E-3,-7.2139904E-2,1.5433124E-1,-2.7284823E-2,1.2918456E-1,-4.584432E-4,-1.3774458E-1,2.7081905E-2,-2.5700243E-2,-1.35646E-1,-1.2448172E-2,2.4095403E-1,-7.059266E-2,4.058327E-2,1.8819566E-1,-1.4822596E-1,-6.2057015E-2,2.9122686E-1,-2.6289048E-3,-1.546323E-1,2.4602888E-2,-6.249115E-2,-2.1880668E-2,1.14830226E-1,2.574336E-2,2.3919014E-2,-4.4736773E-2,3.9831694E-2,3.4264278E-1,1.6404645E-1,-7.292571E-2,-3.930828E-2,4.36061E-2,3.4546328E-1,1.4946836E-1,3.1073505E-1,4.3210417E-1,2.1867824E-1,3.8176026E-2,3.04178E-1,6.727278E-3,3.3121258E-2,1.2458864E-1,9.893427E-2,-1.3657681E-2,-3.7360612E-2,1.9178542E-1,3.6372073E-2,-1.1238251E-1,1.4049E-1,-6.486798E-3],"split_indices":[8,1,1,2,8,5,2,1,3,2,5,1,2,3,2,3,5,11,4,8,4,2,8,4,3,1,4,2,2,3,11,0,4,1,2,11,11,4,5,5,5,5,11,3,1,2,2,2,2,2,4,1,3,11,6,6,4,3,8,4,4,4,11,0,0,0,0,0,0,0,0,0,0,0,0,0,0,0,0,0,0,0,0,0,0,0,0,0,0,0,0,0,0,0,0,0,0,0,0,0,0,0,0,0,0,0,0,0,0,0,0,0,0,0,0,0,0,0,0,0,0,0,0,0,0,0,0],"split_type":[0,0,0,0,0,0,0,0,0,0,0,0,0,0,0,0,0,0,0,0,0,0,0,0,0,0,0,0,0,0,0,0,0,0,0,0,0,0,0,0,0,0,0,0,0,0,0,0,0,0,0,0,0,0,0,0,0,0,0,0,0,0,0,0,0,0,0,0,0,0,0,0,0,0,0,0,0,0,0,0,0,0,0,0,0,0,0,0,0,0,0,0,0,0,0,0,0,0,0,0,0,0,0,0,0,0,0,0,0,0,0,0,0,0,0,0,0,0,0,0,0,0,0,0,0,0,0],"sum_hessian":[1.4353564E5,1.0917432E5,3.4361324E4,8.4398555E4,2.4775764E4,2.3863496E4,1.049783E4,3.2983906E4,5.141465E4,1.699872E4,7.777044E3,2.1887781E4,1.9757134E3,3.7290186E3,6.7688115E3,1.1246598E4,2.1737307E4,4.4581312E4,6.8333374E3,8.877908E3,8.1208115E3,2.9040237E3,4.8730205E3,1.1787079E4,1.0100703E4,3.0301788E2,1.6726954E3,1.2018857E3,2.5271328E3,3.2577285E3,3.5110828E3,9.658525E3,1.5880725E3,2.0232094E4,1.5052124E3,3.657775E3,4.092354E4,2.861508E3,3.971829E3,1.4004001E3,7.4775083E3,7.4079785E3,7.128334E2,8.2035516E2,2.0836685E3,2.7518093E3,2.121211E3,1.4713893E3,1.031569E4,4.9647847E3,5.1359185E3,2.0208432E2,1.0093356E2,1.6419484E3,3.0747171E1,5.754217E2,6.2646405E2,5.809566E2,1.9461761E3,2.5741638E3,6.8356476E2,4.3475388E2,3.0763289E3,1.971247E3,7.6872783E3,7.67331E2,8.2074146E2,1.1684031E4,8.5480625E3,3.1650006E2,1.1887124E3,3.277851E2,3.3299897E3,1.92686E4,2.1654938E4,1.2857003E3,1.5758079E3,3.8126492E3,1.591799E2,9.5351624E2,4.4688394E2,7.1699286E2,6.760515E3,2.3283367E3,5.0796416E3,5.6532214E2,1.4751125E2,7.611504E2,5.920477E1,1.8215653E3,2.6210327E2,6.696086E2,2.082201E3,2.0678773E2,1.9144232E3,4.7804546E1,1.4235847E3,2.5307395E3,7.7849507E3,7.127097E2,4.2520747E3,2.3008352E3,2.8350833E3,6.1651985E1,1.4043234E2,5.327452E1,4.7659046E1,1.7002017E2,1.4719281E3,1.5374484E1,1.5372686E1,5.232565E2,5.2165188E1,5.9749457E2,2.8969505E1,5.155632E2,6.5393425E1,6.645938E2,1.2815824E3,2.3205466E3,2.536171E2,6.3840234E2,4.5162445E1,5.3587242E1,3.8116663E2,1.13248024E2,2.963081E3],"tree_param":{"num_deleted":"0","num_feature":"13","num_nodes":"127","size_leaf_vector":"1"}},{"base_weights":[-1.4691252E-3,1.1379857E-1,-1.2662801E-2,1.2562637E-1,-2.6543874E-1,3.924171E-3,-1.4065282E-1,-1.0409188E-1,1.4215097E-1,5.0604916E-1,-3.1585646E-1,1.4904813E-2,-1.1631026E-1,-1.6601846E-1,1.6530736E-1,2.8222802E-1,-1.7836736E-1,2.067712E-1,8.966288E-2,-2.5879747E-1,6.5112495E-1,-1.7254114E-1,-4.9699387E-1,-9.800014E-2,2.8076068E-2,-1.9035555E-1,8.285473E-3,2.9389359E-2,-1.9803871E-1,5.116167E-1,9.259389E-2,-9.980584E-3,4.756462E-1,-3.604664E-1,3.8563028E-2,1.58013E-1,3.6257344E-1,-1.5397954E-1,1.1798758E-1,1.149953E0,8.653983E-2,-5.0128356E-2,-3.902849E-1,1.1250768E0,-5.6914276E-1,-1.950377E-1,1.0695397E-1,1.039989E-1,4.894633E-3,-4.481943E-2,-2.3437925E-1,4.7753483E-1,-2.8585417E-2,-1.4270681E-1,4.706461E-1,-5.695039E-2,-2.673027E-1,8.411321E-1,6.522981E-2,-4.5120777E-3,3.5060123E-1,1.9191879E-1,-4.9358774E-2,2.7700529E-1,9.117767E-2,9.82831E-2,-1.4092183E-1,1.6066377E-1,-1.0929831E-1,5.3817097E-2,-4.155059E-2,1.5271492E-1,7.705999E-2,-2.6547855E-2,-1.4734602E-1,5.6244887E-2,3.4894163E-3,-2.0420952E-1,4.3008605E-1,-1.18131675E-1,1.7073922E-1,1.1280973E-2,-1.320314E-1,-8.053586E-2,-3.367924E-1,4.371628E-2,4.0528235E-1,-1.7832816E-1,2.4840643E-1,4.0220253E-2,-8.737022E-2,1.12884186E-1,1.436493E-3,5.214029E-2,6.528486E-4,-3.0208318E-3,3.20594E-2,-5.3687625E-2,1.5335501E-2,-8.878056E-2,-3.1174527E-2,2.1880491E-1,-2.3705239E-4,7.8720585E-2,-2.3886839E-2,-8.741348E-2,5.3018257E-2,-7.73561E-2,1.9800115E-1,-9.022199E-2,-4.820632E-3,-8.8078E-2,1.2421769E-2,-7.564686E-2,4.117388E-1,-9.332201E-2,1.3387199E-1,-1.3774688E-2,1.5849592E-1,-6.7515105E-2,1.4515029E-1],"categories":[],"categories_nodes":[],"categories_segments":[],"categories_sizes":[],"default_left":[0,0,0,0,0,0,0,0,0,0,0,0,0,0,0,0,0,0,0,0,0,0,0,0,0,0,0,0,0,0,0,0,0,0,0,0,0,0,0,0,0,0,0,0,1,0,0,0,0,0,0,0,0,0,0,0,0,0,0,0,0,0,0,0,0,0,0,0,0,0,0,0,0,0,0,0,0,0,0,0,0,0,0,0,0,0,0,0,0,0,0,0,0,0,0,0,0,0,0,0,0,0,0,0,0,0,0,0,0,0,0,0,0,0,0,0,0,0,0,0,0],"id":11,"left_children":[1,3,5,7,9,11,13,15,17,19,21,23,25,27,29,31,33,35,37,-1,39,41,43,45,47,49,51,53,55,57,59,61,63,65,67,69,71,73,75,77,79,81,83,85,87,89,91,93,95,97,99,101,103,105,107,109,111,113,115,117,119,-1,-1,-1,-1,-1,-1,-1,-1,-1,-1,-1,-1,-1,-1,-1,-1,-1,-1,-1,-1,-1,-1,-1,-1,-1,-1,-1,-1,-1,-1,-1,-1,-1,-1,-1,-1,-1,-1,-1,-1,-1,-1,-1,-1,-1,-1,-1,-1,-1,-1,-1,-1,-1,-1,-1,-1,-1,-1,-1,-1],"loss_changes":[1.8320193E2,5.6407455E1,2.7475342E2,4.6282425E1,1.4957691E1,1.5126598E2,1.15260895E2,2.353677E1,3.8549545E1,5.2719746E0,9.200542E0,1.5612637E2,8.845802E1,8.5800446E1,2.8589706E1,7.486664E0,2.7157497E1,3.8653122E1,4.333134E1,0E0,6.101411E0,5.3444405E0,1.907003E1,2.1815707E2,1.6547153E2,3.8521637E1,6.1866688E1,1.4673419E2,1.151163E2,2.8940422E1,2.3580181E1,5.497822E0,5.844837E0,2.8248123E1,6.316315E1,2.4637398E1,1.8663559E1,1.4399144E1,4.156022E1,7.004018E0,2.8687854E0,4.463158E0,6.1472034E0,1.360878E0,5.841873E0,2.3571051E2,9.699113E1,1.5630428E2,1.0990688E2,1.7999361E1,3.70484E1,3.1376919E1,4.9259953E1,6.607518E1,7.4957756E1,3.8671154E1,6.4144165E1,6.617583E1,1.2297066E1,1.5130607E1,1.9847301E1,0E0,0E0,0E0,0E0,0E0,0E0,0E0,0E0,0E0,0E0,0E0,0E0,0E0,0E0,0E0,0E0,0E0,0E0,0E0,0E0,0E0,0E0,0E0,0E0,0E0,0E0,0E0,0E0,0E0,0E0,0E0,0E0,0E0,0E0,0E0,0E0,0E0,0E0,0E0,0E0,0E0,0E0,0E0,0E0,0E0,0E0,0E0,0E0,0E0,0E0,0E0,0E0,0E0,0E0,0E0,0E0,0E0,0E0,0E0,0E0],"parents":[2147483647,0,0,1,1,2,2,3,3,4,4,5,5,6,6,7,7,8,8,9,9,10,10,11,11,12,12,13,13,14,14,15,15,16,16,17,17,18,18,20,20,21,21,22,22,23,23,24,24,25,25,26,26,27,27,28,28,29,29,30,30,31,31,32,32,33,33,34,34,35,35,36,36,37,37,38,38,39,39,40,40,41,41,42,42,43,43,44,44,45,45,46,46,47,47,48,48,49,49,50,50,51,51,52,52,53,53,54,54,55,55,56,56,57,57,58,58,59,59,60,60],"right_children":[2,4,6,8,10,12,14,16,18,20,22,24,26,28,30,32,34,36,38,-1,40,42,44,46,48,50,52,54,56,58,60,62,64,66,68,70,72,74,76,78,80,82,84,86,88,90,92,94,96,98,100,102,104,106,108,110,112,114,116,118,120,-1,-1,-1,-1,-1,-1,-1,-1,-1,-1,-1,-1,-1,-1,-1,-1,-1,-1,-1,-1,-1,-1,-1,-1,-1,-1,-1,-1,-1,-1,-1,-1,-1,-1,-1,-1,-1,-1,-1,-1,-1,-1,-1,-1,-1,-1,-1,-1,-1,-1,-1,-1,-1,-1,-1,-1,-1,-1,-1,-1],"split_conditions":[3E0,8.00001E0,3E0,4.7E1,2E0,1.1E1,8.5E1,2E0,3E0,-4.5E0,1E0,9.9E1,7.1E1,1.03E2,1.24E2,6.4E1,3E0,1.09E2,3E0,-2.5879747E-1,8.8E1,2.1E1,9E0,6.6E1,3.5E1,2E0,7.5E1,6.2E1,3.8E1,3E0,9.3E1,9E0,2.006E3,2E0,4E0,1.04E2,1.23E2,8E0,5.6E1,-1.5E1,1.16E2,2.7E1,5.98E2,1.9E1,8.94E2,2E0,3.1E1,2E0,9E0,1.4E1,5E0,3E0,4E0,4E0,2E0,-1E1,1.7E1,2E0,0E0,2.2E1,8E0,1.9191879E-1,-4.9358774E-2,2.7700529E-1,9.117767E-2,9.82831E-2,-1.4092183E-1,1.6066377E-1,-1.0929831E-1,5.3817097E-2,-4.155059E-2,1.5271492E-1,7.705999E-2,-2.6547855E-2,-1.4734602E-1,5.6244887E-2,3.4894163E-3,-2.0420952E-1,4.3008605E-1,-1.18131675E-1,1.7073922E-1,1.1280973E-2,-1.320314E-1,-8.053586E-2,-3.367924E-1,4.371628E-2,4.0528235E-1,-1.7832816E-1,2.4840643E-1,4.0220253E-2,-8.737022E-2,1.12884186E-1,1.436493E-3,5.214029E-2,6.528486E-4,-3.0208318E-3,3.20594E-2,-5.3687625E-2,1.5335501E-2,-8.878056E-2,-3.1174527E-2,2.1880491E-1,-2.3705239E-4,7.8720585E-2,-2.3886839E-2,-8.741348E-2,5.3018257E-2,-7.73561E-2,1.9800115E-1,-9.022199E-2,-4.820632E-3,-8.8078E-2,1.2421769E-2,-7.564686E-2,4.117388E-1,-9.332201E-2,1.3387199E-1,-1.3774688E-2,1.5849592E-1,-6.7515105E-2,1.4515029E-1],"split_indices":[4,3,3,2,5,4,5,1,3,9,8,2,5,2,2,11,1,11,5,0,11,0,2,5,5,1,2,5,5,1,5,12,10,3,1,11,11,9,5,8,11,12,2,0,2,1,2,3,8,4,8,1,0,1,1,8,4,1,8,4,4,0,0,0,0,0,0,0,0,0,0,0,0,0,0,0,0,0,0,0,0,0,0,0,0,0,0,0,0,0,0,0,0,0,0,0,0,0,0,0,0,0,0,0,0,0,0,0,0,0,0,0,0,0,0,0,0,0,0,0,0],"split_type":[0,0,0,0,0,0,0,0,0,0,0,0,0,0,0,0,0,0,0,0,0,0,0,0,0,0,0,0,0,0,0,0,0,0,0,0,0,0,0,0,0,0,0,0,0,0,0,0,0,0,0,0,0,0,0,0,0,0,0,0,0,0,0,0,0,0,0,0,0,0,0,0,0,0,0,0,0,0,0,0,0,0,0,0,0,0,0,0,0,0,0,0,0,0,0,0,0,0,0,0,0,0,0,0,0,0,0,0,0,0,0,0,0,0,0,0,0,0,0,0,0],"sum_hessian":[1.4198527E5,1.2566955E4,1.29418305E5,1.2187515E4,3.7944016E2,1.1457131E5,1.4846995E4,8.1751086E2,1.1370004E4,2.2721434E1,3.5671872E2,1.0498429E5,9.587018E3,1.3710761E4,1.1362336E3,1.3138008E2,6.861308E2,5.0947324E3,6.275271E3,1.7035115E0,2.1017923E1,2.0024113E2,1.564776E2,1.0967098E4,9.4017195E4,6.0130366E3,3.573981E3,1.9303899E3,1.1780371E4,1.9612437E2,9.401093E2,5.2704536E1,7.867555E1,3.7265195E2,3.1347885E2,3.8819072E3,1.2128253E3,6.530919E2,5.622179E3,1.0608331E1,1.0409593E1,1.2896747E2,7.127367E1,6.042167E0,1.5043542E2,7.443125E3,3.5239727E3,2.1990705E4,7.202649E4,1.3969467E3,4.61609E3,2.5949408E2,3.314487E3,1.3892428E3,5.411471E2,3.8795938E3,7.9007773E3,1.1232419E2,8.380018E1,6.8374963E2,2.5635968E2,9.524593E0,4.3179943E1,2.0597452E1,5.80781E1,5.0796368E1,3.2185556E2,1.402031E2,1.7327576E2,3.6212292E3,2.606782E2,5.067769E2,7.060484E2,5.479334E2,1.0515846E2,3.3998699E3,2.222309E3,1.2354823E0,9.3728485E0,5.3093543E0,5.100238E0,1.0602008E2,2.2947392E1,6.227962E1,8.994041E0,1.4406455E0,4.6015215E0,1.4832573E2,2.1096938E0,1.6834261E3,5.759699E3,9.684048E2,2.555568E3,1.3046377E4,8.944329E3,6.2810035E4,9.216453E3,5.8213934E2,8.148073E2,3.1354473E3,1.4806427E3,1.6965445E2,8.9839615E1,4.9397406E2,2.820513E3,9.4807605E2,4.4116672E2,1.11566185E2,4.2958093E2,5.562355E2,3.3233582E3,7.2807715E3,6.2000574E2,3.6907394E1,7.5416794E1,4.2252857E1,4.1547318E1,6.352978E2,4.8451817E1,4.805264E1,2.0830705E2],"tree_param":{"num_deleted":"0","num_feature":"13","num_nodes":"121","size_leaf_vector":"1"}},{"base_weights":[-1.302839E-3,-1.0592696E-1,8.214392E-3,-1.2933126E-1,1.0771798E-1,6.3692026E-2,-8.346654E-3,1.3416897E-1,-1.4924657E-1,7.398024E-2,7.118922E-1,-1.6852386E-1,7.927183E-2,-1.7589306E-2,1.0898863E-1,-1.1769339E-1,2.3796457E-1,-1.6011451E-1,1.8943527E-1,1.7290401E-1,-7.865758E-2,1.530354E0,4.078293E-1,-3.2455012E-1,1.3236119E-1,1.4612922E-1,2.6458029E-2,1.4203681E-1,-2.3700489E-2,3.7136632E-1,9.0960555E-2,-1.5192232E-1,1.0103315E0,-4.824504E-3,3.7525982E-1,-1.8439624E-1,-5.2308742E-2,8.944547E-1,9.806355E-2,1.4846765E-1,9.492906E-1,4.4738486E-2,-4.401226E-1,-5.2171797E-2,1.6755323E0,1.4700718E0,2.9816943E-1,1.3736051E-1,-5.173323E-1,-2.78336E-1,6.250613E-1,1.0814827E-1,2.758399E-1,9.723313E-2,-6.2177584E-2,-8.024543E-2,1.5851244E-1,-8.729654E-3,-1.3401417E-1,6.070626E-1,-2.735132E-2,6.553074E-2,2.6972586E-1,-2.5368586E-2,-2.0173255E-1,-1.2483673E-1,4.120916E-1,3.6656804E-2,-9.9049896E-2,3.251264E-1,7.184771E-2,6.123831E-2,-5.715458E-2,1.9066427E-2,-4.850254E-2,2.0041637E-1,6.623363E-1,1.2141361E-2,2.1289778E-1,2.6363118E-2,1.0985254E-1,1.2631944E-1,5.7561845E-1,1.8412046E-1,-6.5306234E-3,-1.6866271E-1,2.0074658E-2,2.1837483E-1,5.528337E-1,1.0303815E-1,5.5026835E-1,5.1595505E-2,3.6311722E-1,9.044954E-2,-2.3921598E-3,-6.399996E-3,-1.7787305E-1,1.22116365E-1,-1.7856286E-1,2.0947513E-1,-5.5288706E-2,-6.832152E-2,3.7106317E-2,2.6740491E-2,1.09222494E-1,-3.373346E-2,6.008056E-2,-4.927777E-2,1.3521775E-2,1.6753461E-2,-1.8466383E-1,-3.4827102E-2,5.1552676E-2,-2.778229E-2,1.8126128E-3,1.376961E-2,-4.687222E-2,-1.3663092E-2,3.100429E-1,-1.033384E-1,8.409671E-2,3.038563E-2,-1.2228478E-2,1.281496E-1,3.201192E-2],"categories":[],"categories_nodes":[],"categories_segments":[],"categories_sizes":[],"default_left":[0,0,0,0,0,1,0,0,0,0,0,0,0,0,0,0,0,0,0,0,0,0,0,0,0,0,0,0,0,0,0,0,0,0,0,0,0,0,0,0,0,0,0,0,0,0,0,0,0,0,0,0,0,0,0,0,0,0,0,0,0,0,0,0,0,0,0,0,0,0,0,0,0,0,0,0,0,0,0,0,0,0,0,0,0,0,0,0,0,0,0,0,0,0,0,0,0,0,0,0,0,0,0,0,0,0,0,0,0,0,0,0,0,0,0,0,0,0,0,0,0,0,0,0,0],"id":12,"left_children":[1,3,5,7,9,11,13,15,17,19,21,23,25,27,29,31,33,35,37,39,41,43,45,47,49,51,53,55,57,59,61,63,65,67,69,71,73,75,77,79,81,83,85,-1,87,89,91,93,95,97,99,101,103,105,107,109,111,113,115,117,119,121,123,-1,-1,-1,-1,-1,-1,-1,-1,-1,-1,-1,-1,-1,-1,-1,-1,-1,-1,-1,-1,-1,-1,-1,-1,-1,-1,-1,-1,-1,-1,-1,-1,-1,-1,-1,-1,-1,-1,-1,-1,-1,-1,-1,-1,-1,-1,-1,-1,-1,-1,-1,-1,-1,-1,-1,-1,-1,-1,-1,-1,-1,-1],"loss_changes":[1.4035423E2,5.8781662E1,1.1870799E2,5.560936E1,2.3611446E1,1.0747417E2,1.07909904E2,1.9501156E1,3.6283066E1,1.6633057E1,1.4627222E1,8.773033E1,9.828441E1,8.998053E1,3.4334007E1,8.573005E0,1.7596498E1,2.497255E1,1.9668404E1,1.2535282E1,1.9355711E1,4.3087425E0,4.9254684E0,1.0962668E2,1.2938281E2,6.0489807E1,9.7569565E1,1.2468567E1,1.4671107E2,4.388524E1,3.0894264E1,7.3941317E0,3.9674616E0,7.9600043E0,3.2174038E1,1.8555756E1,2.2258877E1,8.950731E0,9.573806E0,8.528125E0,9.537497E0,1.2277719E1,6.8728676E0,0E0,1.0448265E0,1.0333738E0,4.7406282E0,8.663298E0,3.25343E1,7.602633E1,1.7342545E1,4.9632866E1,4.5792892E1,1.868533E2,7.561156E1,1.7180355E1,1.1611679E1,9.691917E1,4.2456543E1,8.170057E1,1.7110538E1,2.2633318E1,2.1680729E1,0E0,0E0,0E0,0E0,0E0,0E0,0E0,0E0,0E0,0E0,0E0,0E0,0E0,0E0,0E0,0E0,0E0,0E0,0E0,0E0,0E0,0E0,0E0,0E0,0E0,0E0,0E0,0E0,0E0,0E0,0E0,0E0,0E0,0E0,0E0,0E0,0E0,0E0,0E0,0E0,0E0,0E0,0E0,0E0,0E0,0E0,0E0,0E0,0E0,0E0,0E0,0E0,0E0,0E0,0E0,0E0,0E0,0E0,0E0,0E0,0E0,0E0],"parents":[2147483647,0,0,1,1,2,2,3,3,4,4,5,5,6,6,7,7,8,8,9,9,10,10,11,11,12,12,13,13,14,14,15,15,16,16,17,17,18,18,19,19,20,20,21,21,22,22,23,23,24,24,25,25,26,26,27,27,28,28,29,29,30,30,31,31,32,32,33,33,34,34,35,35,36,36,37,37,38,38,39,39,40,40,41,41,42,42,44,44,45,45,46,46,47,47,48,48,49,49,50,50,51,51,52,52,53,53,54,54,55,55,56,56,57,57,58,58,59,59,60,60,61,61,62,62],"right_children":[2,4,6,8,10,12,14,16,18,20,22,24,26,28,30,32,34,36,38,40,42,44,46,48,50,52,54,56,58,60,62,64,66,68,70,72,74,76,78,80,82,84,86,-1,88,90,92,94,96,98,100,102,104,106,108,110,112,114,116,118,120,122,124,-1,-1,-1,-1,-1,-1,-1,-1,-1,-1,-1,-1,-1,-1,-1,-1,-1,-1,-1,-1,-1,-1,-1,-1,-1,-1,-1,-1,-1,-1,-1,-1,-1,-1,-1,-1,-1,-1,-1,-1,-1,-1,-1,-1,-1,-1,-1,-1,-1,-1,-1,-1,-1,-1,-1,-1,-1,-1,-1,-1,-1,-1],"split_conditions":[-1.4E1,1.28E2,3.2E1,-3.2E1,2.02E3,4.5E1,8.6E1,1.9E1,8.9E1,1.36E2,-2.5E1,3E0,2E0,2E0,6.7E1,8.95E2,4.4E1,7.06E2,8.4E1,1.8E1,1.5E1,1.5E1,-1.6E1,2E0,-2E0,4E0,7E0,5.9E1,3E0,3E0,2.9E1,1E0,2.003E3,2.4E1,1.2E2,2E0,4E0,2.5E1,8.08E2,7.6E1,3E0,-2.8E1,2.3E1,-5.2171797E-2,6E0,1.7E1,8E1,2E0,3E0,4E0,8.00001E0,4E0,-5E0,6E0,1E1,4E0,4E0,1.44E2,8.4E1,8E0,0E0,2.2E1,2.01E3,-2.5368586E-2,-2.0173255E-1,-1.2483673E-1,4.120916E-1,3.6656804E-2,-9.9049896E-2,3.251264E-1,7.184771E-2,6.123831E-2,-5.715458E-2,1.9066427E-2,-4.850254E-2,2.0041637E-1,6.623363E-1,1.2141361E-2,2.1289778E-1,2.6363118E-2,1.0985254E-1,1.2631944E-1,5.7561845E-1,1.8412046E-1,-6.5306234E-3,-1.6866271E-1,2.0074658E-2,2.1837483E-1,5.528337E-1,1.0303815E-1,5.5026835E-1,5.1595505E-2,3.6311722E-1,9.044954E-2,-2.3921598E-3,-6.399996E-3,-1.7787305E-1,1.22116365E-1,-1.7856286E-1,2.0947513E-1,-5.5288706E-2,-6.832152E-2,3.7106317E-2,2.6740491E-2,1.09222494E-1,-3.373346E-2,6.008056E-2,-4.927777E-2,1.3521775E-2,1.6753461E-2,-1.8466383E-1,-3.4827102E-2,5.1552676E-2,-2.778229E-2,1.8126128E-3,1.376961E-2,-4.687222E-2,-1.3663092E-2,3.100429E-1,-1.033384E-1,8.409671E-2,3.038563E-2,-1.2228478E-2,1.281496E-1,3.201192E-2],"split_indices":[8,11,5,8,10,2,5,0,5,11,8,1,3,4,2,2,5,2,2,4,12,5,9,1,8,1,4,2,3,1,12,7,10,0,2,5,1,0,2,5,3,8,0,0,4,0,5,3,5,1,3,11,8,5,4,1,11,2,2,0,8,12,10,0,0,0,0,0,0,0,0,0,0,0,0,0,0,0,0,0,0,0,0,0,0,0,0,0,0,0,0,0,0,0,0,0,0,0,0,0,0,0,0,0,0,0,0,0,0,0,0,0,0,0,0,0,0,0,0,0,0,0,0,0,0],"split_type":[0,0,0,0,0,0,0,0,0,0,0,0,0,0,0,0,0,0,0,0,0,0,0,0,0,0,0,0,0,0,0,0,0,0,0,0,0,0,0,0,0,0,0,0,0,0,0,0,0,0,0,0,0,0,0,0,0,0,0,0,0,0,0,0,0,0,0,0,0,0,0,0,0,0,0,0,0,0,0,0,0,0,0,0,0,0,0,0,0,0,0,0,0,0,0,0,0,0,0,0,0,0,0,0,0,0,0,0,0,0,0,0,0,0,0,0,0,0,0,0,0,0,0,0,0],"sum_hessian":[1.4095397E5,1.1752052E4,1.2920192E5,1.0592106E4,1.1599459E3,2.9701709E4,9.950022E4,7.438931E2,9.848213E3,1.099662E3,6.0283875E1,1.866836E3,2.7834871E4,9.2235555E4,7.2646636E3,2.1705948E2,5.268336E2,9.54253E3,3.0568228E2,6.671517E2,4.325103E2,1.5236899E1,4.5046974E1,1.2292964E3,6.375397E2,1.2283426E4,1.5551446E4,3.4001545E3,8.88354E4,4.658055E2,6.798858E3,2.1150682E2,5.552668E0,1.90653E2,3.3618063E2,7.787742E3,1.7547886E3,3.4063206E1,2.7161908E2,6.4794904E2,1.920264E1,3.2309064E2,1.0941968E2,1.180542E0,1.4056357E1,3.054379E0,4.1992596E1,3.620658E2,8.672306E2,3.479424E2,2.8959726E2,9.502735E3,2.7806897E3,8.646868E3,6.9045786E3,2.3436258E2,3.165792E3,7.822099E4,1.0614408E4,2.9242194E2,1.7338358E2,5.953346E3,8.455119E2,1.8830124E2,2.3205585E1,1.0976372E0,4.455031E0,1.3756996E2,5.308305E1,5.2938995E1,2.8324164E2,1.2024907E2,7.667493E3,8.5228784E2,9.025007E2,3.0341436E1,3.7217684E0,2.4921715E2,2.2401947E1,5.079767E2,1.3997234E2,1.3358318E1,5.844322E0,3.2951244E1,2.901394E2,8.809827E1,2.1321417E1,2.911605E0,1.11447525E1,1.220772E0,1.8336068E0,3.793387E1,4.058727E0,1.695287E2,1.9253708E2,1.1484079E2,7.5238983E2,1.099147E2,2.380277E2,2.65707E2,2.3890265E1,4.195907E2,9.0831455E3,8.930377E2,1.8876519E3,2.8490117E3,5.797856E3,3.537256E3,3.3673228E3,1.8757164E2,4.6790943E1,1.4620312E2,3.0195889E3,1.1711939E4,6.650905E4,1.1670071E3,9.4474E3,1.15914055E2,1.7650787E2,8.532356E1,8.806001E1,4.4548633E3,1.4984829E3,4.2929297E2,4.1621893E2],"tree_param":{"num_deleted":"0","num_feature":"13","num_nodes":"125","size_leaf_vector":"1"}},{"base_weights":[-1.0018162E-3,-3.0448784E-3,3.4782788E-1,2.2323024E-2,-3.0090168E-2,5.7768792E-2,4.857844E-1,-8.110431E-2,4.3555938E-2,-7.064398E-2,3.0084463E-2,8.948989E-2,-1.0294492E0,4.3567753E-1,9.088768E-1,-1.7859934E-1,-4.022249E-2,2.5767195E-1,3.2382816E-2,-1.0160582E-1,3.8444843E-2,5.8087144E-2,-8.455852E-2,-4.4310802E-1,2.7184895E-1,4.6569273E-1,-1.7911868E-1,1.0891999E0,4.7622117E-1,1.4075299E-1,-1.9680928E-1,3.919823E-2,-1.22386456E-1,1.819182E-1,3.867051E-1,1.07243955E-2,1.0285757E-1,-8.487068E-2,-2.1361288E-1,2.0672654E-1,1.4582698E-2,7.1725645E-3,1.8887815E-1,-2.5647935E-1,5.3115986E-2,2.0065133E-2,-6.112549E-1,4.709505E-1,1.0282941E-1,4.029719E-1,7.492692E-1,-2.9954758E-1,3.6834955E-1,7.767557E-1,1.3899266E0,2.4852742E-1,3.078075E-1,7.321004E-2,-6.159555E-2,-3.625075E-2,-9.2242435E-2,2.5671685E-2,-3.5482116E-2,6.3215117E-3,-1.18554495E-1,6.200681E-2,-2.7347604E-2,8.9318365E-2,1.8247482E-1,-4.029385E-2,8.17085E-3,2.0766787E-2,